{
    "Item1": 34,
    "Item2": {
        "list": [
            {
                "InputLayer": {
                    "list": [
                        0.18902944028377534,
                        1.0,
                        0.14890125393867494
                    ]
                },
                "HiddenLayers": {
                    "list": [
                        {
                            "list": [
                                0.10001376271247864,
                                -0.7237240076065064,
                                0.41024649143218996,
                                0.2550225257873535,
                                -0.6756030321121216,
                                0.4502864181995392,
                                0.0419439896941185,
                                0.14297233521938325,
                                0.03507661819458008
                            ]
                        },
                        {
                            "list": [
                                -0.32700616121292117,
                                -0.7033907771110535,
                                0.7874468564987183,
                                -0.7902354598045349,
                                -0.1462557315826416,
                                0.16361060738563538,
                                -0.4319758713245392,
                                0.34958910942077639,
                                -0.35348573327064516
                            ]
                        }
                    ]
                },
                "OutputLayer": {
                    "list": [
                        0.8393194079399109,
                        -0.18732687830924989
                    ]
                },
                "Weights": {
                    "list": [
                        {
                            "list": [
                                {
                                    "list": [
                                        0.6283752918243408,
                                        -0.10809624195098877,
                                        0.04428517818450928,
                                        -0.37384164333343508,
                                        0.4146279990673065,
                                        0.6485292911529541,
                                        0.33968135714530947,
                                        -0.5026161670684815,
                                        0.23138558864593507
                                    ]
                                },
                                {
                                    "list": [
                                        0.49468109011650088,
                                        -0.390144944190979,
                                        0.7652285099029541,
                                        0.729609489440918,
                                        -0.49433815479278567,
                                        0.6911971569061279,
                                        0.42902418971061709,
                                        0.6777687072753906,
                                        0.4515082538127899
                                    ]
                                },
                                {
                                    "list": [
                                        -0.69091796875,
                                        -0.6353738307952881,
                                        0.48718544840812685,
                                        0.08105862140655518,
                                        0.03502833843231201,
                                        0.5473823547363281,
                                        -0.27555620670318606,
                                        -0.19184601306915284,
                                        -0.33526408672332766
                                    ]
                                }
                            ]
                        },
                        {
                            "list": [
                                {
                                    "list": [
                                        -0.24465811252593995,
                                        0.11889851093292237,
                                        -0.14712226390838624,
                                        -0.03708302974700928,
                                        -0.4101208448410034,
                                        -0.5667221546173096,
                                        -0.6743741035461426,
                                        -0.5121066570281982,
                                        0.4520849883556366
                                    ]
                                },
                                {
                                    "list": [
                                        -0.6086483001708984,
                                        0.3054022490978241,
                                        -0.7920389175415039,
                                        0.3469376266002655,
                                        0.11921107769012451,
                                        -0.31060826778411868,
                                        0.1149672269821167,
                                        -0.9249675273895264,
                                        -0.42080771923065188
                                    ]
                                },
                                {
                                    "list": [
                                        -0.3494797945022583,
                                        -0.4908024072647095,
                                        0.8136756420135498,
                                        -0.9713578224182129,
                                        0.2688572108745575,
                                        0.8535478115081787,
                                        -0.1833270788192749,
                                        0.10296165943145752,
                                        -0.8835670948028565
                                    ]
                                },
                                {
                                    "list": [
                                        0.1875234842300415,
                                        0.3781983554363251,
                                        0.5657846927642822,
                                        -0.8225662708282471,
                                        0.2982043921947479,
                                        -0.5472469329833984,
                                        0.2433685064315796,
                                        -0.8190062046051025,
                                        -0.1825190782546997
                                    ]
                                },
                                {
                                    "list": [
                                        0.7299566268920898,
                                        -0.24774467945098878,
                                        -0.3014429807662964,
                                        -0.6855678558349609,
                                        -0.6136605739593506,
                                        -0.27326905727386477,
                                        0.2884821593761444,
                                        -0.8859999179840088,
                                        0.3505956828594208
                                    ]
                                },
                                {
                                    "list": [
                                        0.9037032127380371,
                                        -0.7231793403625488,
                                        0.3126334846019745,
                                        -0.7269682884216309,
                                        -0.46369826793670657,
                                        -0.08213460445404053,
                                        0.946681022644043,
                                        -0.5329856872558594,
                                        0.784508466720581
                                    ]
                                },
                                {
                                    "list": [
                                        -0.6762211322784424,
                                        0.11960494518280029,
                                        0.6850605010986328,
                                        -0.09102761745452881,
                                        0.9154934883117676,
                                        -0.6323211193084717,
                                        0.5680389404296875,
                                        0.5934188365936279,
                                        0.6980800628662109
                                    ]
                                },
                                {
                                    "list": [
                                        -0.7884521484375,
                                        0.19723021984100343,
                                        0.4900469481945038,
                                        0.902562141418457,
                                        -0.06859171390533447,
                                        0.6791605949401856,
                                        -0.8683667182922363,
                                        -0.4639815092086792,
                                        -0.08461606502532959
                                    ]
                                },
                                {
                                    "list": [
                                        0.15371811389923097,
                                        0.08877766132354737,
                                        0.6517624855041504,
                                        -0.9132080078125,
                                        -0.07809698581695557,
                                        0.1759270429611206,
                                        0.24043142795562745,
                                        0.976942777633667,
                                        -0.16302502155303956
                                    ]
                                }
                            ]
                        },
                        {
                            "list": [
                                {
                                    "list": [
                                        -0.3092541992664337,
                                        0.07624876499176026
                                    ]
                                },
                                {
                                    "list": [
                                        -1.0,
                                        -0.7166671752929688
                                    ]
                                },
                                {
                                    "list": [
                                        0.016285061836242677,
                                        0.3152420222759247
                                    ]
                                },
                                {
                                    "list": [
                                        -0.41923344135284426,
                                        1.0
                                    ]
                                },
                                {
                                    "list": [
                                        1.0,
                                        -0.14875829219818116
                                    ]
                                },
                                {
                                    "list": [
                                        -0.18634521961212159,
                                        -0.536639928817749
                                    ]
                                },
                                {
                                    "list": [
                                        -0.5346875190734863,
                                        -0.12855899333953858
                                    ]
                                },
                                {
                                    "list": [
                                        0.4439352750778198,
                                        -0.005756020545959473
                                    ]
                                },
                                {
                                    "list": [
                                        -0.4729503393173218,
                                        -0.5436298847198486
                                    ]
                                }
                            ]
                        }
                    ]
                },
                "Biases": {
                    "list": [
                        -0.4102346897125244,
                        -0.43801236152648928,
                        -0.30637383460998537
                    ]
                },
                "Fitness": 141035.0
            },
            {
                "InputLayer": {
                    "list": [
                        0.15300492942333222,
                        -1.0,
                        0.15161794424057008
                    ]
                },
                "HiddenLayers": {
                    "list": [
                        {
                            "list": [
                                -0.6945361495018005,
                                -0.13218499720096589,
                                -0.7986310720443726,
                                -0.828944742679596,
                                0.15167511999607087,
                                -0.7255237698554993,
                                -0.6799737215042114,
                                -0.8318132758140564,
                                -0.7049996852874756
                            ]
                        },
                        {
                            "list": [
                                0.37855255603790285,
                                -0.29438886046409609,
                                -0.9945951700210571,
                                0.8804791569709778,
                                -0.7152688503265381,
                                -0.44000497460365298,
                                -0.4751344323158264,
                                0.18061242997646333,
                                -0.5681565999984741
                            ]
                        }
                    ]
                },
                "OutputLayer": {
                    "list": [
                        -0.4993212819099426,
                        0.8361266255378723
                    ]
                },
                "Weights": {
                    "list": [
                        {
                            "list": [
                                {
                                    "list": [
                                        1.0,
                                        -0.10809624195098877,
                                        0.04428517818450928,
                                        -0.37384164333343508,
                                        0.4146279990673065,
                                        0.6485292911529541,
                                        0.33968135714530947,
                                        -0.5026161670684815,
                                        0.23138558864593507
                                    ]
                                },
                                {
                                    "list": [
                                        0.49468109011650088,
                                        -0.390144944190979,
                                        0.7652285099029541,
                                        0.729609489440918,
                                        -0.49433815479278567,
                                        0.6911971569061279,
                                        0.42902418971061709,
                                        0.6777687072753906,
                                        0.4515082538127899
                                    ]
                                },
                                {
                                    "list": [
                                        -0.69091796875,
                                        -0.6353738307952881,
                                        0.48718544840812685,
                                        0.08105862140655518,
                                        0.03502833843231201,
                                        0.5473823547363281,
                                        -0.27555620670318606,
                                        -0.19184601306915284,
                                        -0.33526408672332766
                                    ]
                                }
                            ]
                        },
                        {
                            "list": [
                                {
                                    "list": [
                                        -0.24465811252593995,
                                        0.11889851093292237,
                                        -0.14712226390838624,
                                        -0.03708302974700928,
                                        -0.4101208448410034,
                                        -0.5667221546173096,
                                        -0.6743741035461426,
                                        -0.5121066570281982,
                                        0.4520849883556366
                                    ]
                                },
                                {
                                    "list": [
                                        -0.6086483001708984,
                                        0.3054022490978241,
                                        -0.7920389175415039,
                                        0.3469376266002655,
                                        0.11921107769012451,
                                        -0.31060826778411868,
                                        0.1149672269821167,
                                        -0.9249675273895264,
                                        -0.42080771923065188
                                    ]
                                },
                                {
                                    "list": [
                                        -0.3494797945022583,
                                        -0.4908024072647095,
                                        0.8136756420135498,
                                        -0.9713578224182129,
                                        0.2688572108745575,
                                        0.8535478115081787,
                                        -0.1833270788192749,
                                        0.10296165943145752,
                                        -0.8835670948028565
                                    ]
                                },
                                {
                                    "list": [
                                        0.1875234842300415,
                                        0.3781983554363251,
                                        0.5657846927642822,
                                        -0.8225662708282471,
                                        0.2982043921947479,
                                        -0.5472469329833984,
                                        0.2433685064315796,
                                        -0.8190062046051025,
                                        -0.1825190782546997
                                    ]
                                },
                                {
                                    "list": [
                                        0.7299566268920898,
                                        -0.24774467945098878,
                                        -0.3014429807662964,
                                        -0.6855678558349609,
                                        -0.6136605739593506,
                                        -0.27326905727386477,
                                        0.2884821593761444,
                                        -0.8859999179840088,
                                        0.3505956828594208
                                    ]
                                },
                                {
                                    "list": [
                                        0.9037032127380371,
                                        -0.7231793403625488,
                                        0.3126334846019745,
                                        -0.7269682884216309,
                                        -0.46369826793670657,
                                        -0.08213460445404053,
                                        0.946681022644043,
                                        -0.5329856872558594,
                                        0.784508466720581
                                    ]
                                },
                                {
                                    "list": [
                                        -0.6762211322784424,
                                        0.11960494518280029,
                                        0.6850605010986328,
                                        -0.09102761745452881,
                                        0.9154934883117676,
                                        -0.6323211193084717,
                                        0.5680389404296875,
                                        0.5934188365936279,
                                        0.6980800628662109
                                    ]
                                },
                                {
                                    "list": [
                                        -0.7884521484375,
                                        0.19723021984100343,
                                        0.4900469481945038,
                                        0.902562141418457,
                                        -0.06859171390533447,
                                        0.6791605949401856,
                                        -0.8683667182922363,
                                        -0.4639815092086792,
                                        -0.08461606502532959
                                    ]
                                },
                                {
                                    "list": [
                                        0.15371811389923097,
                                        0.08877766132354737,
                                        0.6517624855041504,
                                        -0.9132080078125,
                                        -0.07809698581695557,
                                        0.1759270429611206,
                                        0.24043142795562745,
                                        0.976942777633667,
                                        -0.16302502155303956
                                    ]
                                }
                            ]
                        },
                        {
                            "list": [
                                {
                                    "list": [
                                        -0.3092541992664337,
                                        0.07624876499176026
                                    ]
                                },
                                {
                                    "list": [
                                        -1.0,
                                        -0.7166671752929688
                                    ]
                                },
                                {
                                    "list": [
                                        0.016285061836242677,
                                        0.3152420222759247
                                    ]
                                },
                                {
                                    "list": [
                                        -0.41923344135284426,
                                        1.0
                                    ]
                                },
                                {
                                    "list": [
                                        1.0,
                                        -0.14875829219818116
                                    ]
                                },
                                {
                                    "list": [
                                        -0.18634521961212159,
                                        -0.536639928817749
                                    ]
                                },
                                {
                                    "list": [
                                        -0.5346875190734863,
                                        -0.12855899333953858
                                    ]
                                },
                                {
                                    "list": [
                                        0.4439352750778198,
                                        -0.005756020545959473
                                    ]
                                },
                                {
                                    "list": [
                                        -0.4729503393173218,
                                        -0.5436298847198486
                                    ]
                                }
                            ]
                        }
                    ]
                },
                "Biases": {
                    "list": [
                        -0.4102346897125244,
                        -0.43801236152648928,
                        -0.31006062030792239
                    ]
                },
                "Fitness": 54965.0
            },
            {
                "InputLayer": {
                    "list": [
                        0.18456991016864777,
                        1.0,
                        0.1582764834165573
                    ]
                },
                "HiddenLayers": {
                    "list": [
                        {
                            "list": [
                                0.3022506833076477,
                                -0.6043490171432495,
                                0.5791632533073425,
                                0.44954490661621096,
                                -0.538169801235199,
                                0.5666093826293945,
                                0.2531687021255493,
                                -0.16151823103427888,
                                0.2466486245393753
                            ]
                        },
                        {
                            "list": [
                                -0.14786620438098908,
                                -0.7429325580596924,
                                0.8658342361450195,
                                -0.9659713506698608,
                                -0.0530899316072464,
                                -0.2905060946941376,
                                0.016419336199760438,
                                0.2900489270687103,
                                -0.23059308528900147
                            ]
                        }
                    ]
                },
                "OutputLayer": {
                    "list": [
                        0.8102495670318604,
                        -0.1940596103668213
                    ]
                },
                "Weights": {
                    "list": [
                        {
                            "list": [
                                {
                                    "list": [
                                        0.6283752918243408,
                                        -0.10809624195098877,
                                        0.04428517818450928,
                                        -0.37384164333343508,
                                        0.4146279990673065,
                                        0.6485292911529541,
                                        0.33968135714530947,
                                        -0.5026161670684815,
                                        0.23138558864593507
                                    ]
                                },
                                {
                                    "list": [
                                        0.49468109011650088,
                                        -0.390144944190979,
                                        0.7652285099029541,
                                        0.729609489440918,
                                        -0.49433815479278567,
                                        0.6911971569061279,
                                        0.42902418971061709,
                                        0.14949679374694825,
                                        0.4515082538127899
                                    ]
                                },
                                {
                                    "list": [
                                        -0.69091796875,
                                        -0.6353738307952881,
                                        0.48718544840812685,
                                        0.08105862140655518,
                                        0.03502833843231201,
                                        0.132224440574646,
                                        -0.27555620670318606,
                                        -0.19184601306915284,
                                        -0.33526408672332766
                                    ]
                                }
                            ]
                        },
                        {
                            "list": [
                                {
                                    "list": [
                                        -0.24465811252593995,
                                        0.11889851093292237,
                                        -0.14712226390838624,
                                        -0.03708302974700928,
                                        -0.4101208448410034,
                                        -0.5667221546173096,
                                        -0.6743741035461426,
                                        -0.5121066570281982,
                                        0.4520849883556366
                                    ]
                                },
                                {
                                    "list": [
                                        -0.6086483001708984,
                                        0.3054022490978241,
                                        -0.7920389175415039,
                                        0.3469376266002655,
                                        0.11921107769012451,
                                        -0.31060826778411868,
                                        0.1149672269821167,
                                        -0.9249675273895264,
                                        -0.42080771923065188
                                    ]
                                },
                                {
                                    "list": [
                                        -0.3494797945022583,
                                        -0.4908024072647095,
                                        0.8136756420135498,
                                        -0.9713578224182129,
                                        0.2688572108745575,
                                        0.8535478115081787,
                                        -0.1833270788192749,
                                        0.10296165943145752,
                                        -0.8835670948028565
                                    ]
                                },
                                {
                                    "list": [
                                        0.1875234842300415,
                                        0.3781983554363251,
                                        0.5657846927642822,
                                        -0.8225662708282471,
                                        0.2982043921947479,
                                        -0.5472469329833984,
                                        0.2433685064315796,
                                        -0.8190062046051025,
                                        -0.1825190782546997
                                    ]
                                },
                                {
                                    "list": [
                                        0.7299566268920898,
                                        -0.24774467945098878,
                                        -0.3014429807662964,
                                        -0.6855678558349609,
                                        -0.6136605739593506,
                                        -0.27326905727386477,
                                        0.2884821593761444,
                                        -0.8859999179840088,
                                        0.3505956828594208
                                    ]
                                },
                                {
                                    "list": [
                                        0.9037032127380371,
                                        -0.7231793403625488,
                                        0.3126334846019745,
                                        -0.7269682884216309,
                                        -0.46369826793670657,
                                        -0.08213460445404053,
                                        0.946681022644043,
                                        -0.5329856872558594,
                                        0.784508466720581
                                    ]
                                },
                                {
                                    "list": [
                                        -0.6762211322784424,
                                        0.11960494518280029,
                                        0.6850605010986328,
                                        -0.09102761745452881,
                                        0.9154934883117676,
                                        -0.6323211193084717,
                                        0.5680389404296875,
                                        0.5934188365936279,
                                        0.6980800628662109
                                    ]
                                },
                                {
                                    "list": [
                                        -0.7884521484375,
                                        0.19723021984100343,
                                        0.4900469481945038,
                                        0.902562141418457,
                                        -0.06859171390533447,
                                        0.6791605949401856,
                                        -0.8683667182922363,
                                        -0.4639815092086792,
                                        -0.08461606502532959
                                    ]
                                },
                                {
                                    "list": [
                                        0.15371811389923097,
                                        0.08877766132354737,
                                        0.6517624855041504,
                                        -0.9132080078125,
                                        -0.07809698581695557,
                                        0.1759270429611206,
                                        0.24043142795562745,
                                        0.976942777633667,
                                        -0.16302502155303956
                                    ]
                                }
                            ]
                        },
                        {
                            "list": [
                                {
                                    "list": [
                                        -0.3092541992664337,
                                        0.07624876499176026
                                    ]
                                },
                                {
                                    "list": [
                                        -1.0,
                                        -0.7166671752929688
                                    ]
                                },
                                {
                                    "list": [
                                        0.016285061836242677,
                                        0.3152420222759247
                                    ]
                                },
                                {
                                    "list": [
                                        -0.41923344135284426,
                                        1.0
                                    ]
                                },
                                {
                                    "list": [
                                        1.0,
                                        -0.14875829219818116
                                    ]
                                },
                                {
                                    "list": [
                                        -0.18634521961212159,
                                        -0.536639928817749
                                    ]
                                },
                                {
                                    "list": [
                                        -0.5346875190734863,
                                        -0.12855899333953858
                                    ]
                                },
                                {
                                    "list": [
                                        0.4439352750778198,
                                        -0.005756020545959473
                                    ]
                                },
                                {
                                    "list": [
                                        -0.4729503393173218,
                                        -0.5436298847198486
                                    ]
                                }
                            ]
                        }
                    ]
                },
                "Biases": {
                    "list": [
                        -0.1893094778060913,
                        -0.43801236152648928,
                        -0.31006062030792239
                    ]
                },
                "Fitness": 19770.0
            },
            {
                "InputLayer": {
                    "list": [
                        0.18490363657474519,
                        1.0,
                        0.15824460983276368
                    ]
                },
                "HiddenLayers": {
                    "list": [
                        {
                            "list": [
                                0.3024612069129944,
                                -0.6043590903282166,
                                0.5791627764701843,
                                0.4494432806968689,
                                -0.5380722880363464,
                                0.5667533874511719,
                                0.25328296422958376,
                                -0.16167563199996949,
                                0.24673116207122804
                            ]
                        },
                        {
                            "list": [
                                -0.1476738601922989,
                                -0.7430018186569214,
                                0.8658316135406494,
                                -0.9659932255744934,
                                -0.05322517827153206,
                                -0.29074785113334658,
                                0.016637369990348817,
                                0.2900882959365845,
                                -0.23026622831821443
                            ]
                        }
                    ]
                },
                "OutputLayer": {
                    "list": [
                        0.810137927532196,
                        -0.19407355785369874
                    ]
                },
                "Weights": {
                    "list": [
                        {
                            "list": [
                                {
                                    "list": [
                                        0.6283752918243408,
                                        -0.10809624195098877,
                                        0.04428517818450928,
                                        -0.37384164333343508,
                                        0.4146279990673065,
                                        0.6485292911529541,
                                        0.33968135714530947,
                                        -0.5026161670684815,
                                        0.23138558864593507
                                    ]
                                },
                                {
                                    "list": [
                                        0.49468109011650088,
                                        -0.390144944190979,
                                        0.7652285099029541,
                                        0.729609489440918,
                                        -0.49433815479278567,
                                        0.6911971569061279,
                                        0.42902418971061709,
                                        0.14949679374694825,
                                        0.4515082538127899
                                    ]
                                },
                                {
                                    "list": [
                                        -0.69091796875,
                                        -0.6353738307952881,
                                        0.48718544840812685,
                                        0.08105862140655518,
                                        0.03502833843231201,
                                        0.132224440574646,
                                        -0.27555620670318606,
                                        -0.19184601306915284,
                                        -0.33526408672332766
                                    ]
                                }
                            ]
                        },
                        {
                            "list": [
                                {
                                    "list": [
                                        -0.24465811252593995,
                                        0.11889851093292237,
                                        -0.14712226390838624,
                                        -0.03708302974700928,
                                        -0.4101208448410034,
                                        -0.5667221546173096,
                                        -0.6743741035461426,
                                        -0.5121066570281982,
                                        0.4520849883556366
                                    ]
                                },
                                {
                                    "list": [
                                        -0.6086483001708984,
                                        0.3054022490978241,
                                        -0.7920389175415039,
                                        0.3469376266002655,
                                        0.11921107769012451,
                                        -0.31060826778411868,
                                        0.1149672269821167,
                                        -0.9249675273895264,
                                        -0.42080771923065188
                                    ]
                                },
                                {
                                    "list": [
                                        -0.3494797945022583,
                                        -0.4908024072647095,
                                        0.8136756420135498,
                                        -0.9713578224182129,
                                        0.2688572108745575,
                                        0.8535478115081787,
                                        -0.1833270788192749,
                                        0.10296165943145752,
                                        -0.8835670948028565
                                    ]
                                },
                                {
                                    "list": [
                                        0.1875234842300415,
                                        0.3781983554363251,
                                        0.5657846927642822,
                                        -0.8225662708282471,
                                        0.2982043921947479,
                                        -0.5472469329833984,
                                        0.2433685064315796,
                                        -0.8190062046051025,
                                        -0.1825190782546997
                                    ]
                                },
                                {
                                    "list": [
                                        0.7299566268920898,
                                        -0.24774467945098878,
                                        -0.3014429807662964,
                                        -0.6855678558349609,
                                        -0.6136605739593506,
                                        -0.27326905727386477,
                                        0.2884821593761444,
                                        -0.8859999179840088,
                                        0.3505956828594208
                                    ]
                                },
                                {
                                    "list": [
                                        0.9037032127380371,
                                        -0.7231793403625488,
                                        0.3126334846019745,
                                        -0.7269682884216309,
                                        -0.46369826793670657,
                                        -0.08213460445404053,
                                        0.946681022644043,
                                        -0.5329856872558594,
                                        0.784508466720581
                                    ]
                                },
                                {
                                    "list": [
                                        -0.6762211322784424,
                                        0.11960494518280029,
                                        0.6850605010986328,
                                        -0.09102761745452881,
                                        0.9154934883117676,
                                        -0.6323211193084717,
                                        0.5680389404296875,
                                        0.5934188365936279,
                                        0.6980800628662109
                                    ]
                                },
                                {
                                    "list": [
                                        -0.7884521484375,
                                        0.19723021984100343,
                                        0.4900469481945038,
                                        0.902562141418457,
                                        -0.06859171390533447,
                                        0.6791605949401856,
                                        -0.8683667182922363,
                                        -0.4639815092086792,
                                        -0.08461606502532959
                                    ]
                                },
                                {
                                    "list": [
                                        0.15371811389923097,
                                        0.08877766132354737,
                                        0.6517624855041504,
                                        -0.9132080078125,
                                        -0.07809698581695557,
                                        0.1759270429611206,
                                        0.24043142795562745,
                                        0.976942777633667,
                                        -0.16302502155303956
                                    ]
                                }
                            ]
                        },
                        {
                            "list": [
                                {
                                    "list": [
                                        -0.3092541992664337,
                                        0.07624876499176026
                                    ]
                                },
                                {
                                    "list": [
                                        -1.0,
                                        -0.7166671752929688
                                    ]
                                },
                                {
                                    "list": [
                                        0.016285061836242677,
                                        0.3152420222759247
                                    ]
                                },
                                {
                                    "list": [
                                        -0.41923344135284426,
                                        1.0
                                    ]
                                },
                                {
                                    "list": [
                                        1.0,
                                        -0.14875829219818116
                                    ]
                                },
                                {
                                    "list": [
                                        -0.18634521961212159,
                                        -0.536639928817749
                                    ]
                                },
                                {
                                    "list": [
                                        -0.5346875190734863,
                                        -0.12855899333953858
                                    ]
                                },
                                {
                                    "list": [
                                        0.4439352750778198,
                                        -0.005756020545959473
                                    ]
                                },
                                {
                                    "list": [
                                        -0.4729503393173218,
                                        -0.5436298847198486
                                    ]
                                }
                            ]
                        }
                    ]
                },
                "Biases": {
                    "list": [
                        -0.1893094778060913,
                        -0.43801236152648928,
                        -0.31006062030792239
                    ]
                },
                "Fitness": 19740.0
            },
            {
                "InputLayer": {
                    "list": [
                        0.1870013028383255,
                        1.0,
                        0.16595309972763062
                    ]
                },
                "HiddenLayers": {
                    "list": [
                        {
                            "list": [
                                0.15551552176475526,
                                -0.728740394115448,
                                0.41705796122550967,
                                0.2570226788520813,
                                -0.6757354140281677,
                                0.4566560685634613,
                                0.03656464070081711,
                                0.1407657414674759,
                                0.028896808624267579
                            ]
                        },
                        {
                            "list": [
                                -0.3291870951652527,
                                -0.7052655816078186,
                                0.7858147025108337,
                                -0.7948681712150574,
                                -0.17363086342811585,
                                0.13933412730693818,
                                -0.460325688123703,
                                0.3174173831939697,
                                -0.33301281929016116
                            ]
                        }
                    ]
                },
                "OutputLayer": {
                    "list": [
                        0.8299532532691956,
                        -0.18525782227516175
                    ]
                },
                "Weights": {
                    "list": [
                        {
                            "list": [
                                {
                                    "list": [
                                        1.0,
                                        -0.10809624195098877,
                                        0.04428517818450928,
                                        -0.37384164333343508,
                                        0.4146279990673065,
                                        0.6485292911529541,
                                        0.33968135714530947,
                                        -0.5026161670684815,
                                        0.23138558864593507
                                    ]
                                },
                                {
                                    "list": [
                                        0.49468109011650088,
                                        -0.390144944190979,
                                        0.7652285099029541,
                                        0.729609489440918,
                                        -0.49433815479278567,
                                        0.6911971569061279,
                                        0.42902418971061709,
                                        0.6777687072753906,
                                        0.4515082538127899
                                    ]
                                },
                                {
                                    "list": [
                                        -0.69091796875,
                                        -0.6353738307952881,
                                        0.48718544840812685,
                                        0.08105862140655518,
                                        0.03502833843231201,
                                        0.5473823547363281,
                                        -0.27555620670318606,
                                        -0.19184601306915284,
                                        -0.33526408672332766
                                    ]
                                }
                            ]
                        },
                        {
                            "list": [
                                {
                                    "list": [
                                        -0.24465811252593995,
                                        0.11889851093292237,
                                        -0.14712226390838624,
                                        -0.03708302974700928,
                                        -0.4101208448410034,
                                        -0.5667221546173096,
                                        -0.6743741035461426,
                                        -0.5121066570281982,
                                        0.4520849883556366
                                    ]
                                },
                                {
                                    "list": [
                                        -0.6086483001708984,
                                        0.3054022490978241,
                                        -0.7920389175415039,
                                        0.3469376266002655,
                                        0.11921107769012451,
                                        -0.31060826778411868,
                                        0.1149672269821167,
                                        -0.9249675273895264,
                                        -0.42080771923065188
                                    ]
                                },
                                {
                                    "list": [
                                        -0.3494797945022583,
                                        -0.4908024072647095,
                                        0.8136756420135498,
                                        -0.9713578224182129,
                                        0.2688572108745575,
                                        0.8535478115081787,
                                        -0.1833270788192749,
                                        0.10296165943145752,
                                        -0.8835670948028565
                                    ]
                                },
                                {
                                    "list": [
                                        0.1875234842300415,
                                        0.3781983554363251,
                                        0.5657846927642822,
                                        -0.8225662708282471,
                                        0.2982043921947479,
                                        -0.5472469329833984,
                                        0.2433685064315796,
                                        -0.8190062046051025,
                                        -0.1825190782546997
                                    ]
                                },
                                {
                                    "list": [
                                        0.7299566268920898,
                                        -0.24774467945098878,
                                        -0.3014429807662964,
                                        -0.6855678558349609,
                                        -0.6136605739593506,
                                        -0.27326905727386477,
                                        0.2884821593761444,
                                        -0.8859999179840088,
                                        0.3505956828594208
                                    ]
                                },
                                {
                                    "list": [
                                        0.9037032127380371,
                                        -0.7231793403625488,
                                        0.3126334846019745,
                                        -0.7269682884216309,
                                        -0.46369826793670657,
                                        -0.08213460445404053,
                                        0.946681022644043,
                                        -0.5329856872558594,
                                        0.784508466720581
                                    ]
                                },
                                {
                                    "list": [
                                        -0.6762211322784424,
                                        0.11960494518280029,
                                        0.6850605010986328,
                                        -0.09102761745452881,
                                        0.9154934883117676,
                                        -0.6323211193084717,
                                        0.5680389404296875,
                                        0.5934188365936279,
                                        0.6980800628662109
                                    ]
                                },
                                {
                                    "list": [
                                        -0.7884521484375,
                                        0.19723021984100343,
                                        0.4900469481945038,
                                        0.902562141418457,
                                        -0.06859171390533447,
                                        0.6791605949401856,
                                        -0.8683667182922363,
                                        -0.4639815092086792,
                                        -0.08461606502532959
                                    ]
                                },
                                {
                                    "list": [
                                        0.15371811389923097,
                                        0.08877766132354737,
                                        0.6517624855041504,
                                        -0.9132080078125,
                                        -0.07809698581695557,
                                        0.1759270429611206,
                                        0.24043142795562745,
                                        0.976942777633667,
                                        -0.16302502155303956
                                    ]
                                }
                            ]
                        },
                        {
                            "list": [
                                {
                                    "list": [
                                        -0.3092541992664337,
                                        0.07624876499176026
                                    ]
                                },
                                {
                                    "list": [
                                        -1.0,
                                        -0.7166671752929688
                                    ]
                                },
                                {
                                    "list": [
                                        0.016285061836242677,
                                        0.3152420222759247
                                    ]
                                },
                                {
                                    "list": [
                                        -0.41923344135284426,
                                        1.0
                                    ]
                                },
                                {
                                    "list": [
                                        1.0,
                                        -0.14875829219818116
                                    ]
                                },
                                {
                                    "list": [
                                        -0.18634521961212159,
                                        -0.536639928817749
                                    ]
                                },
                                {
                                    "list": [
                                        -0.5346875190734863,
                                        -0.12855899333953858
                                    ]
                                },
                                {
                                    "list": [
                                        0.4439352750778198,
                                        -0.005756020545959473
                                    ]
                                },
                                {
                                    "list": [
                                        -0.4729503393173218,
                                        -0.5436298847198486
                                    ]
                                }
                            ]
                        }
                    ]
                },
                "Biases": {
                    "list": [
                        -0.4102346897125244,
                        -0.43801236152648928,
                        -0.31006062030792239
                    ]
                },
                "Fitness": 16855.0
            },
            {
                "InputLayer": {
                    "list": [
                        0.1897183358669281,
                        1.0,
                        0.16377680003643037
                    ]
                },
                "HiddenLayers": {
                    "list": [
                        {
                            "list": [
                                0.09025810658931732,
                                -0.728229284286499,
                                0.41628116369247439,
                                0.25590890645980837,
                                -0.6751642823219299,
                                0.45710769295692446,
                                0.038085151463747028,
                                0.13983626663684846,
                                0.030253920704126359
                            ]
                        },
                        {
                            "list": [
                                -0.3144361674785614,
                                -0.7092597484588623,
                                0.7893737554550171,
                                -0.7943773865699768,
                                -0.1472562551498413,
                                0.17369072139263154,
                                -0.42288246750831606,
                                0.34913939237594607,
                                -0.3571077585220337
                            ]
                        }
                    ]
                },
                "OutputLayer": {
                    "list": [
                        0.8374879360198975,
                        -0.1936051845550537
                    ]
                },
                "Weights": {
                    "list": [
                        {
                            "list": [
                                {
                                    "list": [
                                        0.6283752918243408,
                                        -0.10809624195098877,
                                        0.04428517818450928,
                                        -0.37384164333343508,
                                        0.4146279990673065,
                                        0.6485292911529541,
                                        0.33968135714530947,
                                        -0.5026161670684815,
                                        0.23138558864593507
                                    ]
                                },
                                {
                                    "list": [
                                        0.49468109011650088,
                                        -0.390144944190979,
                                        0.7652285099029541,
                                        0.729609489440918,
                                        -0.49433815479278567,
                                        0.6911971569061279,
                                        0.42902418971061709,
                                        0.6777687072753906,
                                        0.4515082538127899
                                    ]
                                },
                                {
                                    "list": [
                                        -0.69091796875,
                                        -0.6353738307952881,
                                        0.48718544840812685,
                                        0.08105862140655518,
                                        0.03502833843231201,
                                        0.5473823547363281,
                                        -0.27555620670318606,
                                        -0.19184601306915284,
                                        -0.33526408672332766
                                    ]
                                }
                            ]
                        },
                        {
                            "list": [
                                {
                                    "list": [
                                        -0.24465811252593995,
                                        0.11889851093292237,
                                        -0.14712226390838624,
                                        -0.03708302974700928,
                                        -0.4101208448410034,
                                        -0.5667221546173096,
                                        -0.6743741035461426,
                                        -0.5121066570281982,
                                        0.4520849883556366
                                    ]
                                },
                                {
                                    "list": [
                                        -0.6086483001708984,
                                        0.3054022490978241,
                                        -0.7920389175415039,
                                        0.3469376266002655,
                                        0.11921107769012451,
                                        -0.31060826778411868,
                                        0.1149672269821167,
                                        -0.9249675273895264,
                                        -0.42080771923065188
                                    ]
                                },
                                {
                                    "list": [
                                        -0.3494797945022583,
                                        -0.4908024072647095,
                                        0.8136756420135498,
                                        -0.9713578224182129,
                                        0.2688572108745575,
                                        0.8535478115081787,
                                        -0.1833270788192749,
                                        0.10296165943145752,
                                        -0.8835670948028565
                                    ]
                                },
                                {
                                    "list": [
                                        0.1875234842300415,
                                        0.3781983554363251,
                                        0.5657846927642822,
                                        -0.8225662708282471,
                                        0.2982043921947479,
                                        -0.5472469329833984,
                                        0.2433685064315796,
                                        -0.8190062046051025,
                                        -0.1825190782546997
                                    ]
                                },
                                {
                                    "list": [
                                        0.7299566268920898,
                                        -0.24774467945098878,
                                        -0.3014429807662964,
                                        -0.6855678558349609,
                                        -0.6136605739593506,
                                        -0.27326905727386477,
                                        0.2884821593761444,
                                        -0.8859999179840088,
                                        0.3505956828594208
                                    ]
                                },
                                {
                                    "list": [
                                        0.9037032127380371,
                                        -0.7231793403625488,
                                        0.3126334846019745,
                                        -0.7269682884216309,
                                        -0.46369826793670657,
                                        -0.08213460445404053,
                                        0.946681022644043,
                                        -0.5329856872558594,
                                        0.784508466720581
                                    ]
                                },
                                {
                                    "list": [
                                        -0.6762211322784424,
                                        0.11960494518280029,
                                        0.6850605010986328,
                                        -0.09102761745452881,
                                        0.9154934883117676,
                                        -0.6323211193084717,
                                        0.5680389404296875,
                                        0.5934188365936279,
                                        0.6980800628662109
                                    ]
                                },
                                {
                                    "list": [
                                        -0.7884521484375,
                                        0.19723021984100343,
                                        0.4900469481945038,
                                        0.902562141418457,
                                        -0.06859171390533447,
                                        0.6791605949401856,
                                        -0.8683667182922363,
                                        -0.4639815092086792,
                                        -0.08461606502532959
                                    ]
                                },
                                {
                                    "list": [
                                        0.15371811389923097,
                                        0.08877766132354737,
                                        0.6517624855041504,
                                        -0.9132080078125,
                                        -0.07809698581695557,
                                        0.1759270429611206,
                                        0.24043142795562745,
                                        0.976942777633667,
                                        -0.16302502155303956
                                    ]
                                }
                            ]
                        },
                        {
                            "list": [
                                {
                                    "list": [
                                        -0.3092541992664337,
                                        0.07624876499176026
                                    ]
                                },
                                {
                                    "list": [
                                        -1.0,
                                        -0.7166671752929688
                                    ]
                                },
                                {
                                    "list": [
                                        0.016285061836242677,
                                        0.3152420222759247
                                    ]
                                },
                                {
                                    "list": [
                                        -0.41923344135284426,
                                        1.0
                                    ]
                                },
                                {
                                    "list": [
                                        1.0,
                                        -0.14875829219818116
                                    ]
                                },
                                {
                                    "list": [
                                        -0.18634521961212159,
                                        -0.536639928817749
                                    ]
                                },
                                {
                                    "list": [
                                        -0.5346875190734863,
                                        -0.12855899333953858
                                    ]
                                },
                                {
                                    "list": [
                                        0.4439352750778198,
                                        -0.005756020545959473
                                    ]
                                },
                                {
                                    "list": [
                                        -0.4729503393173218,
                                        -0.5436298847198486
                                    ]
                                }
                            ]
                        }
                    ]
                },
                "Biases": {
                    "list": [
                        -0.4102346897125244,
                        -0.43801236152648928,
                        -0.31006062030792239
                    ]
                },
                "Fitness": 16845.0
            },
            {
                "InputLayer": {
                    "list": [
                        0.19092977046966554,
                        1.0,
                        0.17029468715190888
                    ]
                },
                "HiddenLayers": {
                    "list": [
                        {
                            "list": [
                                0.08654522895812988,
                                -0.7302296757698059,
                                0.4189470410346985,
                                0.25597941875457766,
                                -0.6747665405273438,
                                0.403065025806427,
                                0.036702532321214679,
                                -0.3708192706108093,
                                0.02835068106651306
                            ]
                        },
                        {
                            "list": [
                                0.030458949506282808,
                                -0.7398254871368408,
                                0.6666334867477417,
                                -0.9062997102737427,
                                -0.08736442029476166,
                                -0.16012541949748994,
                                -0.05818207934498787,
                                0.5588353872299194,
                                -0.3596421480178833
                            ]
                        }
                    ]
                },
                "OutputLayer": {
                    "list": [
                        0.8356573581695557,
                        -0.16963449120521546
                    ]
                },
                "Weights": {
                    "list": [
                        {
                            "list": [
                                {
                                    "list": [
                                        0.6283752918243408,
                                        -0.10809624195098877,
                                        0.04428517818450928,
                                        -0.37384164333343508,
                                        0.4146279990673065,
                                        0.6485292911529541,
                                        0.33968135714530947,
                                        -0.5026161670684815,
                                        0.23138558864593507
                                    ]
                                },
                                {
                                    "list": [
                                        0.49468109011650088,
                                        -0.390144944190979,
                                        0.7652285099029541,
                                        0.729609489440918,
                                        -0.49433815479278567,
                                        0.6911971569061279,
                                        0.42902418971061709,
                                        0.14949679374694825,
                                        0.4515082538127899
                                    ]
                                },
                                {
                                    "list": [
                                        -0.69091796875,
                                        -0.6353738307952881,
                                        0.48718544840812685,
                                        0.08105862140655518,
                                        0.03502833843231201,
                                        0.132224440574646,
                                        -0.27555620670318606,
                                        -0.19184601306915284,
                                        -0.33526408672332766
                                    ]
                                }
                            ]
                        },
                        {
                            "list": [
                                {
                                    "list": [
                                        -0.24465811252593995,
                                        0.11889851093292237,
                                        -0.14712226390838624,
                                        -0.03708302974700928,
                                        -0.4101208448410034,
                                        -0.5667221546173096,
                                        -0.6743741035461426,
                                        -0.5121066570281982,
                                        0.4520849883556366
                                    ]
                                },
                                {
                                    "list": [
                                        -0.6086483001708984,
                                        0.3054022490978241,
                                        -0.7920389175415039,
                                        0.3469376266002655,
                                        0.11921107769012451,
                                        -0.31060826778411868,
                                        0.1149672269821167,
                                        -0.9249675273895264,
                                        -0.42080771923065188
                                    ]
                                },
                                {
                                    "list": [
                                        -0.3494797945022583,
                                        -0.4908024072647095,
                                        0.8136756420135498,
                                        -0.9713578224182129,
                                        0.2688572108745575,
                                        0.8535478115081787,
                                        -0.1833270788192749,
                                        0.10296165943145752,
                                        -0.8835670948028565
                                    ]
                                },
                                {
                                    "list": [
                                        0.1875234842300415,
                                        0.3781983554363251,
                                        0.5657846927642822,
                                        -0.8225662708282471,
                                        0.2982043921947479,
                                        -0.5472469329833984,
                                        0.2433685064315796,
                                        -0.8190062046051025,
                                        -0.1825190782546997
                                    ]
                                },
                                {
                                    "list": [
                                        0.7299566268920898,
                                        -0.24774467945098878,
                                        -0.3014429807662964,
                                        -0.6855678558349609,
                                        -0.6136605739593506,
                                        -0.27326905727386477,
                                        0.2884821593761444,
                                        -0.8859999179840088,
                                        0.3505956828594208
                                    ]
                                },
                                {
                                    "list": [
                                        0.9037032127380371,
                                        -0.7231793403625488,
                                        0.3126334846019745,
                                        -0.7269682884216309,
                                        -0.46369826793670657,
                                        -0.08213460445404053,
                                        0.946681022644043,
                                        -0.5329856872558594,
                                        0.784508466720581
                                    ]
                                },
                                {
                                    "list": [
                                        -0.6762211322784424,
                                        0.11960494518280029,
                                        0.6850605010986328,
                                        -0.09102761745452881,
                                        0.9154934883117676,
                                        -0.6323211193084717,
                                        0.5680389404296875,
                                        0.5934188365936279,
                                        0.6980800628662109
                                    ]
                                },
                                {
                                    "list": [
                                        -0.7884521484375,
                                        0.19723021984100343,
                                        0.4900469481945038,
                                        0.902562141418457,
                                        -0.06859171390533447,
                                        0.6791605949401856,
                                        -0.8683667182922363,
                                        -0.4639815092086792,
                                        -0.08461606502532959
                                    ]
                                },
                                {
                                    "list": [
                                        0.15371811389923097,
                                        0.08877766132354737,
                                        0.6517624855041504,
                                        -0.9132080078125,
                                        -0.07809698581695557,
                                        0.1759270429611206,
                                        0.24043142795562745,
                                        0.976942777633667,
                                        -0.16302502155303956
                                    ]
                                }
                            ]
                        },
                        {
                            "list": [
                                {
                                    "list": [
                                        -0.3092541992664337,
                                        0.07624876499176026
                                    ]
                                },
                                {
                                    "list": [
                                        -1.0,
                                        -0.7166671752929688
                                    ]
                                },
                                {
                                    "list": [
                                        0.016285061836242677,
                                        0.3152420222759247
                                    ]
                                },
                                {
                                    "list": [
                                        -0.41923344135284426,
                                        1.0
                                    ]
                                },
                                {
                                    "list": [
                                        1.0,
                                        -0.14875829219818116
                                    ]
                                },
                                {
                                    "list": [
                                        -0.18634521961212159,
                                        -0.536639928817749
                                    ]
                                },
                                {
                                    "list": [
                                        -0.5346875190734863,
                                        -0.12855899333953858
                                    ]
                                },
                                {
                                    "list": [
                                        0.4439352750778198,
                                        -0.005756020545959473
                                    ]
                                },
                                {
                                    "list": [
                                        -0.4729503393173218,
                                        -0.5436298847198486
                                    ]
                                }
                            ]
                        }
                    ]
                },
                "Biases": {
                    "list": [
                        -0.4102346897125244,
                        -0.43801236152648928,
                        -0.30637383460998537
                    ]
                },
                "Fitness": 16805.0
            },
            {
                "InputLayer": {
                    "list": [
                        0.19573438167572022,
                        1.0,
                        0.1777113825082779
                    ]
                },
                "HiddenLayers": {
                    "list": [
                        {
                            "list": [
                                0.08445537835359574,
                                -0.7326623201370239,
                                0.4220965802669525,
                                0.2548624277114868,
                                -0.673538088798523,
                                0.40649038553237917,
                                0.03629139065742493,
                                -0.37412455677986147,
                                0.026976892724633218
                            ]
                        },
                        {
                            "list": [
                                0.037797316908836368,
                                -0.7427824139595032,
                                0.6677812337875366,
                                -0.9077061414718628,
                                -0.08865810930728913,
                                -0.15779003500938416,
                                -0.05201695114374161,
                                0.5599299073219299,
                                -0.35891538858413699
                            ]
                        }
                    ]
                },
                "OutputLayer": {
                    "list": [
                        0.8334496021270752,
                        -0.17381496727466584
                    ]
                },
                "Weights": {
                    "list": [
                        {
                            "list": [
                                {
                                    "list": [
                                        0.6283752918243408,
                                        -0.10809624195098877,
                                        0.04428517818450928,
                                        -0.37384164333343508,
                                        0.4146279990673065,
                                        0.6485292911529541,
                                        0.33968135714530947,
                                        -0.5026161670684815,
                                        0.23138558864593507
                                    ]
                                },
                                {
                                    "list": [
                                        0.49468109011650088,
                                        -0.390144944190979,
                                        0.7652285099029541,
                                        0.729609489440918,
                                        -0.49433815479278567,
                                        0.6911971569061279,
                                        0.42902418971061709,
                                        0.14949679374694825,
                                        0.4515082538127899
                                    ]
                                },
                                {
                                    "list": [
                                        -0.69091796875,
                                        -0.6353738307952881,
                                        0.48718544840812685,
                                        0.08105862140655518,
                                        0.03502833843231201,
                                        0.132224440574646,
                                        -0.27555620670318606,
                                        -0.19184601306915284,
                                        -0.33526408672332766
                                    ]
                                }
                            ]
                        },
                        {
                            "list": [
                                {
                                    "list": [
                                        -0.24465811252593995,
                                        0.11889851093292237,
                                        -0.14712226390838624,
                                        -0.03708302974700928,
                                        -0.4101208448410034,
                                        -0.5667221546173096,
                                        -0.6743741035461426,
                                        -0.5121066570281982,
                                        0.4520849883556366
                                    ]
                                },
                                {
                                    "list": [
                                        -0.6086483001708984,
                                        0.3054022490978241,
                                        -0.7920389175415039,
                                        0.3469376266002655,
                                        0.11921107769012451,
                                        -0.31060826778411868,
                                        0.1149672269821167,
                                        -0.9249675273895264,
                                        -0.42080771923065188
                                    ]
                                },
                                {
                                    "list": [
                                        -0.3494797945022583,
                                        -0.4908024072647095,
                                        0.8136756420135498,
                                        -0.9713578224182129,
                                        0.2688572108745575,
                                        0.8535478115081787,
                                        -0.1833270788192749,
                                        0.10296165943145752,
                                        -0.8835670948028565
                                    ]
                                },
                                {
                                    "list": [
                                        0.1875234842300415,
                                        0.3781983554363251,
                                        0.5657846927642822,
                                        -0.8225662708282471,
                                        0.2982043921947479,
                                        -0.5472469329833984,
                                        0.2433685064315796,
                                        -0.8190062046051025,
                                        -0.1825190782546997
                                    ]
                                },
                                {
                                    "list": [
                                        0.7299566268920898,
                                        -0.24774467945098878,
