{
    "Item1": 62,
    "Item2": {
        "list": [
            {
                "InputLayer": {
                    "list": [
                        0.1373620182275772,
                        -0.9999992847442627,
                        0.13930019736289979
                    ]
                },
                "HiddenLayers": {
                    "list": [
                        {
                            "list": [
                                -0.6610590219497681,
                                -0.012093274854123593,
                                0.6010712385177612,
                                -0.28336530923843386,
                                0.47971686720848086,
                                -0.4293399453163147,
                                -0.15590861439704896,
                                -0.6884137988090515,
                                0.3597334325313568
                            ]
                        },
                        {
                            "list": [
                                -0.6137717962265015,
                                0.9419140219688416,
                                -0.4053345024585724,
                                -0.39405882358551028,
                                -0.5919823050498962,
                                0.7132518887519836,
                                -0.13637368381023408,
                                -0.6231920719146729,
                                0.342035174369812
                            ]
                        }
                    ]
                },
                "OutputLayer": {
                    "list": [
                        0.9899419546127319,
                        -0.23500820994377137
                    ]
                },
                "Weights": {
                    "list": [
                        {
                            "list": [
                                {
                                    "list": [
                                        0.9340176582336426,
                                        -0.26069700717926028,
                                        -0.12631309032440186,
                                        -0.5179343223571777,
                                        -0.5974271297454834,
                                        -0.0026930570602416994,
                                        0.3153207004070282,
                                        1.0,
                                        0.7379171848297119
                                    ]
                                },
                                {
                                    "list": [
                                        0.6926884651184082,
                                        -0.07965385913848877,
                                        -0.9623925685882568,
                                        0.10563123226165772,
                                        -0.6100105047225952,
                                        0.2994743585586548,
                                        0.1588960886001587,
                                        0.8168268203735352,
                                        -0.5022366046905518
                                    ]
                                },
                                {
                                    "list": [
                                        -0.8570307493209839,
                                        0.39469146728515627,
                                        -1.0,
                                        -0.026154637336730958,
                                        0.7579929828643799,
                                        -0.3469107151031494,
                                        0.49756333231925967,
                                        -0.3916131258010864,
                                        -0.8334517478942871
                                    ]
                                }
                            ]
                        },
                        {
                            "list": [
                                {
                                    "list": [
                                        0.5263469219207764,
                                        -0.6331729888916016,
                                        0.6137418746948242,
                                        0.5364600419998169,
                                        -0.3765488862991333,
                                        0.6165870428085327,
                                        -0.4250253438949585,
                                        0.9653511047363281,
                                        -0.5576386451721191
                                    ]
                                },
                                {
                                    "list": [
                                        -0.7248597145080566,
                                        -0.46871626377105715,
                                        0.5088620185852051,
                                        -0.9591057300567627,
                                        -0.506364107131958,
                                        -0.9650318622589111,
                                        -0.4882611036300659,
                                        -0.8407473564147949,
                                        0.7469291687011719
                                    ]
                                },
                                {
                                    "list": [
                                        -0.9329308271408081,
                                        0.8218190670013428,
                                        -1.0,
                                        0.742304801940918,
                                        -0.08437740802764893,
                                        0.7779221534729004,
                                        -1.0,
                                        0.10455977916717529,
                                        0.642683744430542
                                    ]
                                },
                                {
                                    "list": [
                                        -0.17291927337646485,
                                        0.026151537895202638,
                                        0.06339132785797119,
                                        0.22700083255767823,
                                        0.4264828860759735,
                                        -0.19500350952148438,
                                        -0.9195562601089478,
                                        0.5783450603485107,
                                        0.8849995136260986
                                    ]
                                },
                                {
                                    "list": [
                                        0.7300703525543213,
                                        0.6160938739776611,
                                        -0.3303283452987671,
                                        -0.8726189136505127,
                                        -0.11849105358123779,
                                        -0.3564189672470093,
                                        -0.9425275325775147,
                                        -0.005204558372497559,
                                        0.14092743396759034
                                    ]
                                },
                                {
                                    "list": [
                                        0.8264172077178955,
                                        -0.9028794765472412,
                                        -0.5597920417785645,
                                        -0.3064168691635132,
                                        0.4754049479961395,
                                        0.2055288553237915,
                                        -0.5133239030838013,
                                        0.4769878089427948,
                                        -0.7728581428527832
                                    ]
                                },
                                {
                                    "list": [
                                        -0.36228621006011965,
                                        -0.8632175922393799,
                                        0.7596142292022705,
                                        0.04254019260406494,
                                        0.9646952152252197,
                                        -0.4813741445541382,
                                        -0.547421932220459,
                                        0.4831819236278534,
                                        0.17692244052886964
                                    ]
                                },
                                {
                                    "list": [
                                        0.48590657114982607,
                                        -0.15104162693023683,
                                        -0.2638617753982544,
                                        0.4292726516723633,
                                        0.8852272033691406,
                                        -0.6981279850006104,
                                        0.6306158304214478,
                                        -0.6272470951080322,
                                        0.6540400981903076
                                    ]
                                },
                                {
                                    "list": [
                                        0.5998094081878662,
                                        -0.7800841331481934,
                                        0.7032260894775391,
                                        -0.1919182538986206,
                                        0.14940083026885987,
                                        0.7438948154449463,
                                        0.817572832107544,
                                        -0.9818309545516968,
                                        -0.7314850091934204
                                    ]
                                }
                            ]
                        },
                        {
                            "list": [
                                {
                                    "list": [
                                        0.1963965892791748,
                                        1.0
                                    ]
                                },
                                {
                                    "list": [
                                        0.5553402900695801,
                                        -0.032642245292663577
                                    ]
                                },
                                {
                                    "list": [
                                        -0.7085165977478027,
                                        -0.0923997163772583
                                    ]
                                },
                                {
                                    "list": [
                                        -0.7304635047912598,
                                        0.12193548679351807
                                    ]
                                },
                                {
                                    "list": [
                                        -0.9989414215087891,
                                        0.8788886070251465
                                    ]
                                },
                                {
                                    "list": [
                                        -0.3783961534500122,
                                        0.35082241892814639
                                    ]
                                },
                                {
                                    "list": [
                                        0.28494927287101748,
                                        0.09597039222717285
                                    ]
                                },
                                {
                                    "list": [
                                        -0.9405622482299805,
                                        -0.52260422706604
                                    ]
                                },
                                {
                                    "list": [
                                        0.27773210406303408,
                                        -0.9628376960754395
                                    ]
                                }
                            ]
                        }
                    ]
                },
                "Biases": {
                    "list": [
                        -0.11091840267181397,
                        0.20282518863677979,
                        0.7024221420288086
                    ]
                },
                "Fitness": 211050.0
            },
            {
                "InputLayer": {
                    "list": [
                        0.19016841053962708,
                        -1.0,
                        0.1815342754125595
                    ]
                },
                "HiddenLayers": {
                    "list": [
                        {
                            "list": [
                                -0.653605043888092,
                                -0.009190591052174569,
                                0.568916380405426,
                                -0.3093191385269165,
                                0.48007526993751528,
                                -0.44132980704307558,
                                -0.1189597025513649,
                                -0.668854832649231,
                                0.3630084693431854
                            ]
                        },
                        {
                            "list": [
                                -0.5981167554855347,
                                0.9348075985908508,
                                -0.34666797518730166,
                                -0.40735915303230288,
                                -0.5687270760536194,
                                0.6879311203956604,
                                -0.08498572558164597,
                                -0.6334611773490906,
                                0.3248172402381897
                            ]
                        }
                    ]
                },
                "OutputLayer": {
                    "list": [
                        0.989389955997467,
                        -0.18987490236759187
                    ]
                },
                "Weights": {
                    "list": [
                        {
                            "list": [
                                {
                                    "list": [
                                        0.9340176582336426,
                                        -0.26069700717926028,
                                        -0.12631309032440186,
                                        -0.5179343223571777,
                                        -0.5974271297454834,
                                        -0.0026930570602416994,
                                        0.3153207004070282,
                                        1.0,
                                        0.7379171848297119
                                    ]
                                },
                                {
                                    "list": [
                                        0.6926884651184082,
                                        -0.07965385913848877,
                                        -0.9623925685882568,
                                        0.10563123226165772,
                                        -0.6100105047225952,
                                        0.2994743585586548,
                                        0.1588960886001587,
                                        0.8168268203735352,
                                        -0.5022366046905518
                                    ]
                                },
                                {
                                    "list": [
                                        -0.8570307493209839,
                                        0.39469146728515627,
                                        -1.0,
                                        -0.026154637336730958,
                                        0.7579929828643799,
                                        -0.3469107151031494,
                                        0.49756333231925967,
                                        -0.3916131258010864,
                                        -0.8334517478942871
                                    ]
                                }
                            ]
                        },
                        {
                            "list": [
                                {
                                    "list": [
                                        0.5263469219207764,
                                        -0.6331729888916016,
                                        0.6137418746948242,
                                        0.5364600419998169,
                                        -0.3765488862991333,
                                        0.6165870428085327,
                                        -0.4250253438949585,
                                        0.9653511047363281,
                                        -0.5576386451721191
                                    ]
                                },
                                {
                                    "list": [
                                        -0.7248597145080566,
                                        -0.46871626377105715,
                                        0.5088620185852051,
                                        -0.9591057300567627,
                                        -0.506364107131958,
                                        -0.9650318622589111,
                                        -0.4882611036300659,
                                        -0.8407473564147949,
                                        0.7469291687011719
                                    ]
                                },
                                {
                                    "list": [
                                        -0.9329308271408081,
                                        0.8218190670013428,
                                        -1.0,
                                        0.742304801940918,
                                        -0.08437740802764893,
                                        0.7779221534729004,
                                        -1.0,
                                        0.10455977916717529,
                                        0.642683744430542
                                    ]
                                },
                                {
                                    "list": [
                                        -0.17291927337646485,
                                        0.026151537895202638,
                                        0.06339132785797119,
                                        0.22700083255767823,
                                        0.4264828860759735,
                                        -0.19500350952148438,
                                        -0.9195562601089478,
                                        0.5783450603485107,
                                        0.8849995136260986
                                    ]
                                },
                                {
                                    "list": [
                                        0.7300703525543213,
                                        0.6160938739776611,
                                        -0.3303283452987671,
                                        -0.8726189136505127,
                                        -0.11849105358123779,
                                        -0.3564189672470093,
                                        -0.9425275325775147,
                                        -0.005204558372497559,
                                        0.14092743396759034
                                    ]
                                },
                                {
                                    "list": [
                                        0.8264172077178955,
                                        -0.9028794765472412,
                                        -0.5597920417785645,
                                        -0.3064168691635132,
                                        0.4754049479961395,
                                        0.2055288553237915,
                                        -0.5133239030838013,
                                        0.4769878089427948,
                                        -0.7728581428527832
                                    ]
                                },
                                {
                                    "list": [
                                        -0.36228621006011965,
                                        -0.8632175922393799,
                                        0.7596142292022705,
                                        0.04254019260406494,
                                        0.9646952152252197,
                                        -0.4813741445541382,
                                        -0.547421932220459,
                                        0.4831819236278534,
                                        0.17692244052886964
                                    ]
                                },
                                {
                                    "list": [
                                        0.48590657114982607,
                                        -0.15104162693023683,
                                        -0.2638617753982544,
                                        0.4292726516723633,
                                        0.8852272033691406,
                                        -0.6981279850006104,
                                        0.6306158304214478,
                                        -0.6272470951080322,
                                        0.6540400981903076
                                    ]
                                },
                                {
                                    "list": [
                                        0.5998094081878662,
                                        -0.7800841331481934,
                                        0.7032260894775391,
                                        -0.1919182538986206,
                                        0.14940083026885987,
                                        0.7438948154449463,
                                        0.817572832107544,
                                        -0.9818309545516968,
                                        -0.7314850091934204
                                    ]
                                }
                            ]
                        },
                        {
                            "list": [
                                {
                                    "list": [
                                        0.1963965892791748,
                                        1.0
                                    ]
                                },
                                {
                                    "list": [
                                        0.5553402900695801,
                                        -0.032642245292663577
                                    ]
                                },
                                {
                                    "list": [
                                        -0.7085165977478027,
                                        -0.0923997163772583
                                    ]
                                },
                                {
                                    "list": [
                                        -0.7304635047912598,
                                        0.12193548679351807
                                    ]
                                },
                                {
                                    "list": [
                                        -0.9989414215087891,
                                        0.8788886070251465
                                    ]
                                },
                                {
                                    "list": [
                                        -0.3783961534500122,
                                        0.35082241892814639
                                    ]
                                },
                                {
                                    "list": [
                                        0.28494927287101748,
                                        0.09597039222717285
                                    ]
                                },
                                {
                                    "list": [
                                        -0.9405622482299805,
                                        -0.52260422706604
                                    ]
                                },
                                {
                                    "list": [
                                        0.27773210406303408,
                                        -0.9628376960754395
                                    ]
                                }
                            ]
                        }
                    ]
                },
                "Biases": {
                    "list": [
                        -0.11091840267181397,
                        0.20282518863677979,
                        0.7024221420288086
                    ]
                },
                "Fitness": 150470.0
            },
            {
                "InputLayer": {
                    "list": [
                        0.17309296131134034,
                        -1.0,
                        0.17661990225315095
                    ]
                },
                "HiddenLayers": {
                    "list": [
                        {
                            "list": [
                                -0.660276472568512,
                                -0.006678891833871603,
                                0.5736796259880066,
                                -0.3011827766895294,
                                0.48504337668418887,
                                -0.4399189054965973,
                                -0.12667101621627809,
                                -0.6771430969238281,
                                0.35560211539268496
                            ]
                        },
                        {
                            "list": [
                                -0.6058101058006287,
                                0.9376044869422913,
                                -0.36272960901260378,
                                -0.4138750433921814,
                                -0.5764512419700623,
                                0.6869234442710877,
                                -0.10787320137023926,
                                -0.6298289895057678,
                                0.33737173676490786
                            ]
                        }
                    ]
                },
                "OutputLayer": {
                    "list": [
                        0.9897596836090088,
                        -0.2190207540988922
                    ]
                },
                "Weights": {
                    "list": [
                        {
                            "list": [
                                {
                                    "list": [
                                        0.9340176582336426,
                                        -0.26069700717926028,
                                        -0.12631309032440186,
                                        -0.5179343223571777,
                                        -0.5974271297454834,
                                        -0.0026930570602416994,
                                        0.3153207004070282,
                                        1.0,
                                        0.7379171848297119
                                    ]
                                },
                                {
                                    "list": [
                                        0.6926884651184082,
                                        -0.07965385913848877,
                                        -0.9623925685882568,
                                        0.10563123226165772,
                                        -0.6100105047225952,
                                        0.2994743585586548,
                                        0.1588960886001587,
                                        0.8168268203735352,
                                        -0.5022366046905518
                                    ]
                                },
                                {
                                    "list": [
                                        -0.8570307493209839,
                                        0.39469146728515627,
                                        -1.0,
                                        -0.026154637336730958,
                                        0.7579929828643799,
                                        -0.3469107151031494,
                                        0.49756333231925967,
                                        -0.3916131258010864,
                                        -0.8334517478942871
                                    ]
                                }
                            ]
                        },
                        {
                            "list": [
                                {
                                    "list": [
                                        0.5263469219207764,
                                        -0.6331729888916016,
                                        0.6137418746948242,
                                        0.5364600419998169,
                                        -0.3765488862991333,
                                        0.6165870428085327,
                                        -0.4250253438949585,
                                        0.9653511047363281,
                                        -0.5576386451721191
                                    ]
                                },
                                {
                                    "list": [
                                        -0.7248597145080566,
                                        -0.46871626377105715,
                                        0.5088620185852051,
                                        -0.9591057300567627,
                                        -0.506364107131958,
                                        -0.9650318622589111,
                                        -0.4882611036300659,
                                        -0.8407473564147949,
                                        0.7469291687011719
                                    ]
                                },
                                {
                                    "list": [
                                        -0.9329308271408081,
                                        0.8218190670013428,
                                        -1.0,
                                        0.742304801940918,
                                        -0.08437740802764893,
                                        0.7779221534729004,
                                        -1.0,
                                        0.10455977916717529,
                                        0.642683744430542
                                    ]
                                },
                                {
                                    "list": [
                                        -0.17291927337646485,
                                        0.026151537895202638,
                                        0.06339132785797119,
                                        0.22700083255767823,
                                        0.4264828860759735,
                                        -0.19500350952148438,
                                        -0.9195562601089478,
                                        0.5783450603485107,
                                        0.8849995136260986
                                    ]
                                },
                                {
                                    "list": [
                                        0.7300703525543213,
                                        0.6160938739776611,
                                        -0.3303283452987671,
                                        -0.8726189136505127,
                                        -0.11849105358123779,
                                        -0.3564189672470093,
                                        -0.9425275325775147,
                                        -0.005204558372497559,
                                        0.14092743396759034
                                    ]
                                },
                                {
                                    "list": [
                                        0.8264172077178955,
                                        -0.9028794765472412,
                                        -0.5597920417785645,
                                        -0.3064168691635132,
                                        0.4754049479961395,
                                        0.2055288553237915,
                                        -0.5133239030838013,
                                        0.4769878089427948,
                                        -0.7728581428527832
                                    ]
                                },
                                {
                                    "list": [
                                        -0.36228621006011965,
                                        -0.8632175922393799,
                                        0.7596142292022705,
                                        0.04254019260406494,
                                        0.9646952152252197,
                                        -0.4813741445541382,
                                        -0.547421932220459,
                                        0.4831819236278534,
                                        0.17692244052886964
                                    ]
                                },
                                {
                                    "list": [
                                        0.48590657114982607,
                                        -0.15104162693023683,
                                        -0.2638617753982544,
                                        0.4292726516723633,
                                        0.8852272033691406,
                                        -0.6981279850006104,
                                        0.6306158304214478,
                                        -0.6272470951080322,
                                        0.6540400981903076
                                    ]
                                },
                                {
                                    "list": [
                                        0.5998094081878662,
                                        -0.7800841331481934,
                                        0.7032260894775391,
                                        -0.1919182538986206,
                                        0.14940083026885987,
                                        0.7438948154449463,
                                        0.817572832107544,
                                        -0.9818309545516968,
                                        -0.7314850091934204
                                    ]
                                }
                            ]
                        },
                        {
                            "list": [
                                {
                                    "list": [
                                        0.1963965892791748,
                                        1.0
                                    ]
                                },
                                {
                                    "list": [
                                        0.5553402900695801,
                                        -0.032642245292663577
                                    ]
                                },
                                {
                                    "list": [
                                        -0.7085165977478027,
                                        -0.0923997163772583
                                    ]
                                },
                                {
                                    "list": [
                                        -0.7304635047912598,
                                        0.12193548679351807
                                    ]
                                },
                                {
                                    "list": [
                                        -0.9989414215087891,
                                        0.8788886070251465
                                    ]
                                },
                                {
                                    "list": [
                                        -0.3783961534500122,
                                        0.35082241892814639
                                    ]
                                },
                                {
                                    "list": [
                                        0.28494927287101748,
                                        0.09597039222717285
                                    ]
                                },
                                {
                                    "list": [
                                        -0.9405622482299805,
                                        -0.52260422706604
                                    ]
                                },
                                {
                                    "list": [
                                        0.27773210406303408,
                                        -0.9628376960754395
                                    ]
                                }
                            ]
                        }
                    ]
                },
                "Biases": {
                    "list": [
                        -0.11091840267181397,
                        0.20282518863677979,
                        0.7024221420288086
                    ]
                },
                "Fitness": 135600.0
            },
            {
                "InputLayer": {
                    "list": [
                        0.19394680857658387,
                        -1.0,
                        0.18164631724357606
                    ]
                },
                "HiddenLayers": {
                    "list": [
                        {
                            "list": [
                                -0.651634156703949,
                                -0.010131295770406723,
                                0.5685176253318787,
                                -0.31109046936035159,
                                0.478401780128479,
                                -0.44136929512023928,
                                -0.11773000657558441,
                                -0.6667858362197876,
                                0.36534589529037478
                            ]
                        },
                        {
                            "list": [
                                -0.5961188077926636,
                                0.9341263771057129,
                                -0.3434753715991974,
                                -0.40466511249542239,
                                -0.5669933557510376,
                                0.6892189979553223,
                                -0.07923534512519837,
                                -0.6342874765396118,
                                0.32126161456108096
                            ]
                        }
                    ]
                },
                "OutputLayer": {
                    "list": [
                        0.9892837405204773,
                        -0.18172970414161683
                    ]
                },
                "Weights": {
                    "list": [
                        {
                            "list": [
                                {
                                    "list": [
                                        0.9340176582336426,
                                        -0.26069700717926028,
                                        -0.12631309032440186,
                                        -0.5179343223571777,
                                        -0.5974271297454834,
                                        -0.0026930570602416994,
                                        0.3153207004070282,
                                        1.0,
                                        0.7379171848297119
                                    ]
                                },
                                {
                                    "list": [
                                        0.6926884651184082,
                                        -0.07965385913848877,
                                        -0.9623925685882568,
                                        0.10563123226165772,
                                        -0.6100105047225952,
                                        0.2994743585586548,
                                        0.1588960886001587,
                                        0.8168268203735352,
                                        -0.5022366046905518
                                    ]
                                },
                                {
                                    "list": [
                                        -0.8570307493209839,
                                        0.39469146728515627,
                                        -1.0,
                                        -0.026154637336730958,
                                        0.7579929828643799,
                                        -0.3469107151031494,
                                        0.49756333231925967,
                                        -0.3916131258010864,
                                        -0.8334517478942871
                                    ]
                                }
                            ]
                        },
                        {
                            "list": [
                                {
                                    "list": [
                                        0.5263469219207764,
                                        -0.6331729888916016,
                                        0.6137418746948242,
                                        0.5364600419998169,
                                        -0.3765488862991333,
                                        0.6165870428085327,
                                        -0.4250253438949585,
                                        0.9653511047363281,
                                        -0.5576386451721191
                                    ]
                                },
                                {
                                    "list": [
                                        -0.7248597145080566,
                                        -0.46871626377105715,
                                        0.5088620185852051,
                                        -0.9591057300567627,
                                        -0.506364107131958,
                                        -0.9650318622589111,
                                        -0.4882611036300659,
                                        -0.8407473564147949,
                                        0.7469291687011719
                                    ]
                                },
                                {
                                    "list": [
                                        -0.9329308271408081,
                                        0.8218190670013428,
                                        -1.0,
                                        0.742304801940918,
                                        -0.08437740802764893,
                                        0.7779221534729004,
                                        -1.0,
                                        0.10455977916717529,
                                        0.642683744430542
                                    ]
                                },
                                {
                                    "list": [
                                        -0.17291927337646485,
                                        0.026151537895202638,
                                        0.06339132785797119,
                                        0.22700083255767823,
                                        0.4264828860759735,
                                        -0.19500350952148438,
                                        -0.9195562601089478,
                                        0.5783450603485107,
                                        0.8849995136260986
                                    ]
                                },
                                {
                                    "list": [
                                        0.7300703525543213,
                                        0.6160938739776611,
                                        -0.3303283452987671,
                                        -0.8726189136505127,
                                        -0.11849105358123779,
                                        -0.3564189672470093,
                                        -0.9425275325775147,
                                        -0.005204558372497559,
                                        0.14092743396759034
                                    ]
                                },
                                {
                                    "list": [
                                        0.8264172077178955,
                                        -0.9028794765472412,
                                        -0.5597920417785645,
                                        -0.3064168691635132,
                                        0.4754049479961395,
                                        0.2055288553237915,
                                        -0.5133239030838013,
                                        0.4769878089427948,
                                        -0.7728581428527832
                                    ]
                                },
                                {
                                    "list": [
                                        -0.36228621006011965,
                                        -0.8632175922393799,
                                        0.7596142292022705,
                                        0.04254019260406494,
                                        0.9646952152252197,
                                        -0.4813741445541382,
                                        -0.547421932220459,
                                        0.4831819236278534,
                                        0.17692244052886964
                                    ]
                                },
                                {
                                    "list": [
                                        0.48590657114982607,
                                        -0.15104162693023683,
                                        -0.2638617753982544,
                                        0.4292726516723633,
                                        0.8852272033691406,
                                        -0.6981279850006104,
                                        0.6306158304214478,
                                        -0.6272470951080322,
                                        0.6540400981903076
                                    ]
                                },
                                {
                                    "list": [
                                        0.5998094081878662,
                                        -0.7800841331481934,
                                        0.7032260894775391,
                                        -0.1919182538986206,
                                        0.14940083026885987,
                                        0.7438948154449463,
                                        0.817572832107544,
                                        -0.9818309545516968,
                                        -0.7314850091934204
                                    ]
                                }
                            ]
                        },
                        {
                            "list": [
                                {
                                    "list": [
                                        0.1963965892791748,
                                        1.0
                                    ]
                                },
                                {
                                    "list": [
                                        0.5553402900695801,
                                        -0.032642245292663577
                                    ]
                                },
                                {
                                    "list": [
                                        -0.7085165977478027,
                                        -0.0923997163772583
                                    ]
                                },
                                {
                                    "list": [
                                        -0.7304635047912598,
                                        0.12193548679351807
                                    ]
                                },
                                {
                                    "list": [
                                        -0.9989414215087891,
                                        0.8788886070251465
                                    ]
                                },
                                {
                                    "list": [
                                        -0.3783961534500122,
                                        0.35082241892814639
                                    ]
                                },
                                {
                                    "list": [
                                        0.28494927287101748,
                                        0.09597039222717285
                                    ]
                                },
                                {
                                    "list": [
                                        -0.9405622482299805,
                                        -0.52260422706604
                                    ]
                                },
                                {
                                    "list": [
                                        0.27773210406303408,
                                        -0.9628376960754395
                                    ]
                                }
                            ]
                        }
                    ]
                },
                "Biases": {
                    "list": [
                        -0.11091840267181397,
                        0.20282518863677979,
                        0.7024221420288086
                    ]
                },
                "Fitness": 69835.0
            },
            {
                "InputLayer": {
                    "list": [
                        0.19141018390655518,
                        -1.0,
                        0.18200425803661347
                    ]
                },
                "HiddenLayers": {
                    "list": [
                        {
                            "list": [
                                -0.653171181678772,
                                -0.009328809566795826,
                                0.5684922337532044,
                                -0.3099117577075958,
                                0.4797784388065338,
                                -0.44146379828453066,
                                -0.11834309995174408,
                                -0.6682698726654053,
                                0.36346393823623659
                            ]
                        },
                        {
                            "list": [
                                -0.5975812077522278,
                                0.9346039891242981,
                                -0.3454445004463196,
                                -0.4070205092430115,
                                -0.5681572556495667,
                                0.6878776550292969,
                                -0.08339262753725052,
                                -0.6337189078330994,
                                0.3239923417568207
                            ]
                        }
                    ]
                },
                "OutputLayer": {
                    "list": [
                        0.989364504814148,
                        -0.18791313469409944
                    ]
                },
                "Weights": {
                    "list": [
                        {
                            "list": [
                                {
                                    "list": [
                                        0.9340176582336426,
                                        -0.26069700717926028,
                                        -0.12631309032440186,
                                        -0.5179343223571777,
                                        -0.5974271297454834,
                                        -0.0026930570602416994,
                                        0.3153207004070282,
                                        1.0,
                                        0.7379171848297119
                                    ]
                                },
                                {
                                    "list": [
                                        0.6926884651184082,
                                        -0.07965385913848877,
                                        -0.9623925685882568,
                                        0.10563123226165772,
                                        -0.6100105047225952,
                                        0.2994743585586548,
                                        0.1588960886001587,
                                        0.8168268203735352,
                                        -0.5022366046905518
                                    ]
                                },
                                {
                                    "list": [
                                        -0.8570307493209839,
                                        0.39469146728515627,
                                        -1.0,
                                        -0.026154637336730958,
                                        0.7579929828643799,
                                        -0.3469107151031494,
                                        0.49756333231925967,
                                        -0.3916131258010864,
                                        -0.8334517478942871
                                    ]
                                }
                            ]
                        },
                        {
                            "list": [
                                {
                                    "list": [
                                        0.5263469219207764,
                                        -0.6331729888916016,
                                        0.6137418746948242,
                                        0.5364600419998169,
                                        -0.3765488862991333,
                                        0.6165870428085327,
                                        -0.4250253438949585,
                                        0.9653511047363281,
                                        -0.5576386451721191
                                    ]
                                },
                                {
                                    "list": [
                                        -0.7248597145080566,
                                        -0.46871626377105715,
                                        0.5088620185852051,
                                        -0.9591057300567627,
                                        -0.506364107131958,
                                        -0.9650318622589111,
                                        -0.4882611036300659,
                                        -0.8407473564147949,
                                        0.7469291687011719
                                    ]
                                },
                                {
                                    "list": [
                                        -0.9329308271408081,
                                        0.8218190670013428,
                                        -1.0,
                                        0.742304801940918,
                                        -0.08437740802764893,
                                        0.7779221534729004,
                                        -1.0,
                                        0.10455977916717529,
                                        0.642683744430542
                                    ]
                                },
                                {
                                    "list": [
                                        -0.17291927337646485,
                                        0.026151537895202638,
                                        0.06339132785797119,
                                        0.22700083255767823,
                                        0.4264828860759735,
                                        -0.19500350952148438,
                                        -0.9195562601089478,
                                        0.5783450603485107,
                                        0.8849995136260986
                                    ]
                                },
                                {
                                    "list": [
                                        0.7300703525543213,
                                        0.6160938739776611,
                                        -0.3303283452987671,
                                        -0.8726189136505127,
                                        -0.11849105358123779,
                                        -0.3564189672470093,
                                        -0.9425275325775147,
                                        -0.005204558372497559,
                                        0.14092743396759034
                                    ]
                                },
                                {
                                    "list": [
                                        0.8264172077178955,
                                        -0.9028794765472412,
                                        -0.5597920417785645,
                                        -0.3064168691635132,
                                        0.4754049479961395,
                                        0.2055288553237915,
                                        -0.5133239030838013,
                                        0.4769878089427948,
                                        -0.7728581428527832
                                    ]
                                },
                                {
                                    "list": [
                                        -0.36228621006011965,
                                        -0.8632175922393799,
                                        0.7596142292022705,
                                        0.04254019260406494,
                                        0.9646952152252197,
                                        -0.4813741445541382,
                                        -0.547421932220459,
                                        0.4831819236278534,
                                        0.17692244052886964
                                    ]
                                },
                                {
                                    "list": [
                                        0.48590657114982607,
                                        -0.15104162693023683,
                                        -0.2638617753982544,
                                        0.4292726516723633,
                                        0.8852272033691406,
                                        -0.6981279850006104,
                                        0.6306158304214478,
                                        -0.6272470951080322,
                                        0.6540400981903076
                                    ]
                                },
                                {
                                    "list": [
                                        0.5998094081878662,
                                        -0.7800841331481934,
                                        0.7032260894775391,
                                        -0.1919182538986206,
                                        0.14940083026885987,
                                        0.7438948154449463,
                                        0.817572832107544,
                                        -0.9818309545516968,
                                        -0.7314850091934204
                                    ]
                                }
                            ]
                        },
                        {
                            "list": [
                                {
                                    "list": [
                                        0.1963965892791748,
                                        1.0
                                    ]
                                },
                                {
                                    "list": [
                                        0.5553402900695801,
                                        -0.032642245292663577
                                    ]
                                },
                                {
                                    "list": [
                                        -0.7085165977478027,
                                        -0.0923997163772583
                                    ]
                                },
                                {
                                    "list": [
                                        -0.7304635047912598,
                                        0.12193548679351807
                                    ]
                                },
                                {
                                    "list": [
                                        -0.9989414215087891,
                                        0.8788886070251465
                                    ]
                                },
                                {
                                    "list": [
                                        -0.3783961534500122,
                                        0.35082241892814639
                                    ]
                                },
                                {
                                    "list": [
                                        0.28494927287101748,
                                        0.09597039222717285
                                    ]
                                },
                                {
                                    "list": [
                                        -0.9405622482299805,
                                        -0.52260422706604
                                    ]
                                },
                                {
                                    "list": [
                                        0.27773210406303408,
                                        -0.9628376960754395
                                    ]
                                }
                            ]
                        }
                    ]
                },
                "Biases": {
                    "list": [
                        -0.11091840267181397,
                        0.20282518863677979,
                        0.7024221420288086
                    ]
                },
                "Fitness": 68780.0
            },
            {
                "InputLayer": {
                    "list": [
                        0.17519451677799226,
                        -1.0,
                        0.17764301598072053
                    ]
                },
                "HiddenLayers": {
                    "list": [
                        {
                            "list": [
                                -0.6596634984016419,
                                -0.006822942290455103,
                                0.5728145241737366,
                                -0.3021964728832245,
                                0.48467621207237246,
                                -0.44020965695381167,
                                -0.12551791965961457,
                                -0.6762210130691528,
                                0.35621172189712527
                            ]
                        },
                        {
                            "list": [
                                -0.6049885153770447,
                                0.9372855424880981,
                                -0.3606007695198059,
                                -0.41359978914260867,
                                -0.5755105018615723,
                                0.686589241027832,
                                -0.10535112023353577,
                                -0.6302633881568909,
                                0.3361584544181824
                            ]
                        }
                    ]
                },
                "OutputLayer": {
                    "list": [
                        0.9897240400314331,
                        -0.21614794433116914
                    ]
                },
                "Weights": {
                    "list": [
                        {
                            "list": [
                                {
                                    "list": [
                                        0.9340176582336426,
                                        -0.26069700717926028,
                                        -0.12631309032440186,
                                        -0.5179343223571777,
                                        -0.5974271297454834,
                                        -0.0026930570602416994,
                                        0.3153207004070282,
                                        1.0,
                                        0.7379171848297119
                                    ]
                                },
                                {
                                    "list": [
                                        0.6926884651184082,
                                        -0.07965385913848877,
                                        -0.9623925685882568,
                                        0.10563123226165772,
                                        -0.6100105047225952,
                                        0.2994743585586548,
                                        0.1588960886001587,
                                        0.8168268203735352,
                                        -0.5022366046905518
                                    ]
                                },
                                {
                                    "list": [
                                        -0.8570307493209839,
                                        0.39469146728515627,
                                        -1.0,
                                        -0.026154637336730958,
                                        0.7579929828643799,
                                        -0.3469107151031494,
                                        0.49756333231925967,
                                        -0.3916131258010864,
                                        -0.8334517478942871
                                    ]
                                }
                            ]
                        },
                        {
                            "list": [
                                {
                                    "list": [
                                        0.5263469219207764,
                                        -0.6331729888916016,
                                        0.6137418746948242,
                                        0.5364600419998169,
                                        -0.3765488862991333,
                                        0.6165870428085327,
                                        -0.4250253438949585,
                                        0.9653511047363281,
                                        -0.5576386451721191
                                    ]
                                },
                                {
                                    "list": [
                                        -0.7248597145080566,
                                        -0.46871626377105715,
                                        0.5088620185852051,
                                        -0.9591057300567627,
                                        -0.506364107131958,
                                        -0.9650318622589111,
                                        -0.4882611036300659,
                                        -0.8407473564147949,
                                        0.7469291687011719
                                    ]
                                },
                                {
                                    "list": [
                                        -0.9329308271408081,
                                        0.8218190670013428,
                                        -1.0,
                                        0.742304801940918,
                                        -0.08437740802764893,
                                        0.7779221534729004,
                                        -1.0,
                                        0.10455977916717529,
                                        0.642683744430542
                                    ]
                                },
                                {
                                    "list": [
                                        -0.17291927337646485,
                                        0.026151537895202638,
                                        0.06339132785797119,
                                        0.22700083255767823,
                                        0.4264828860759735,
                                        -0.19500350952148438,
                                        -0.9195562601089478,
                                        0.5783450603485107,
                                        0.8849995136260986
                                    ]
                                },
                                {
                                    "list": [
                                        0.7300703525543213,
                                        0.6160938739776611,
                                        -0.3303283452987671,
                                        -0.8726189136505127,
                                        -0.11849105358123779,
                                        -0.3564189672470093,
                                        -0.9425275325775147,
                                        -0.005204558372497559,
                                        0.14092743396759034
                                    ]
                                },
                                {
                                    "list": [
                                        0.8264172077178955,
                                        -0.9028794765472412,
                                        -0.5597920417785645,
                                        -0.3064168691635132,
                                        0.4754049479961395,
                                        0.2055288553237915,
                                        -0.5133239030838013,
                                        0.4769878089427948,
                                        -0.7728581428527832
                                    ]
                                },
                                {
                                    "list": [
                                        -0.36228621006011965,
                                        -0.8632175922393799,
                                        0.7596142292022705,
                                        0.04254019260406494,
                                        0.9646952152252197,
                                        -0.4813741445541382,
                                        -0.547421932220459,
                                        0.4831819236278534,
                                        0.17692244052886964
                                    ]
                                },
                                {
                                    "list": [
                                        0.48590657114982607,
                                        -0.15104162693023683,
                                        -0.2638617753982544,
                                        0.4292726516723633,
                                        0.8852272033691406,
                                        -0.6981279850006104,
                                        0.6306158304214478,
                                        -0.6272470951080322,
                                        0.6540400981903076
                                    ]
                                },
                                {
                                    "list": [
                                        0.5998094081878662,
                                        -0.7800841331481934,
                                        0.7032260894775391,
                                        -0.1919182538986206,
                                        0.14940083026885987,
                                        0.7438948154449463,
                                        0.817572832107544,
                                        -0.9818309545516968,
                                        -0.7314850091934204
                                    ]
                                }
                            ]
                        },
                        {
                            "list": [
                                {
                                    "list": [
                                        0.1963965892791748,
                                        1.0
                                    ]
                                },
                                {
                                    "list": [
                                        0.5553402900695801,
                                        -0.032642245292663577
                                    ]
                                },
                                {
                                    "list": [
                                        -0.7085165977478027,
                                        -0.0923997163772583
                                    ]
                                },
                                {
                                    "list": [
                                        -0.7304635047912598,
                                        0.12193548679351807
                                    ]
                                },
                                {
                                    "list": [
                                        -0.9989414215087891,
                                        0.8788886070251465
                                    ]
                                },
                                {
                                    "list": [
                                        -0.3783961534500122,
                                        0.35082241892814639
                                    ]
                                },
                                {
                                    "list": [
                                        0.28494927287101748,
                                        0.09597039222717285
                                    ]
                                },
                                {
                                    "list": [
                                        -0.9405622482299805,
                                        -0.52260422706604
                                    ]
                                },
                                {
                                    "list": [
                                        0.27773210406303408,
                                        -0.9628376960754395
                                    ]
                                }
                            ]
                        }
                    ]
                },
                "Biases": {
                    "list": [
                        -0.11091840267181397,
                        0.20282518863677979,
                        0.7024221420288086
                    ]
                },
                "Fitness": 59670.0
            },
            {
                "InputLayer": {
                    "list": [
                        0.17143236100673676,
                        -1.0,
                        0.175773486495018
                    ]
                },
                "HiddenLayers": {
                    "list": [
                        {
                            "list": [
                                -0.660741925239563,
                                -0.006580056622624397,
                                0.574387788772583,
                                -0.3003803789615631,
                                0.4853113889694214,
                                -0.43967846035957339,
                                -0.1276005059480667,
                                -0.6778621077537537,
                                0.3551478385925293
                            ]
                        },
                        {
                            "list": [
                                -0.6064469814300537,
                                0.8607919216156006,
                                -0.36442312598228457,
                                -0.4140450358390808,
                                -0.5750223398208618,
                                0.6831409931182861,
                                -0.10983811318874359,
                                -0.6294868588447571,
                                0.33830025792121889
                            ]
                        }
                    ]
                },
                "OutputLayer": {
                    "list": [
                        0.9888656139373779,
                        -0.21837925910949708
                    ]
                },
                "Weights": {
                    "list": [
                        {
                            "list": [
                                {
                                    "list": [
                                        0.9340176582336426,
                                        -0.26069700717926028,
                                        -0.12631309032440186,
                                        -0.5179343223571777,
                                        -0.5974271297454834,
                                        -0.0026930570602416994,
                                        0.3153207004070282,
                                        1.0,
                                        0.7379171848297119
                                    ]
                                },
                                {
                                    "list": [
                                        0.6926884651184082,
                                        -0.07965385913848877,
                                        -0.9623925685882568,
                                        0.10563123226165772,
                                        -0.6100105047225952,
                                        0.2994743585586548,
                                        0.1588960886001587,
                                        0.8168268203735352,
                                        -0.5022366046905518
                                    ]
                                },
                                {
                                    "list": [
                                        -0.8570307493209839,
                                        0.39469146728515627,
                                        -1.0,
                                        -0.026154637336730958,
                                        0.7579929828643799,
                                        -0.3469107151031494,
                                        0.49756333231925967,
                                        -0.3916131258010864,
                                        -0.8334517478942871
                                    ]
                                }
                            ]
                        },
                        {
                            "list": [
                                {
                                    "list": [
                                        0.5263469219207764,
                                        0.00781559944152832,
                                        0.6137418746948242,
                                        0.5364600419998169,
                                        -0.3765488862991333,
                                        0.6165870428085327,
                                        -0.4250253438949585,
                                        0.9653511047363281,
                                        -0.5576386451721191
                                    ]
                                },
                                {
                                    "list": [
                                        -0.7248597145080566,
                                        -0.46871626377105715,
                                        0.5088620185852051,
                                        -0.9591057300567627,
                                        -1.0,
                                        -0.9650318622589111,
                                        -0.4882611036300659,
                                        -0.8407473564147949,
                                        0.7469291687011719
                                    ]
                                },
                                {
                                    "list": [
                                        -0.9329308271408081,
                                        0.8218190670013428,
                                        -1.0,
                                        0.742304801940918,
                                        -0.08437740802764893,
                                        0.6061574220657349,
                                        -1.0,
                                        0.10455977916717529,
                                        0.642683744430542
                                    ]
                                },
                                {
                                    "list": [
                                        -0.17291927337646485,
                                        0.026151537895202638,
                                        0.06339132785797119,
                                        0.22700083255767823,
                                        0.4264828860759735,
                                        -0.19500350952148438,
                                        -0.9195562601089478,
                                        0.5783450603485107,
                                        0.8849995136260986
                                    ]
                                },
                                {
                                    "list": [
                                        0.7300703525543213,
                                        0.6160938739776611,
                                        -0.3303283452987671,
                                        -0.8726189136505127,
                                        -0.11849105358123779,
                                        -0.3564189672470093,
                                        -0.9425275325775147,
                                        -0.005204558372497559,
                                        0.14092743396759034
                                    ]
                                },
                                {
                                    "list": [
                                        0.8264172077178955,
                                        -0.9028794765472412,
                                        -0.5597920417785645,
                                        -0.3064168691635132,
                                        0.4754049479961395,
                                        0.2055288553237915,
                                        -0.5133239030838013,
                                        0.4769878089427948,
                                        -0.7728581428527832
                                    ]
                                },
                                {
                                    "list": [
                                        -0.36228621006011965,
                                        -0.8632175922393799,
                                        0.7596142292022705,
                                        0.04254019260406494,
                                        0.9646952152252197,
                                        -0.4813741445541382,
                                        -0.547421932220459,
                                        0.4831819236278534,
                                        0.17692244052886964
                                    ]
                                },
                                {
                                    "list": [
                                        0.48590657114982607,
                                        -0.15104162693023683,
                                        -0.2638617753982544,
                                        0.4292726516723633,
                                        0.8852272033691406,
                                        -0.6981279850006104,
                                        0.6306158304214478,
                                        -0.6272470951080322,
                                        0.6540400981903076
                                    ]
                                },
                                {
                                    "list": [
                                        0.5998094081878662,
                                        -0.7800841331481934,
                                        0.7032260894775391,
                                        -0.1919182538986206,
                                        0.14940083026885987,
                                        1.0,
                                        0.817572832107544,
                                        -0.9818309545516968,
                                        -0.7314850091934204
                                    ]
                                }
                            ]
                        },
                        {
                            "list": [
                                {
                                    "list": [
                                        0.1963965892791748,
                                        1.0
                                    ]
                                },
                                {
                                    "list": [
                                        0.5553402900695801,
                                        -0.032642245292663577
                                    ]
                                },
                                {
                                    "list": [
                                        -0.7085165977478027,
                                        -0.0923997163772583
                                    ]
                                },
                                {
                                    "list": [
                                        -0.7304635047912598,
                                        0.12193548679351807
                                    ]
                                },
                                {
                                    "list": [
                                        -0.9989414215087891,
                                        0.8788886070251465
                                    ]
                                },
                                {
                                    "list": [
                                        -0.3783961534500122,
                                        0.35082241892814639
                                    ]
                                },
                                {
                                    "list": [
                                        0.28494927287101748,
                                        0.09597039222717285
                                    ]
                                },
                                {
                                    "list": [
                                        -0.9405622482299805,
                                        -0.52260422706604
                                    ]
                                },
                                {
                                    "list": [
                                        0.27773210406303408,
                                        -0.9628376960754395
                                    ]
                                }
                            ]
                        }
                    ]
                },
                "Biases": {
                    "list": [
                        -0.11091840267181397,
                        0.20282518863677979,
                        0.7024221420288086
                    ]
                },
                "Fitness": 59060.0
            },
            {
                "InputLayer": {
                    "list": [
                        0.1712339073419571,
                        -1.0,
                        0.1767932027578354
                    ]
                },
                "HiddenLayers": {
                    "list": [
                        {
                            "list": [
                                -0.6613383293151856,
                                -0.006125865038484335,
                                0.5737208724021912,
                                -0.3003111183643341,
                                0.48599258065223696,
                                -0.43996334075927737,
                                -0.12716291844844819,
                                -0.6781851053237915,
                                0.3542768359184265
                            ]
                        },
                        {
                            "list": [
                                -0.6068319082260132,
                                0.9379313588142395,
                                -0.36418381333351138,
                                -0.41544845700263979,
                                -0.5772789120674133,
                                0.6860269904136658,
                                -0.11084190756082535,
                                -0.6294007897377014,
                                0.3392951786518097
                            ]
                        }
                    ]
                },
                "OutputLayer": {
                    "list": [
                        0.9898127913475037,
                        -0.22329358756542207
                    ]
                },
                "Weights": {
                    "list": [
                        {
                            "list": [
                                {
                                    "list": [
                                        0.9340176582336426,
                                        -0.26069700717926028,
                                        -0.12631309032440186,
                                        -0.5179343223571777,
                                        -0.5974271297454834,
                                        -0.0026930570602416994,
                                        0.3153207004070282,
                                        1.0,
                                        0.7379171848297119
                                    ]
                                },
                                {
                                    "list": [
                                        0.6926884651184082,
                                        -0.07965385913848877,
                                        -0.9623925685882568,
                                        0.10563123226165772,
                                        -0.6100105047225952,
                                        0.2994743585586548,
                                        0.1588960886001587,
                                        0.8168268203735352,
                                        -0.5022366046905518
                                    ]
                                },
                                {
                                    "list": [
                                        -0.8570307493209839,
                                        0.39469146728515627,
                                        -1.0,
                                        -0.026154637336730958,
                                        0.7579929828643799,
                                        -0.3469107151031494,
                                        0.49756333231925967,
                                        -0.3916131258010864,
                                        -0.8334517478942871
                                    ]
                                }
                            ]
                        },
                        {
                            "list": [
                                {
                                    "list": [
                                        0.5263469219207764,
                                        -0.6331729888916016,
                                        0.6137418746948242,
                                        0.5364600419998169,
                                        -0.3765488862991333,
                                        0.6165870428085327,
                                        -0.4250253438949585,
                                        0.9653511047363281,
                                        -0.5576386451721191
                                    ]
                                },
                                {
                                    "list": [
                                        -0.7248597145080566,
                                        -0.46871626377105715,
                                        0.5088620185852051,
                                        -0.9591057300567627,
                                        -0.506364107131958,
                                        -0.9650318622589111,
                                        -0.4882611036300659,
                                        -0.8407473564147949,
                                        0.7469291687011719
                                    ]
                                },
                                {
                                    "list": [
                                        -0.9329308271408081,
                                        0.8218190670013428,
                                        -1.0,
                                        0.742304801940918,
                                        -0.08437740802764893,
                                        0.7779221534729004,
                                        -1.0,
                                        0.10455977916717529,
                                        0.642683744430542
                                    ]
                                },
                                {
                                    "list": [
                                        -0.17291927337646485,
                                        0.026151537895202638,
                                        0.06339132785797119,
                                        0.22700083255767823,
                                        0.4264828860759735,
                                        -0.19500350952148438,
                                        -0.9195562601089478,
                                        0.5783450603485107,
                                        0.8849995136260986
                                    ]
                                },
                                {
                                    "list": [
                                        0.7300703525543213,
                                        0.6160938739776611,
                                        -0.3303283452987671,
                                        -0.8726189136505127,
                                        -0.11849105358123779,
                                        -0.3564189672470093,
