{
    "Item1": 1,
    "Item2": {
        "list": [
            {
                "InputLayer": {
                    "list": [
                        0.20248423516750337,
                        1.0,
                        0.3151901364326477
                    ]
                },
                "HiddenLayers": {
                    "list": [
                        {
                            "list": [
                                0.5663495063781738,
                                -0.878547191619873,
                                -0.7483624219894409,
                                0.7644611597061157,
                                -0.8341810703277588,
                                0.10342101752758026,
                                0.6065987944602966,
                                -0.034775227308273318,
                                0.18331821262836457
                            ]
                        },
                        {
                            "list": [
                                -0.8814332485198975,
                                0.7061401605606079,
                                -0.7448004484176636,
                                -0.9722336530685425,
                                -0.5144053101539612,
                                -0.4123331606388092,
                                -0.9413466453552246,
                                0.08365027606487274,
                                -0.5998095870018005
                            ]
                        }
                    ]
                },
                "OutputLayer": {
                    "list": [
                        0.9915706515312195,
                        0.36223000288009646
                    ]
                },
                "Weights": {
                    "list": [
                        {
                            "list": [
                                {
                                    "list": [
                                        -0.022527337074279786,
                                        -0.876777172088623,
                                        -0.1935216188430786,
                                        -0.09473693370819092,
                                        -0.7118847370147705,
                                        0.4462086856365204,
                                        -0.12562549114227296,
                                        0.9372584819793701,
                                        0.4974331557750702
                                    ]
                                },
                                {
                                    "list": [
                                        0.6643176078796387,
                                        -0.8995966911315918,
                                        -0.9481766223907471,
                                        0.9045889377593994,
                                        -0.7679364681243897,
                                        0.22314274311065675,
                                        0.44716188311576846,
                                        0.08578026294708252,
                                        0.3974611461162567
                                    ]
                                },
                                {
                                    "list": [
                                        0.025299906730651857,
                                        -0.8459515571594238,
                                        0.13876569271087647,
                                        0.46655842661857607,
                                        -0.8377423286437988,
                                        -0.584099531173706,
                                        0.9752717018127441,
                                        -0.9034266471862793,
                                        -0.9111039638519287
                                    ]
                                }
                            ]
                        },
                        {
                            "list": [
                                {
                                    "list": [
                                        -0.18493139743804933,
                                        0.011539340019226075,
                                        0.7491180896759033,
                                        -0.1873723268508911,
                                        0.4210629165172577,
                                        -0.9985296726226807,
                                        -0.23515379428863526,
                                        0.09270131587982178,
                                        -0.40219366550445559
                                    ]
                                },
                                {
                                    "list": [
                                        0.7459836006164551,
                                        -0.5770385265350342,
                                        -0.807487964630127,
                                        -0.310583233833313,
                                        0.5180175304412842,
                                        0.4971766173839569,
                                        0.8574442863464356,
                                        -0.9437284469604492,
                                        0.062245965003967288
                                    ]
                                },
                                {
                                    "list": [
                                        0.3378252685070038,
                                        -0.5954272747039795,
                                        0.5635063648223877,
                                        0.3018786609172821,
                                        -0.304219126701355,
                                        -0.6250593662261963,
                                        -0.36903417110443118,
                                        -0.05865681171417236,
                                        0.1056891679763794
                                    ]
                                },
                                {
                                    "list": [
                                        -0.5079948902130127,
                                        -0.36952388286590578,
                                        -0.5767757892608643,
                                        -0.9080581665039063,
                                        0.21809804439544679,
                                        -0.0607990026473999,
                                        0.5233297348022461,
                                        -0.21848618984222413,
                                        0.7426910400390625
                                    ]
                                },
                                {
                                    "list": [
                                        -0.3115195035934448,
                                        -0.9968416690826416,
                                        0.792346715927124,
                                        0.6321661472320557,
                                        0.21591627597808839,
                                        -0.9356250762939453,
                                        0.9065220355987549,
                                        0.8968281745910645,
                                        0.4450061023235321
                                    ]
                                },
                                {
                                    "list": [
                                        0.30118200182914736,
                                        -0.39504683017730715,
                                        -0.9126543998718262,
                                        -0.1610170602798462,
                                        0.7187774181365967,
                                        0.18471777439117433,
                                        -0.3832508325576782,
                                        0.8487050533294678,
                                        -0.7229526042938232
                                    ]
                                },
                                {
                                    "list": [
                                        0.2963506877422333,
                                        -0.547633171081543,
                                        -0.2784615755081177,
                                        -0.5244419574737549,
                                        -0.7700347900390625,
                                        -0.3595196008682251,
                                        -0.6490342617034912,
                                        0.8076975345611572,
                                        -0.06811177730560303
                                    ]
                                },
                                {
                                    "list": [
                                        -0.7103629112243652,
                                        0.250017374753952,
                                        0.5901005268096924,
                                        -0.8340785503387451,
                                        -0.9674186706542969,
                                        0.75921630859375,
                                        0.8459222316741943,
                                        0.053816914558410647,
                                        -0.15160977840423585
                                    ]
                                },
                                {
                                    "list": [
                                        -0.5560097694396973,
                                        0.6953830718994141,
                                        0.47455617785453799,
                                        -0.9309144020080566,
                                        0.9121317863464356,
                                        -0.20764267444610597,
                                        0.2940077483654022,
                                        -0.697890043258667,
                                        -0.23228704929351808
                                    ]
                                }
                            ]
                        },
                        {
                            "list": [
                                {
                                    "list": [
                                        -0.5332751274108887,
                                        -0.21243417263031007
                                    ]
                                },
                                {
                                    "list": [
                                        0.6984376907348633,
                                        0.6016252040863037
                                    ]
                                },
                                {
                                    "list": [
                                        0.7769322395324707,
                                        -0.804335355758667
                                    ]
                                },
                                {
                                    "list": [
                                        -0.6206600666046143,
                                        0.68800950050354
                                    ]
                                },
                                {
                                    "list": [
                                        -0.8739619255065918,
                                        0.6331932544708252
                                    ]
                                },
                                {
                                    "list": [
                                        0.213478684425354,
                                        0.47360536456108096
                                    ]
                                },
                                {
                                    "list": [
                                        -0.5580093860626221,
                                        0.030860304832458497
                                    ]
                                },
                                {
                                    "list": [
                                        0.6532769203186035,
                                        0.0210038423538208
                                    ]
                                },
                                {
                                    "list": [
                                        0.14471375942230225,
                                        0.84075927734375
                                    ]
                                }
                            ]
                        }
                    ]
                },
                "Biases": {
                    "list": [
                        -0.02559840679168701,
                        -0.37443530559539797,
                        0.889798641204834
                    ]
                },
                "Fitness": 3790.0
            },
            {
                "InputLayer": {
                    "list": [
                        0.19234348833560944,
                        -1.0,
                        0.12003790587186814
                    ]
                },
                "HiddenLayers": {
                    "list": [
                        {
                            "list": [
                                0.5229098200798035,
                                -0.36765700578689577,
                                -0.8051157593727112,
                                -0.29314473271369936,
                                0.5314221382141113,
                                -0.4472474753856659,
                                0.7333447933197022,
                                -0.14462938904762269,
                                0.03959440067410469
                            ]
                        },
                        {
                            "list": [
                                -0.460456520318985,
                                0.8208141922950745,
                                0.7116584181785584,
                                0.7469952702522278,
                                0.8672638535499573,
                                0.7142603993415833,
                                -0.1421637088060379,
                                -0.055446919053792956,
                                0.2928285598754883
                            ]
                        }
                    ]
                },
                "OutputLayer": {
                    "list": [
                        -0.45757824182510378,
                        0.9962362051010132
                    ]
                },
                "Weights": {
                    "list": [
                        {
                            "list": [
                                {
                                    "list": [
                                        0.8195414543151856,
                                        -0.016964077949523927,
                                        -0.41542136669158938,
                                        0.27742645144462588,
                                        -0.5057332515716553,
                                        0.34839460253715517,
                                        0.6676828861236572,
                                        0.18737447261810304,
                                        0.7077305316925049
                                    ]
                                },
                                {
                                    "list": [
                                        -0.5864577293395996,
                                        0.38883349299430849,
                                        0.9797282218933106,
                                        0.3583361804485321,
                                        -0.7268462181091309,
                                        0.44455358386039736,
                                        -0.8081259727478027,
                                        0.02843296527862549,
                                        -0.052423834800720218
                                    ]
                                },
                                {
                                    "list": [
                                        -0.4684702157974243,
                                        0.9489164352416992,
                                        0.45123550295829775,
                                        0.9204802513122559,
                                        0.5837643146514893,
                                        0.03172862529754639,
                                        0.8905191421508789,
                                        -0.3810235261917114,
                                        -0.34501922130584719
                                    ]
                                }
                            ]
                        },
                        {
                            "list": [
                                {
                                    "list": [
                                        0.5647733211517334,
                                        0.5978281497955322,
                                        -0.18065226078033448,
                                        -0.4959145784378052,
                                        0.3563975989818573,
                                        -0.8984737396240234,
                                        -0.5436463356018066,
                                        0.02701747417449951,
                                        -0.8293437957763672
                                    ]
                                },
                                {
                                    "list": [
                                        -0.15355074405670167,
                                        -0.10884988307952881,
                                        -0.6404802799224854,
                                        0.9032819271087647,
                                        -0.790543794631958,
                                        -0.5030672550201416,
                                        -0.013630270957946778,
                                        0.6803512573242188,
                                        -0.8431928157806397
                                    ]
                                },
                                {
                                    "list": [
                                        0.3100847899913788,
                                        0.5030057430267334,
                                        -0.391839861869812,
                                        0.05687606334686279,
                                        -0.7415673732757568,
                                        -0.30251991748809817,
                                        0.7931113243103027,
                                        -0.06274116039276123,
                                        -0.17251408100128175
                                    ]
                                },
                                {
                                    "list": [
                                        0.9763829708099365,
                                        -0.751230001449585,
                                        -0.6150782108306885,
                                        0.9131207466125488,
                                        -0.11111199855804444,
                                        -0.4919508695602417,
                                        -0.6895699501037598,
                                        -0.026112914085388185,
                                        -0.8551552295684815
                                    ]
                                },
                                {
                                    "list": [
                                        -0.2511543035507202,
                                        0.7641022205352783,
                                        0.7029294967651367,
                                        0.5625762939453125,
                                        -0.3887368440628052,
                                        -0.253637433052063,
                                        -0.891171932220459,
                                        -0.3763018846511841,
                                        -0.38594019412994387
                                    ]
                                },
                                {
                                    "list": [
                                        0.9632973670959473,
                                        0.9950706958770752,
                                        0.834510326385498,
                                        -0.5953595638275147,
                                        0.965752363204956,
                                        0.9237732887268066,
                                        0.565833330154419,
                                        -0.1258174180984497,
                                        0.3627335727214813
                                    ]
                                },
                                {
                                    "list": [
                                        -0.8603999614715576,
                                        0.31238409876823428,
                                        -0.9627864360809326,
                                        0.7969903945922852,
                                        -0.027585864067077638,
                                        0.7835216522216797,
                                        0.6944968700408936,
                                        -0.6784319877624512,
                                        -0.5670349597930908
                                    ]
                                },
                                {
                                    "list": [
                                        -0.5237777233123779,
                                        0.42108389735221865,
                                        -0.6756241321563721,
                                        0.8254263401031494,
                                        -0.5148472785949707,
                                        0.5372183322906494,
                                        0.2837054431438446,
                                        0.47292253375053408,
                                        -0.08032548427581787
                                    ]
                                },
                                {
                                    "list": [
                                        -0.5607807636260986,
                                        0.8664889335632324,
                                        0.854499101638794,
                                        0.3221122920513153,
                                        -0.7158703804016113,
                                        0.4050891101360321,
                                        0.07556021213531494,
                                        0.10191833972930908,
                                        -0.5212302207946777
                                    ]
                                }
                            ]
                        },
                        {
                            "list": [
                                {
                                    "list": [
                                        0.3391744792461395,
                                        0.14591467380523683
                                    ]
                                },
                                {
                                    "list": [
                                        0.892148494720459,
                                        0.7008981704711914
                                    ]
                                },
                                {
                                    "list": [
                                        -0.6514577865600586,
                                        0.9634547233581543
                                    ]
                                },
                                {
                                    "list": [
                                        -0.770965576171875,
                                        0.8650834560394287
                                    ]
                                },
                                {
                                    "list": [
                                        -0.7520740032196045,
                                        0.6440048217773438
                                    ]
                                },
                                {
                                    "list": [
                                        -0.42559492588043215,
                                        -0.02811300754547119
                                    ]
                                },
                                {
                                    "list": [
                                        -0.5275788307189941,
                                        0.8699920177459717
                                    ]
                                },
                                {
                                    "list": [
                                        -0.6064231395721436,
                                        -0.12314045429229737
                                    ]
                                },
                                {
                                    "list": [
                                        -0.5470244884490967,
                                        -0.3474181890487671
                                    ]
                                }
                            ]
                        }
                    ]
                },
                "Biases": {
                    "list": [
                        -0.1075206995010376,
                        0.8279268741607666,
                        0.9769558906555176
                    ]
                },
                "Fitness": 15.0
            },
            {
                "InputLayer": {
                    "list": [
                        0.17774052917957307,
                        1.0,
                        0.33180922269821169
                    ]
                },
                "HiddenLayers": {
                    "list": [
                        {
                            "list": [
                                0.42077454924583437,
                                -0.8069818019866943,
                                0.15504419803619386,
                                -0.852449357509613,
                                -0.28577402234077456,
                                -0.5288286209106445,
                                -0.530390202999115,
                                0.702946662902832,
                                0.08729546517133713
                            ]
                        },
                        {
                            "list": [
                                0.03693627938628197,
                                -0.18874648213386537,
                                -0.5597760081291199,
                                0.40182796120643618,
                                -0.5547405481338501,
                                -0.7721434235572815,
                                0.04340613633394241,
                                0.7801828980445862,
                                -0.5492011308670044
                            ]
                        }
                    ]
                },
                "OutputLayer": {
                    "list": [
                        0.6324917674064636,
                        0.9414637684822083
                    ]
                },
                "Weights": {
                    "list": [
                        {
                            "list": [
                                {
                                    "list": [
                                        0.7948198318481445,
                                        -0.07648026943206787,
                                        -0.2836407423019409,
                                        0.39039990305900576,
                                        -0.40385663509368899,
                                        -0.48706114292144778,
                                        0.248024582862854,
                                        -0.5948469638824463,
                                        0.5461585521697998
                                    ]
                                },
                                {
                                    "list": [
                                        0.57708740234375,
                                        -0.6946542263031006,
                                        0.5344805717468262,
                                        -0.8982772827148438,
                                        -0.12395131587982178,
                                        -0.28088629245758059,
                                        -0.2887023687362671,
                                        0.8909738063812256,
                                        0.34841200709342959
                                    ]
                                },
                                {
                                    "list": [
                                        -0.32943999767303469,
                                        -0.752394437789917,
                                        -0.5043449401855469,
                                        -0.8310315608978272,
                                        0.18742597103118897,
                                        -0.18277299404144288,
                                        -0.5595219135284424,
                                        0.7482354640960693,
                                        -0.5953819751739502
                                    ]
                                }
                            ]
                        },
                        {
                            "list": [
                                {
                                    "list": [
                                        0.10862171649932862,
                                        0.719071626663208,
                                        0.2365177869796753,
                                        0.2806043326854706,
                                        0.49316737055778506,
                                        -0.07185733318328858,
                                        -0.690826416015625,
                                        0.20425117015838624,
                                        -0.7384510040283203
                                    ]
                                },
                                {
                                    "list": [
                                        -0.5655796527862549,
                                        0.9338128566741943,
                                        0.12553584575653077,
                                        -0.1944206953048706,
                                        -0.6094467639923096,
                                        -0.548591136932373,
                                        -0.964313268661499,
                                        -0.8140325546264648,
                                        -0.29783833026885989
                                    ]
                                },
                                {
                                    "list": [
                                        -0.4204472303390503,
                                        -0.7877182960510254,
                                        0.4604346454143524,
                                        0.7112317085266113,
                                        -0.3168734312057495,
                                        0.588698148727417,
                                        -0.5287389755249023,
                                        0.37483546137809756,
                                        0.3359071910381317
                                    ]
                                },
                                {
                                    "list": [
                                        -0.22654473781585694,
                                        0.1610046625137329,
                                        -0.6345710754394531,
                                        -0.47364556789398196,
                                        0.036476969718933108,
                                        0.07903087139129639,
                                        0.5149374008178711,
                                        -0.03379690647125244,
                                        -0.508408784866333
                                    ]
                                },
                                {
                                    "list": [
                                        0.8969991207122803,
                                        0.7119412422180176,
                                        0.38149282336235049,
                                        -0.6734559535980225,
                                        -0.3463834524154663,
                                        -0.15411722660064698,
                                        0.39633819460868838,
                                        -0.5035855770111084,
                                        -0.558579683303833
                                    ]
                                },
                                {
                                    "list": [
                                        -0.002669215202331543,
                                        -0.6267616748809815,
                                        0.6410815715789795,
                                        -0.2563849687576294,
                                        0.8662152290344238,
                                        0.5002214908599854,
                                        -0.6394486427307129,
                                        0.1421736478805542,
                                        0.8455832004547119
                                    ]
                                },
                                {
                                    "list": [
                                        0.5215461254119873,
                                        -0.5740022659301758,
                                        0.3390595614910126,
                                        -0.275337815284729,
                                        0.6794884204864502,
                                        0.6060547828674316,
                                        -0.5855123996734619,
                                        -0.47458112239837649,
                                        -0.11481344699859619
                                    ]
                                },
                                {
                                    "list": [
                                        0.5407252311706543,
                                        0.7031669616699219,
                                        -0.37898170948028567,
                                        -0.511796236038208,
                                        -0.21282541751861573,
                                        -0.7116110324859619,
                                        -0.14650166034698487,
                                        0.4151296317577362,
                                        -0.5810015201568604
                                    ]
                                },
                                {
                                    "list": [
                                        -0.5358352661132813,
                                        -0.14335906505584718,
                                        0.5280933380126953,
                                        -0.9463398456573486,
                                        0.2251683473587036,
                                        -0.28590357303619387,
                                        0.4499056041240692,
                                        -0.015186190605163575,
                                        -0.027621865272521974
                                    ]
                                }
                            ]
                        },
                        {
                            "list": [
                                {
                                    "list": [
                                        0.40146538615226748,
                                        0.787360429763794
                                    ]
                                },
                                {
                                    "list": [
                                        0.4838874042034149,
                                        -0.5289163589477539
                                    ]
                                },
                                {
                                    "list": [
                                        -0.8970580101013184,
                                        0.661496639251709
                                    ]
                                },
                                {
                                    "list": [
                                        -0.9276607036590576,
                                        0.8870184421539307
                                    ]
                                },
                                {
                                    "list": [
                                        -0.723240852355957,
                                        0.36739012598991396
                                    ]
                                },
                                {
                                    "list": [
                                        0.4781610667705536,
                                        -0.15938937664031983
                                    ]
                                },
                                {
                                    "list": [
                                        -0.19998276233673097,
                                        0.6403162479400635
                                    ]
                                },
                                {
                                    "list": [
                                        -0.03987109661102295,
                                        0.39021989703178408
                                    ]
                                },
                                {
                                    "list": [
                                        0.36194249987602236,
                                        -0.88307785987854
                                    ]
                                }
                            ]
                        }
                    ]
                },
                "Biases": {
                    "list": [
                        -0.16041505336761475,
                        -0.39486920833587649,
                        0.8992347717285156
                    ]
                },
                "Fitness": 15.0
            },
            {
                "InputLayer": {
                    "list": [
                        0.19267407059669496,
                        1.0,
                        0.14238393306732179
                    ]
                },
                "HiddenLayers": {
                    "list": [
                        {
                            "list": [
                                0.7059828639030457,
                                0.48361217975616457,
                                0.9020223617553711,
                                0.8871475458145142,
                                0.514863908290863,
                                0.8606235384941101,
                                0.40144938230514529,
                                0.6773456931114197,
                                0.9753166437149048
                            ]
                        },
                        {
                            "list": [
                                -0.02396419644355774,
                                -0.994016170501709,
                                -0.3586036264896393,
                                0.5632965564727783,
                                0.9128049612045288,
                                0.2138374000787735,
                                -0.9851790070533752,
                                0.5493019819259644,
                                -0.47344887256622317
                            ]
                        }
                    ]
                },
                "OutputLayer": {
                    "list": [
                        0.8120793104171753,
                        -0.2339334785938263
                    ]
                },
                "Weights": {
                    "list": [
                        {
                            "list": [
                                {
                                    "list": [
                                        -0.4721630811691284,
                                        -0.42896568775177,
                                        -0.032308220863342288,
                                        -0.43269193172454836,
                                        -0.4164634943008423,
                                        0.16713964939117433,
                                        -0.38587677478790285,
                                        0.7483141422271729,
                                        0.954258918762207
                                    ]
                                },
                                {
                                    "list": [
                                        -0.05950462818145752,
                                        -0.375557541847229,
                                        0.5995509624481201,
                                        0.6121199131011963,
                                        -0.3322349786758423,
                                        0.22862064838409425,
                                        -0.41816246509552,
                                        -0.19030272960662843,
                                        0.9917776584625244
                                    ]
                                },
                                {
                                    "list": [
                                        0.6608872413635254,
                                        0.35389444231987,
                                        -0.3221360445022583,
                                        -0.3925217390060425,
                                        0.32513949275016787,
                                        0.6981990337371826,
                                        -0.12375891208648682,
                                        -0.4578644037246704,
                                        0.5620825290679932
                                    ]
                                }
                            ]
                        },
                        {
                            "list": [
                                {
                                    "list": [
                                        -0.9279046058654785,
                                        -0.41062724590301516,
                                        0.007234692573547363,
                                        0.38252803683280947,
                                        0.20625340938568116,
                                        0.5036582946777344,
                                        -0.40679681301116946,
                                        0.5736668109893799,
                                        -0.4554086923599243
                                    ]
                                },
                                {
                                    "list": [
                                        -0.27123773097991946,
                                        -0.5071475505828857,
                                        -0.34675514698028567,
                                        -0.6118569374084473,
                                        -0.9819231033325195,
                                        0.9339020252227783,
                                        0.028149008750915529,
                                        0.1409682035446167,
                                        0.9221930503845215
                                    ]
                                },
                                {
                                    "list": [
                                        -0.001646876335144043,
                                        -0.17016589641571046,
                                        -0.5231735706329346,
                                        0.5138053894042969,
                                        0.6833815574645996,
                                        0.3736848533153534,
                                        -0.7367589473724365,
                                        0.08196675777435303,
                                        -0.3712884187698364
                                    ]
                                },
                                {
                                    "list": [
                                        0.08396828174591065,
                                        -0.10447251796722412,
                                        -0.32268011569976809,
                                        0.23990166187286378,
                                        0.4893765151500702,
                                        -0.8875048160552979,
                                        -0.1451500654220581,
                                        0.8219671249389648,
                                        0.3285205066204071
                                    ]
                                },
                                {
                                    "list": [
                                        -0.5727035999298096,
                                        -0.795586109161377,
                                        0.6247408390045166,
                                        -0.08092319965362549,
                                        0.9971325397491455,
                                        0.9773464202880859,
                                        0.793412446975708,
                                        -0.030666232109069825,
                                        -0.5295093059539795
                                    ]
                                },
                                {
                                    "list": [
                                        0.987877607345581,
                                        -0.6083428859710693,
                                        0.07666122913360596,
                                        0.09672415256500244,
                                        0.9172933101654053,
                                        0.8111782073974609,
                                        -0.49631059169769289,
                                        0.4149884879589081,
                                        0.2891344726085663
                                    ]
                                },
                                {
                                    "list": [
                                        0.9374785423278809,
                                        0.8992242813110352,
                                        0.8660106658935547,
                                        -0.6738638877868652,
                                        0.6411166191101074,
                                        0.47821447253227236,
                                        -0.0028573274612426759,
                                        -0.9030814170837402,
                                        0.6944811344146729
                                    ]
                                },
                                {
                                    "list": [
                                        -0.0556713342666626,
                                        -0.4144192934036255,
                                        -0.835015058517456,
                                        0.282927006483078,
                                        0.503075361251831,
                                        -0.9682779312133789,
                                        -0.2575908899307251,
                                        -0.5896241664886475,
                                        -0.17091047763824464
                                    ]
                                },
                                {
                                    "list": [
                                        0.27838703989982607,
                                        -0.8140983581542969,
                                        0.8735477924346924,
                                        0.5133762359619141,
                                        -0.617225170135498,
                                        -0.41114342212677,
                                        -0.7293291091918945,
                                        0.24384629726409913,
                                        -0.265102744102478
                                    ]
                                }
                            ]
                        },
                        {
                            "list": [
                                {
                                    "list": [
                                        -0.9778041839599609,
                                        0.3405918776988983
                                    ]
                                },
                                {
                                    "list": [
                                        -0.958808422088623,
                                        -0.254740834236145
                                    ]
                                },
                                {
                                    "list": [
                                        -0.19737184047698975,
                                        -0.23057401180267335
                                    ]
                                },
                                {
                                    "list": [
                                        0.6804294586181641,
                                        -0.13137328624725343
                                    ]
                                },
                                {
                                    "list": [
                                        -0.24850618839263917,
                                        -0.6984214782714844
                                    ]
                                },
                                {
                                    "list": [
                                        0.5619943141937256,
                                        -0.6982121467590332
                                    ]
                                },
                                {
                                    "list": [
                                        0.5219581127166748,
                                        0.5208218097686768
                                    ]
                                },
                                {
                                    "list": [
                                        -0.0659412145614624,
                                        0.27322790026664736
                                    ]
                                },
                                {
                                    "list": [
                                        0.5742590427398682,
                                        -0.05540788173675537
                                    ]
                                }
                            ]
                        }
                    ]
                },
                "Biases": {
                    "list": [
                        0.9355077743530273,
                        -0.4762002229690552,
                        0.6315281391143799
                    ]
                },
                "Fitness": 15.0
            },
            {
                "InputLayer": {
                    "list": [
                        0.2107987105846405,
                        1.0,
                        0.3401828408241272
                    ]
                },
                "HiddenLayers": {
                    "list": [
                        {
                            "list": [
                                -0.2058170884847641,
                                0.2991829216480255,
                                -0.7440470457077026,
                                -0.837386429309845,
                                -0.905257523059845,
                                -0.619258463382721,
                                0.016624409705400468,
                                -0.4505741000175476,
                                0.2819965183734894
                            ]
                        },
                        {
                            "list": [
                                0.8048887848854065,
                                -0.7170870304107666,
                                -0.3538934886455536,
                                0.8113948702812195,
                                0.9861339926719666,
                                0.8476548790931702,
                                -0.924705445766449,
                                0.9029094576835632,
                                0.8507312536239624
                            ]
                        }
                    ]
                },
                "OutputLayer": {
                    "list": [
                        -0.8043590784072876,
                        -0.9969067573547363
                    ]
                },
                "Weights": {
                    "list": [
                        {
                            "list": [
                                {
                                    "list": [
                                        -0.14224541187286378,
                                        -0.045505642890930179,
                                        0.785301923751831,
                                        -0.8019020557403565,
                                        -0.4100276231765747,
                                        0.4333023726940155,
                                        0.2899908721446991,
                                        0.6836583614349365,
                                        0.9052214622497559
                                    ]
                                },
                                {
                                    "list": [
                                        0.4938754737377167,
                                        0.7748398780822754,
                                        -0.9166414737701416,
                                        -0.4286283254623413,
                                        -0.7388007640838623,
                                        -0.6612436771392822,
                                        0.24528324604034425,
                                        -0.05698072910308838,
                                        0.4561881721019745
                                    ]
                                },
                                {
                                    "list": [
                                        -0.6158461570739746,
                                        0.019295811653137208,
                                        0.7490246295928955,
                                        -0.44535934925079348,
                                        -0.6237280368804932,
                                        0.9091939926147461,
                                        0.5097332000732422,
                                        -0.32148730754852297,
                                        0.3116898238658905
                                    ]
                                }
                            ]
                        },
                        {
                            "list": [
                                {
                                    "list": [
                                        -0.03969013690948486,
                                        -0.6904585361480713,
                                        -0.4063152074813843,
                                        -0.5850911140441895,
                                        -0.7070236206054688,
                                        -0.41725027561187746,
                                        0.587838888168335,
                                        -0.9758076667785645,
                                        0.388151615858078
                                    ]
                                },
                                {
                                    "list": [
                                        -0.7833054065704346,
                                        -0.32168281078338625,
                                        0.038436055183410647,
                                        -0.3186289072036743,
                                        0.3848578631877899,
                                        -0.05678665637969971,
                                        -0.7164759635925293,
                                        0.5299763679504395,
                                        -0.4284454584121704
                                    ]
                                },
                                {
                                    "list": [
                                        0.020089268684387208,
                                        0.973304033279419,
                                        0.4316079318523407,
                                        0.91070556640625,
                                        0.2217317819595337,
                                        -0.3790239095687866,
                                        0.862783670425415,
                                        -0.692253589630127,
                                        -0.5462911128997803
                                    ]
                                },
                                {
                                    "list": [
                                        -0.9455697536468506,
                                        0.8647274971008301,
                                        -0.18731582164764405,
                                        -0.6426455974578857,
                                        -0.957791805267334,
                                        -0.5363571643829346,
                                        -0.0281141996383667,
                                        -0.16079246997833253,
                                        -0.3229762315750122
                                    ]
                                },
                                {
                                    "list": [
                                        0.8996312618255615,
                                        0.5330061912536621,
                                        0.8070452213287354,
                                        -0.9181714057922363,
                                        -0.4260929822921753,
                                        -0.8972992897033691,
                                        0.5624256134033203,
                                        0.6764028072357178,
                                        -0.11484658718109131
                                    ]
                                },
                                {
                                    "list": [
                                        -0.0533221960067749,
                                        -0.14314281940460206,
                                        -0.01912057399749756,
                                        -0.09784924983978272,
                                        -0.8074307441711426,
                                        0.8973450660705566,
                                        0.8514361381530762,
                                        -0.5683026313781738,
                                        -0.35746586322784426
                                    ]
                                },
                                {
                                    "list": [
                                        0.394327849149704,
                                        0.08125269412994385,
                                        -0.984569787979126,
                                        -0.10154521465301514,
                                        -0.6363987922668457,
                                        -0.05779111385345459,
                                        0.4085955321788788,
                                        0.004206061363220215,
                                        -0.06626570224761963
                                    ]
                                },
                                {
                                    "list": [
                                        -0.9219040870666504,
                                        -0.17575395107269288,
                                        0.8852822780609131,
                                        0.558413028717041,
                                        -0.09310257434844971,
                                        0.8189263343811035,
                                        0.9805905818939209,
                                        -0.27911508083343508,
                                        0.8608517646789551
                                    ]
                                },
                                {
                                    "list": [
                                        0.8207476139068604,
                                        0.4414155185222626,
                                        0.5092628002166748,
                                        -0.29313838481903078,
                                        -0.07881605625152588,
                                        -0.45596039295196535,
                                        0.40771815180778506,
                                        -0.2711285352706909,
                                        0.5813541412353516
                                    ]
                                }
                            ]
                        },
                        {
                            "list": [
                                {
                                    "list": [
                                        -0.5774273872375488,
                                        -0.22732365131378175
                                    ]
                                },
                                {
                                    "list": [
                                        -0.6814711093902588,
                                        0.9333558082580566
                                    ]
                                },
                                {
                                    "list": [
                                        -0.13949477672576905,
                                        0.8349785804748535
                                    ]
                                },
                                {
                                    "list": [
                                        -0.6610610485076904,
                                        -0.010012269020080567
                                    ]
                                },
                                {
                                    "list": [
                                        0.07579505443572998,
                                        -0.6319472789764404
                                    ]
                                },
                                {
                                    "list": [
                                        0.17625725269317628,
                                        -0.7841291427612305
                                    ]
                                },
                                {
                                    "list": [
                                        -0.42117297649383547,
                                        0.48631879687309267
                                    ]
                                },
                                {
                                    "list": [
                                        -0.7366793155670166,
                                        -0.2010577917098999
                                    ]
                                },
                                {
                                    "list": [
                                        -0.8931875228881836,
                                        -0.38056838512420657
                                    ]
                                }
                            ]
                        }
                    ]
                },
                "Biases": {
                    "list": [
                        -0.4631894826889038,
                        0.6896531581878662,
                        0.1636730432510376
                    ]
                },
                "Fitness": 10.0
            },
            {
                "InputLayer": {
                    "list": [
                        0.019868772476911546,
                        -1.0,
                        0.1683000773191452
                    ]
                },
                "HiddenLayers": {
                    "list": [
                        {
                            "list": [
                                0.0009633895824663341,
                                -0.060018498450517657,
                                0.8686856627464294,
                                0.6838198304176331,
                                0.7117412686347961,
                                0.19509677588939668,
                                0.6426773071289063,
                                0.7932316660881043,
                                -0.36747637391090395
                            ]
                        },
                        {
                            "list": [
                                0.9728844165802002,
                                0.43755805492401125,
                                0.03652699291706085,
                                0.9453829526901245,
                                0.871804416179657,
                                0.973202109336853,
                                0.5584995746612549,
                                -0.45164254307746889,
                                0.27315250039100649
                            ]
                        }
                    ]
                },
                "OutputLayer": {
                    "list": [
                        0.1371726542711258,
                        -0.7897448539733887
                    ]
                },
                "Weights": {
                    "list": [
                        {
                            "list": [
                                {
                                    "list": [
                                        0.0542370080947876,
                                        -0.9597477912902832,
                                        -0.13592183589935304,
                                        -0.04996192455291748,
                                        -0.35470712184906008,
                                        -0.5433261394500732,
                                        0.6612517833709717,
                                        0.6830925941467285,
                                        0.14789330959320069
                                    ]
                                },
                                {
                                    "list": [
                                        0.5567657947540283,
                                        0.796983003616333,
                                        -0.8338215351104736,
                                        -0.35151875019073489,
                                        -0.11475098133087158,
                                        0.36632511019706728,
                                        -0.07641541957855225,
                                        -0.2559553384780884,
                                        0.9369840621948242
                                    ]
                                },
                                {
                                    "list": [
                                        -0.5358667373657227,
                                        0.648385763168335,
                                        -0.892812967300415,
                                        -0.9572782516479492,
                                        0.809046745300293,
                                        -0.42832672595977785,
                                        0.15644729137420655,
                                        0.9728000164031982,
                                        -0.5840439796447754
                                    ]
                                }
                            ]
                        },
                        {
                            "list": [
                                {
                                    "list": [
                                        0.4575595557689667,
                                        -0.45670807361602785,
                                        -0.3567465543746948,
                                        -0.39875519275665285,
                                        -0.0622636079788208,
                                        0.594210147857666,
                                        0.9574532508850098,
                                        0.7579672336578369,
                                        0.9728140830993652
                                    ]
                                },
                                {
                                    "list": [
                                        -0.8303234577178955,
                                        0.4779307544231415,
                                        -0.13021552562713624,
                                        -0.8416781425476074,
                                        -0.961491584777832,
                                        -0.7769110202789307,
                                        0.1391695737838745,
                                        0.3026568591594696,
                                        0.6159853935241699
                                    ]
                                },
                                {
                                    "list": [
                                        0.25320789217948916,
                                        0.13161957263946534,
                                        -0.05716359615325928,
                                        0.17769038677215577,
                                        0.8579492568969727,
                                        0.10943663120269776,
                                        -0.3488720655441284,
                                        -0.07065808773040772,
                                        -0.7628772258758545
                                    ]
                                },
                                {
                                    "list": [
                                        0.29540273547172549,
                                        -0.661848783493042,
                                        0.11820900440216065,
                                        -0.02424919605255127,
                                        -0.2268437147140503,
                                        0.2626449763774872,
                                        0.7251429557800293,
                                        0.6349637508392334,
                                        -0.17007553577423097
                                    ]
                                },
                                {
                                    "list": [
                                        0.7511277198791504,
                                        -0.02848494052886963,
                                        -0.22610461711883546,
                                        0.1803816556930542,
                                        0.13482725620269776,
                                        0.6367161273956299,
                                        -0.7155435085296631,
                                        -0.9877243041992188,
                                        -0.08353316783905029
                                    ]
                                },
                                {
                                    "list": [
                                        -0.44242870807647707,
                                        -0.11787950992584229,
                                        0.13186657428741456,
                                        0.39780375361442568,
                                        0.33551642298698428,
                                        0.7160420417785645,
                                        -0.03315460681915283,
                                        0.19658172130584718,
                                        0.5569453239440918
                                    ]
                                },
                                {
                                    "list": [
                                        0.01692497730255127,
                                        -0.1626814603805542,
                                        -0.5130753517150879,
                                        0.25293442606925967,
                                        0.8631687164306641,
                                        0.2520467936992645,
                                        -0.19603478908538819,
                                        -0.4682806730270386,
                                        -0.7331194877624512
                                    ]
                                },
                                {
                                    "list": [
                                        0.6209027767181397,
                                        0.8599996566772461,
                                        -0.49104559421539309,
                                        0.7603800296783447,
                                        -0.8211300373077393,
                                        0.25074121356010439,
                                        0.6878831386566162,
                                        -0.4750579595565796,
                                        0.8616268634796143
                                    ]
                                },
                                {
                                    "list": [
                                        -0.3568331003189087,
                                        0.7790813446044922,
                                        -0.71795654296875,
                                        -0.10422384738922119,
                                        -0.10722696781158447,
                                        -0.7766528129577637,
                                        0.1283324956893921,
                                        0.24010050296783448,
                                        -0.6674399375915527
                                    ]
                                }
                            ]
                        },
                        {
                            "list": [
                                {
                                    "list": [
                                        -0.4097541570663452,
                                        -0.20545518398284913
                                    ]
                                },
                                {
                                    "list": [
                                        0.4817773997783661,
                                        0.6418569087982178
                                    ]
                                },
                                {
                                    "list": [
                                        0.9916279315948486,
                                        0.3715038001537323
                                    ]
                                },
                                {
                                    "list": [
                                        0.4283446967601776,
                                        -0.19885790348052979
                                    ]
                                },
                                {
                                    "list": [
                                        0.7313640117645264,
                                        -0.8473718166351318
                                    ]
                                },
                                {
                                    "list": [
                                        -0.9243390560150147,
                                        0.5128829479217529
                                    ]
                                },
                                {
                                    "list": [
                                        0.9275164604187012,
                                        0.6712648868560791
                                    ]
                                },
                                {
                                    "list": [
                                        -0.513819694519043,
                                        0.8068013191223145
                                    ]
                                },
                                {
                                    "list": [
                                        -0.4516559839248657,
                                        -0.981745719909668
                                    ]
                                }
                            ]
                        }
                    ]
                },
                "Biases": {
                    "list": [
                        0.6468379497528076,
                        0.5885190963745117,
                        -0.4800373315811157
                    ]
                },
                "Fitness": 10.0
            },
            {
                "InputLayer": {
                    "list": [
                        0.17043320834636689,
                        -1.0,
                        0.21467673778533936
                    ]
                },
                "HiddenLayers": {
                    "list": [
                        {
                            "list": [
                                0.5322492718696594,
                                0.6973830461502075,
                                0.3916281461715698,
                                0.8788887858390808,
                                0.6043311953544617,
                                0.8648632764816284,
                                0.9420795440673828,
                                0.5094401240348816,
                                0.9583174586296082
                            ]
                        },
                        {
                            "list": [
                                -0.16748973727226258,
                                -0.8032335042953491,
                                0.9381745457649231,
                                -0.28991878032684328,
                                0.35214120149612429,
                                -0.10982789099216461,
                                0.5539950728416443,
                                -0.8110208511352539,
                                0.9949377775192261
                            ]
                        }
                    ]
                },
                "OutputLayer": {
                    "list": [
                        0.9893397092819214,
                        -0.10483566671609879
                    ]
                },
                "Weights": {
                    "list": [
                        {
                            "list": [
                                {
                                    "list": [
                                        -0.8669402599334717,
                                        -0.2511998414993286,
                                        -0.05830538272857666,
                                        -0.4909144639968872,
                                        -0.5177972316741943,
                                        0.2936970889568329,
                                        0.7617433071136475,
                                        0.2580053508281708,
                                        0.749502420425415
                                    ]
                                },
                                {
                                    "list": [
                                        0.028615832328796388,
                                        -0.08065831661224365,
                                        0.4900335967540741,
                                        -0.5752015113830566,
                                        -0.07499468326568604,
                                        -0.412845253944397,
                                        -0.8700783252716065,
                                        0.21415627002716065,
                                        -0.8375701904296875
                                    ]
                                },
                                {
                                    "list": [
                                        -0.18336570262908936,
                                        0.07140123844146729,
                                        0.4876103103160858,
                                        0.3275434672832489,
                                        -0.4463285207748413,
                                        0.18825113773345948,
                                        -0.24546897411346436,
                                        -0.358012318611145,
                                        0.701310396194458
                                    ]
                                }
                            ]
                        },
                        {
                            "list": [
                                {
                                    "list": [
                                        -0.9891901016235352,
                                        0.16233766078948975,
                                        0.23304712772369386,
                                        -0.5580430030822754,
                                        -0.6233866214752197,
                                        -0.026489853858947755,
                                        0.6844048500061035,
                                        0.20196449756622315,
                                        0.41060635447502139
                                    ]
                                },
                                {
                                    "list": [
                                        -0.6683285236358643,
                                        0.6984908580780029,
                                        0.8363173007965088,
                                        0.24770009517669679,
                                        -0.15689313411712647,
                                        0.790184497833252,
                                        0.10341417789459229,
                                        -0.4403623342514038,
                                        -0.32681405544281008
                                    ]
                                },
                                {
                                    "list": [
                                        0.6945199966430664,
                                        -0.2665935754776001,
                                        -0.4708460569381714,
                                        0.3375866115093231,
                                        0.1334155797958374,
                                        0.6932733058929443,
                                        0.8534226417541504,
                                        0.9318733215332031,
                                        0.9559764862060547
                                    ]
                                },
                                {
                                    "list": [
                                        0.152582049369812,
                                        0.5008790493011475,
                                        0.002642035484313965,
                                        -0.11481297016143799,
                                        -0.6714832782745361,
                                        -0.5052628517150879,
                                        0.3877660930156708,
                                        -0.018906235694885255,
                                        0.61263108253479
                                    ]
                                },
                                {
                                    "list": [
                                        -0.9068803787231445,
                                        -0.9729113578796387,
                                        0.538252592086792,
                                        -0.6982431411743164,
                                        -0.4628523588180542,
                                        -0.7018370628356934,
                                        -0.6193487644195557,
                                        -0.037303805351257327,
                                        0.058666348457336429
                                    ]
                                },
                                {
                                    "list": [
                                        0.06634151935577393,
                                        -0.45800483226776125,
                                        -0.9315178394317627,
                                        -0.6111400127410889,
                                        0.98431396484375,
                                        -0.38145554065704348,
                                        -0.9386518001556397,
                                        -0.9743022918701172,
                                        0.7457177639007568
                                    ]
                                },
                                {
                                    "list": [
                                        -0.27450716495513918,
                                        -0.9938585758209229,
                                        0.9642233848571777,
                                        -0.5071940422058106,
                                        0.3827309310436249,
                                        0.2945954501628876,
                                        -0.6710426807403565,
                                        -0.5418477058410645,
                                        0.30922457575798037
                                    ]
                                },
                                {
                                    "list": [
                                        0.1987849473953247,
                                        -0.8929643630981445,
                                        -0.007879376411437989,
                                        -0.5067367553710938,
                                        0.3453695476055145,
                                        -0.017055392265319825,
                                        -0.26646387577056887,
                                        0.037964463233947757,
                                        -0.23886120319366456
                                    ]
                                },
                                {
                                    "list": [
                                        0.4713265597820282,
                                        -0.2665592432022095,
                                        0.16659533977508546,
                                        0.9049761295318604,
                                        -0.3911198377609253,
                                        -0.6294369697570801,
                                        0.8900923728942871,
                                        -0.559481143951416,
                                        0.6480832099914551
                                    ]
                                }
                            ]
                        },
                        {
                            "list": [
                                {
                                    "list": [
                                        -0.12351548671722412,
                                        -0.7097988128662109
                                    ]
                                },
                                {
                                    "list": [
                                        -0.7637801170349121,
                                        0.9267501831054688
                                    ]
                                },
                                {
                                    "list": [
                                        -0.08986341953277588,
                                        -0.08599293231964112
                                    ]
                                },
                                {
                                    "list": [
                                        -0.41731178760528567,
                                        -0.25087153911590578
                                    ]
                                },
                                {
                                    "list": [
                                        0.3658258616924286,
                                        -0.25857603549957278
                                    ]
                                },
                                {
                                    "list": [
                                        0.9811208248138428,
                                        -0.4244881868362427
                                    ]
                                },
                                {
                                    "list": [
                                        -0.03580343723297119,
                                        0.7593965530395508
                                    ]
                                },
                                {
                                    "list": [
                                        -0.7965893745422363,
                                        0.9786784648895264
                                    ]
                                },
                                {
                                    "list": [
                                        0.47070953249931338,
                                        0.11824905872344971
                                    ]
                                }
                            ]
                        }
                    ]
                },
                "Biases": {
                    "list": [
                        0.809013843536377,
                        0.6137354373931885,
                        0.8280453681945801
                    ]
                },
                "Fitness": 10.0
            },
            {
                "InputLayer": {
                    "list": [
                        0.1639566421508789,
                        -1.0,
                        0.17776252329349519
                    ]
                },
                "HiddenLayers": {
                    "list": [
                        {
                            "list": [
                                -0.28357255458831789,
                                0.42805182933807375,
                                0.709350049495697,
                                -0.39979177713394167,
                                -0.580978512763977,
                                -0.1863604187965393,
                                0.5367072224617004,
                                0.5150251388549805,
                                0.7621305584907532
                            ]
                        },
                        {
                            "list": [
                                -0.9066767692565918,
                                -0.28028732538223269,
                                -0.670955240726471,
                                -0.2992471754550934,
                                -0.9036093354225159,
                                0.6808879375457764,
                                0.5483298897743225,
                                -0.23527683317661286,
                                -0.7833160161972046
                            ]
                        }
                    ]
                },
                "OutputLayer": {
                    "list": [
                        -0.7695419192314148,
                        0.026235120370984079
                    ]
                },
                "Weights": {
                    "list": [
                        {
                            "list": [
                                {
                                    "list": [
                                        0.47089359164237978,
                                        0.5343005657196045,
                                        -0.5881516933441162,
                                        0.16850268840789796,
                                        -0.6596956253051758,
                                        -0.36314332485198977,
                                        -0.6871504783630371,
                                        0.41739293932914736,
                                        0.3083591163158417
                                    ]
                                },
                                {
                                    "list": [
                                        0.778578519821167,
                                        0.20677483081817628,
                                        -0.7128705978393555,
                                        0.895745038986206,
                                        0.9224827289581299,
                                        0.37921425700187685,
                                        -0.2026435136795044,
                                        -0.26957619190216067,
                                        -0.4814194440841675
                                    ]
                                },
                                {
                                    "list": [
                                        0.012232184410095215,
                                        0.9509685039520264,
                                        -0.7774415016174316,
                                        0.20860207080841065,
                                        -0.2302485704421997,
                                        -0.8857049942016602,
                                        0.5732545852661133,
                                        -0.9906508922576904,
                                        0.346903532743454
                                    ]
                                }
                            ]
                        },
                        {
                            "list": [
                                {
                                    "list": [
                                        -0.23318970203399659,
                                        -0.23040735721588136,
                                        0.38147279620170596,
                                        0.966127872467041,
                                        0.5741047859191895,
                                        -0.8543658256530762,
                                        -0.057196974754333499,
                                        -0.6396965980529785,
                                        -0.9266233444213867
                                    ]
                                },
                                {
                                    "list": [
                                        -0.49269402027130129,
                                        -0.9421415328979492,
                                        0.5311648845672607,
                                        0.5618190765380859,
                                        0.7896120548248291,
                                        0.3140217959880829,
                                        0.5894794464111328,
                                        -0.9493238925933838,
                                        -0.5378129482269287
                                    ]
                                },
                                {
                                    "list": [
                                        -0.4236537218093872,
                                        -0.7140395641326904,
                                        0.8624520301818848,
                                        -0.799147367477417,
                                        -0.5888628959655762,
                                        0.7974088191986084,
                                        -0.08482253551483154,
                                        0.36298462748527529,
                                        0.6634743213653565
                                    ]
                                },
                                {
                                    "list": [
                                        -0.44267261028289797,
                                        -0.6691272258758545,
                                        0.4941065013408661,
                                        -0.7759842872619629,
                                        0.23452651500701905,
                                        -0.48463690280914309,
                                        -0.87772536277771,
                                        -0.006187796592712402,
                                        0.33003613352775576
