{
    "Item1": 13,
    "Item2": {
        "list": [
            {
                "InputLayer": {
                    "list": [
                        0.009625805541872979,
                        1.0,
                        0.18106919527053834
                    ]
                },
                "HiddenLayers": {
                    "list": [
                        {
                            "list": [
                                0.08742368966341019,
                                -0.371979683637619,
                                -0.7280400991439819,
                                0.10694063454866409,
                                -0.2504911720752716,
                                -0.8128529787063599,
                                -0.4974980354309082,
                                -0.5237938761711121,
                                -0.346924751996994
                            ]
                        },
                        {
                            "list": [
                                0.6950386762619019,
                                -0.6102232933044434,
                                0.5479369759559631,
                                0.778804361820221,
                                -0.2658349573612213,
                                0.3966062664985657,
                                -0.1361197531223297,
                                -0.15626344084739686,
                                0.5672138929367065
                            ]
                        }
                    ]
                },
                "OutputLayer": {
                    "list": [
                        0.8276179432868958,
                        0.0581403486430645
                    ]
                },
                "Weights": {
                    "list": [
                        {
                            "list": [
                                {
                                    "list": [
                                        -0.0290449857711792,
                                        0.6108670234680176,
                                        -0.08767163753509522,
                                        0.6767528057098389,
                                        0.7104198932647705,
                                        0.24628818035125733,
                                        0.26897546648979189,
                                        0.06509697437286377,
                                        -0.052005648612976077
                                    ]
                                },
                                {
                                    "list": [
                                        0.25518152117729189,
                                        0.04893767833709717,
                                        -0.759742259979248,
                                        0.45558544993400576,
                                        0.09747779369354248,
                                        -0.8582196235656738,
                                        -0.09436166286468506,
                                        -0.09824240207672119,
                                        -0.052573323249816897
                                    ]
                                },
                                {
                                    "list": [
                                        0.7854118347167969,
                                        -0.7514703273773193,
                                        0.8036167621612549,
                                        -0.2500714063644409,
                                        -0.28047049045562746,
                                        0.16532933712005616,
                                        -0.7993342876434326,
                                        -0.9635522365570068,
                                        0.0033072233200073244
                                    ]
                                }
                            ]
                        },
                        {
                            "list": [
                                {
                                    "list": [
                                        0.34917017817497256,
                                        0.6420886516571045,
                                        0.7452328205108643,
                                        -0.3352624177932739,
                                        0.11968624591827393,
                                        -0.613929271697998,
                                        0.6529245376586914,
                                        -0.635267972946167,
                                        -0.7587146759033203
                                    ]
                                },
                                {
                                    "list": [
                                        0.34343191981315615,
                                        -0.9434494972229004,
                                        -0.4791041612625122,
                                        0.8436741828918457,
                                        -0.603827714920044,
                                        0.016322970390319825,
                                        0.5095152854919434,
                                        -0.40003740787506106,
                                        -0.37531769275665285
                                    ]
                                },
                                {
                                    "list": [
                                        -0.5150442123413086,
                                        -0.05396878719329834,
                                        0.41721412539482119,
                                        -0.8993818759918213,
                                        -0.5371215343475342,
                                        -0.13511550426483155,
                                        0.6130154132843018,
                                        -0.0953139066696167,
                                        -0.7276129722595215
                                    ]
                                },
                                {
                                    "list": [
                                        -0.4694782495498657,
                                        0.4118036925792694,
                                        -0.07512867450714112,
                                        -0.1179877519607544,
                                        -0.8109707832336426,
                                        -0.37265217304229739,
                                        0.2828321158885956,
                                        0.16798770427703858,
                                        -0.2514709234237671
                                    ]
                                },
                                {
                                    "list": [
                                        -0.5392463207244873,
                                        -0.22390282154083253,
                                        -0.10507071018218994,
                                        0.515885591506958,
                                        0.7250230312347412,
                                        -0.48082053661346438,
                                        -0.8466901779174805,
                                        0.5894782543182373,
                                        -0.559335470199585
                                    ]
                                },
                                {
                                    "list": [
                                        -0.6712429523468018,
                                        0.8993353843688965,
                                        -0.5694453716278076,
                                        -0.43830406665802,
                                        0.7337555885314941,
                                        -0.627166748046875,
                                        0.2430359125137329,
                                        -0.2298961877822876,
                                        0.3851787745952606
                                    ]
                                },
                                {
                                    "list": [
                                        -0.030337214469909669,
                                        0.922271728515625,
                                        0.3928355872631073,
                                        -0.8467996120452881,
                                        0.47930285334587099,
                                        0.07886326313018799,
                                        -0.38447654247283938,
                                        0.9543688297271729,
                                        0.03431546688079834
                                    ]
                                },
                                {
                                    "list": [
                                        0.7470748424530029,
                                        0.6999971866607666,
                                        0.05545008182525635,
                                        -0.5282435417175293,
                                        -0.6155271530151367,
                                        0.5364487171173096,
                                        -0.09966146945953369,
                                        -0.16874921321868897,
                                        -0.2449129819869995
                                    ]
                                },
                                {
                                    "list": [
                                        -0.5976791381835938,
                                        -0.5259690284729004,
                                        -0.8672201633453369,
                                        0.864729642868042,
                                        0.6801178455352783,
                                        0.021443963050842286,
                                        -0.10160601139068604,
                                        0.31491968035697939,
                                        -0.031104445457458497
                                    ]
                                }
                            ]
                        },
                        {
                            "list": [
                                {
                                    "list": [
                                        0.6602048873901367,
                                        -0.8096086978912354
                                    ]
                                },
                                {
                                    "list": [
                                        -0.7920737266540527,
                                        -0.4861077070236206
                                    ]
                                },
                                {
                                    "list": [
                                        -0.9752779006958008,
                                        -0.3008185625076294
                                    ]
                                },
                                {
                                    "list": [
                                        0.6997885704040527,
                                        -0.1043553352355957
                                    ]
                                },
                                {
                                    "list": [
                                        -0.004848837852478027,
                                        0.1542421579360962
                                    ]
                                },
                                {
                                    "list": [
                                        0.8361361026763916,
                                        0.9525015354156494
                                    ]
                                },
                                {
                                    "list": [
                                        -0.9996075630187988,
                                        0.5727798938751221
                                    ]
                                },
                                {
                                    "list": [
                                        -0.40051162242889407,
                                        -0.6841788291931152
                                    ]
                                },
                                {
                                    "list": [
                                        -0.14525270462036134,
                                        0.7512686252593994
                                    ]
                                }
                            ]
                        }
                    ]
                },
                "Biases": {
                    "list": [
                        -0.3094683885574341,
                        0.11826786398887634,
                        -0.2214576005935669
                    ]
                },
                "Fitness": 454280.0
            },
            {
                "InputLayer": {
                    "list": [
                        0.1458098143339157,
                        -1.0,
                        0.18981137871742249
                    ]
                },
                "HiddenLayers": {
                    "list": [
                        {
                            "list": [
                                -0.3967660367488861,
                                -0.3901468813419342,
                                0.529914379119873,
                                -0.6130810379981995,
                                -0.34221258759498598,
                                0.5483675003051758,
                                -0.3163717985153198,
                                -0.3667193353176117,
                                -0.25789326429367068
                            ]
                        },
                        {
                            "list": [
                                -0.40794500708580019,
                                0.10706223547458649,
                                0.07921188324689865,
                                -0.578635573387146,
                                0.5167312622070313,
                                0.10537797212600708,
                                0.3963239789009094,
                                -0.26935315132141116,
                                0.6772083044052124
                            ]
                        }
                    ]
                },
                "OutputLayer": {
                    "list": [
                        -0.8761175274848938,
                        0.8316493630409241
                    ]
                },
                "Weights": {
                    "list": [
                        {
                            "list": [
                                {
                                    "list": [
                                        -0.0290449857711792,
                                        0.6108670234680176,
                                        -0.08767163753509522,
                                        0.6767528057098389,
                                        0.7104198932647705,
                                        0.24628818035125733,
                                        0.26897546648979189,
                                        0.06509697437286377,
                                        -0.052005648612976077
                                    ]
                                },
                                {
                                    "list": [
                                        0.25518152117729189,
                                        0.04893767833709717,
                                        -0.759742259979248,
                                        0.45558544993400576,
                                        0.09747779369354248,
                                        -0.8582196235656738,
                                        -0.09436166286468506,
                                        -0.09824240207672119,
                                        -0.052573323249816897
                                    ]
                                },
                                {
                                    "list": [
                                        0.7854118347167969,
                                        -0.7514703273773193,
                                        0.8036167621612549,
                                        -0.2500714063644409,
                                        -0.28047049045562746,
                                        0.16532933712005616,
                                        -0.7993342876434326,
                                        -0.9635522365570068,
                                        0.0033072233200073244
                                    ]
                                }
                            ]
                        },
                        {
                            "list": [
                                {
                                    "list": [
                                        0.34917017817497256,
                                        0.6420886516571045,
                                        0.7452328205108643,
                                        -0.3352624177932739,
                                        0.11968624591827393,
                                        -0.613929271697998,
                                        0.6529245376586914,
                                        -0.635267972946167,
                                        -0.7587146759033203
                                    ]
                                },
                                {
                                    "list": [
                                        0.34343191981315615,
                                        -0.9434494972229004,
                                        -0.4791041612625122,
                                        0.8436741828918457,
                                        -0.603827714920044,
                                        0.016322970390319825,
                                        0.5095152854919434,
                                        -0.40003740787506106,
                                        -0.37531769275665285
                                    ]
                                },
                                {
                                    "list": [
                                        -0.5150442123413086,
                                        -0.05396878719329834,
                                        0.41721412539482119,
                                        -0.8993818759918213,
                                        -0.5371215343475342,
                                        -0.13511550426483155,
                                        0.6130154132843018,
                                        -0.0953139066696167,
                                        -0.7276129722595215
                                    ]
                                },
                                {
                                    "list": [
                                        -0.4694782495498657,
                                        0.4118036925792694,
                                        -0.07512867450714112,
                                        -0.1179877519607544,
                                        -0.8109707832336426,
                                        -0.37265217304229739,
                                        0.2828321158885956,
                                        0.16798770427703858,
                                        -0.2514709234237671
                                    ]
                                },
                                {
                                    "list": [
                                        -0.5392463207244873,
                                        -0.22390282154083253,
                                        -0.10507071018218994,
                                        0.515885591506958,
                                        0.7250230312347412,
                                        -0.48082053661346438,
                                        -0.8466901779174805,
                                        0.5894782543182373,
                                        -0.559335470199585
                                    ]
                                },
                                {
                                    "list": [
                                        -0.6712429523468018,
                                        0.8993353843688965,
                                        -0.5694453716278076,
                                        -0.43830406665802,
                                        0.7337555885314941,
                                        -0.627166748046875,
                                        0.2430359125137329,
                                        -0.2298961877822876,
                                        0.3851787745952606
                                    ]
                                },
                                {
                                    "list": [
                                        -0.030337214469909669,
                                        0.922271728515625,
                                        0.3928355872631073,
                                        -0.8467996120452881,
                                        0.47930285334587099,
                                        0.07886326313018799,
                                        -0.38447654247283938,
                                        0.9543688297271729,
                                        0.03431546688079834
                                    ]
                                },
                                {
                                    "list": [
                                        0.7470748424530029,
                                        0.6999971866607666,
                                        0.05545008182525635,
                                        -0.5282435417175293,
                                        -0.6155271530151367,
                                        0.5364487171173096,
                                        -0.09966146945953369,
                                        -0.16874921321868897,
                                        -0.2449129819869995
                                    ]
                                },
                                {
                                    "list": [
                                        -0.5976791381835938,
                                        -0.5259690284729004,
                                        -0.8672201633453369,
                                        0.864729642868042,
                                        0.6801178455352783,
                                        0.021443963050842286,
                                        -0.10160601139068604,
                                        0.31491968035697939,
                                        -0.031104445457458497
                                    ]
                                }
                            ]
                        },
                        {
                            "list": [
                                {
                                    "list": [
                                        0.6602048873901367,
                                        -0.8096086978912354
                                    ]
                                },
                                {
                                    "list": [
                                        -0.7920737266540527,
                                        -0.4861077070236206
                                    ]
                                },
                                {
                                    "list": [
                                        -0.9752779006958008,
                                        -0.3008185625076294
                                    ]
                                },
                                {
                                    "list": [
                                        0.6997885704040527,
                                        -0.1043553352355957
                                    ]
                                },
                                {
                                    "list": [
                                        -0.004848837852478027,
                                        0.1542421579360962
                                    ]
                                },
                                {
                                    "list": [
                                        0.8361361026763916,
                                        0.9525015354156494
                                    ]
                                },
                                {
                                    "list": [
                                        -0.9996075630187988,
                                        0.5727798938751221
                                    ]
                                },
                                {
                                    "list": [
                                        -0.40051162242889407,
                                        -0.6841788291931152
                                    ]
                                },
                                {
                                    "list": [
                                        -0.14525270462036134,
                                        0.7512686252593994
                                    ]
                                }
                            ]
                        }
                    ]
                },
                "Biases": {
                    "list": [
                        -0.3094683885574341,
                        0.11826786398887634,
                        -0.2214576005935669
                    ]
                },
                "Fitness": 57770.0
            },
            {
                "InputLayer": {
                    "list": [
                        0.19766615331172944,
                        1.0,
                        0.18528787791728974
                    ]
                },
                "HiddenLayers": {
                    "list": [
                        {
                            "list": [
                                0.08529149740934372,
                                -0.2719990611076355,
                                -0.7341360449790955,
                                0.22939704358577729,
                                -0.1229078471660614,
                                -0.7962830662727356,
                                -0.4611490070819855,
                                -0.5178356766700745,
                                -0.35548537969589236
                            ]
                        },
                        {
                            "list": [
                                0.6442599296569824,
                                -0.6204171776771545,
                                0.5030548572540283,
                                0.8129441142082214,
                                -0.3062894940376282,
                                0.30215445160865786,
                                -0.08537168800830841,
                                -0.10245296359062195,
                                0.47477343678474429
                            ]
                        }
                    ]
                },
                "OutputLayer": {
                    "list": [
                        0.7950863838195801,
                        -0.05912155658006668
                    ]
                },
                "Weights": {
                    "list": [
                        {
                            "list": [
                                {
                                    "list": [
                                        -0.0290449857711792,
                                        0.6108670234680176,
                                        -0.08767163753509522,
                                        0.6767528057098389,
                                        0.7104198932647705,
                                        0.24628818035125733,
                                        0.26897546648979189,
                                        0.06509697437286377,
                                        -0.052005648612976077
                                    ]
                                },
                                {
                                    "list": [
                                        0.25518152117729189,
                                        0.04893767833709717,
                                        -0.759742259979248,
                                        0.45558544993400576,
                                        0.09747779369354248,
                                        -0.8582196235656738,
                                        -0.09436166286468506,
                                        -0.09824240207672119,
                                        -0.052573323249816897
                                    ]
                                },
                                {
                                    "list": [
                                        0.7854118347167969,
                                        -0.7514703273773193,
                                        0.8036167621612549,
                                        -0.2500714063644409,
                                        -0.28047049045562746,
                                        0.16532933712005616,
                                        -0.7993342876434326,
                                        -0.9635522365570068,
                                        0.0033072233200073244
                                    ]
                                }
                            ]
                        },
                        {
                            "list": [
                                {
                                    "list": [
                                        0.34917017817497256,
                                        0.6420886516571045,
                                        0.7452328205108643,
                                        -0.3352624177932739,
                                        0.11968624591827393,
                                        -0.613929271697998,
                                        0.6529245376586914,
                                        -0.635267972946167,
                                        -0.7587146759033203
                                    ]
                                },
                                {
                                    "list": [
                                        0.34343191981315615,
                                        -0.9434494972229004,
                                        -0.4791041612625122,
                                        0.8436741828918457,
                                        -0.603827714920044,
                                        0.016322970390319825,
                                        0.5095152854919434,
                                        -0.28916430473327639,
                                        -0.37531769275665285
                                    ]
                                },
                                {
                                    "list": [
                                        -0.5150442123413086,
                                        -0.05396878719329834,
                                        0.41721412539482119,
                                        -0.8993818759918213,
                                        -0.5371215343475342,
                                        -0.13511550426483155,
                                        0.6130154132843018,
                                        -0.0953139066696167,
                                        -0.7276129722595215
                                    ]
                                },
                                {
                                    "list": [
                                        -0.4694782495498657,
                                        0.4118036925792694,
                                        -0.07512867450714112,
                                        -0.1179877519607544,
                                        -0.8109707832336426,
                                        -0.37265217304229739,
                                        0.2828321158885956,
                                        0.16798770427703858,
                                        -0.2514709234237671
                                    ]
                                },
                                {
                                    "list": [
                                        -0.5392463207244873,
                                        -0.22390282154083253,
                                        -0.10507071018218994,
                                        0.515885591506958,
                                        0.7250230312347412,
                                        -0.48082053661346438,
                                        -0.8466901779174805,
                                        0.5894782543182373,
                                        -0.559335470199585
                                    ]
                                },
                                {
                                    "list": [
                                        -0.6712429523468018,
                                        0.8993353843688965,
                                        -0.5694453716278076,
                                        -0.43830406665802,
                                        0.7337555885314941,
                                        -0.627166748046875,
                                        0.2430359125137329,
                                        -0.2298961877822876,
                                        0.3851787745952606
                                    ]
                                },
                                {
                                    "list": [
                                        -0.030337214469909669,
                                        0.922271728515625,
                                        0.3928355872631073,
                                        -0.8467996120452881,
                                        0.47930285334587099,
                                        0.07886326313018799,
                                        -0.38447654247283938,
                                        0.9543688297271729,
                                        0.03431546688079834
                                    ]
                                },
                                {
                                    "list": [
                                        0.7470748424530029,
                                        0.6999971866607666,
                                        0.05545008182525635,
                                        -0.5282435417175293,
                                        -0.6155271530151367,
                                        0.5364487171173096,
                                        -0.09966146945953369,
                                        -0.16874921321868897,
                                        -0.2449129819869995
                                    ]
                                },
                                {
                                    "list": [
                                        -0.5976791381835938,
                                        -0.5259690284729004,
                                        -0.8672201633453369,
                                        0.864729642868042,
                                        0.6801178455352783,
                                        0.021443963050842286,
                                        -0.3509511947631836,
                                        0.31491968035697939,
                                        -0.031104445457458497
                                    ]
                                }
                            ]
                        },
                        {
                            "list": [
                                {
                                    "list": [
                                        0.6602048873901367,
                                        -0.8096086978912354
                                    ]
                                },
                                {
                                    "list": [
                                        -0.7920737266540527,
                                        -0.4861077070236206
                                    ]
                                },
                                {
                                    "list": [
                                        -0.9752779006958008,
                                        -0.3008185625076294
                                    ]
                                },
                                {
                                    "list": [
                                        0.6997885704040527,
                                        -0.1043553352355957
                                    ]
                                },
                                {
                                    "list": [
                                        -0.004848837852478027,
                                        0.1542421579360962
                                    ]
                                },
                                {
                                    "list": [
                                        0.8361361026763916,
                                        0.9525015354156494
                                    ]
                                },
                                {
                                    "list": [
                                        -0.9996075630187988,
                                        0.5727798938751221
                                    ]
                                },
                                {
                                    "list": [
                                        -0.40051162242889407,
                                        -0.6841788291931152
                                    ]
                                },
                                {
                                    "list": [
                                        -0.14525270462036134,
                                        0.7512686252593994
                                    ]
                                }
                            ]
                        }
                    ]
                },
                "Biases": {
                    "list": [
                        -0.3094683885574341,
                        0.11826786398887634,
                        -0.2214576005935669
                    ]
                },
                "Fitness": 15405.0
            },
            {
                "InputLayer": {
                    "list": [
                        0.1464085578918457,
                        -1.0,
                        0.18062686920166017
                    ]
                },
                "HiddenLayers": {
                    "list": [
                        {
                            "list": [
                                -0.402841180562973,
                                -0.3839680850505829,
                                0.5245473384857178,
                                -0.6113918423652649,
                                -0.33956003189086916,
                                0.5474081039428711,
                                -0.309604287147522,
                                -0.3590010106563568,
                                -0.25795066356658938
                            ]
                        },
                        {
                            "list": [
                                -0.4022771716117859,
                                0.10851802676916123,
                                0.07279929518699646,
                                -0.5760964155197144,
                                0.5143287181854248,
                                0.11320871859788895,
                                0.38830721378326418,
                                -0.2608879506587982,
                                0.6784304976463318
                            ]
                        }
                    ]
                },
                "OutputLayer": {
                    "list": [
                        -0.8709953427314758,
                        0.829787015914917
                    ]
                },
                "Weights": {
                    "list": [
                        {
                            "list": [
                                {
                                    "list": [
                                        -0.0290449857711792,
                                        0.6108670234680176,
                                        -0.08767163753509522,
                                        0.6767528057098389,
                                        0.7104198932647705,
                                        0.24628818035125733,
                                        0.26897546648979189,
                                        0.06509697437286377,
                                        -0.052005648612976077
                                    ]
                                },
                                {
                                    "list": [
                                        0.25518152117729189,
                                        0.04893767833709717,
                                        -0.759742259979248,
                                        0.45558544993400576,
                                        0.09747779369354248,
                                        -0.8582196235656738,
                                        -0.09436166286468506,
                                        -0.09824240207672119,
                                        -0.052573323249816897
                                    ]
                                },
                                {
                                    "list": [
                                        0.7854118347167969,
                                        -0.7514703273773193,
                                        0.8036167621612549,
                                        -0.2500714063644409,
                                        -0.28047049045562746,
                                        0.16532933712005616,
                                        -0.7993342876434326,
                                        -0.9635522365570068,
                                        0.0033072233200073244
                                    ]
                                }
                            ]
                        },
                        {
                            "list": [
                                {
                                    "list": [
                                        0.34917017817497256,
                                        0.6420886516571045,
                                        0.7452328205108643,
                                        -0.3352624177932739,
                                        0.11968624591827393,
                                        -0.613929271697998,
                                        0.6529245376586914,
                                        -0.635267972946167,
                                        -0.7587146759033203
                                    ]
                                },
                                {
                                    "list": [
                                        0.34343191981315615,
                                        -0.9434494972229004,
                                        -0.4791041612625122,
                                        0.8436741828918457,
                                        -0.603827714920044,
                                        0.016322970390319825,
                                        0.5095152854919434,
                                        -0.40003740787506106,
                                        -0.37531769275665285
                                    ]
                                },
                                {
                                    "list": [
                                        -0.5150442123413086,
                                        -0.05396878719329834,
                                        0.41721412539482119,
                                        -0.8993818759918213,
                                        -0.5371215343475342,
                                        -0.13511550426483155,
                                        0.6130154132843018,
                                        -0.0953139066696167,
                                        -0.7276129722595215
                                    ]
                                },
                                {
                                    "list": [
                                        -0.4694782495498657,
                                        0.4118036925792694,
                                        -0.07512867450714112,
                                        -0.1179877519607544,
                                        -0.8109707832336426,
                                        -0.37265217304229739,
                                        0.2828321158885956,
                                        0.16798770427703858,
                                        -0.2514709234237671
                                    ]
                                },
                                {
                                    "list": [
                                        -0.5392463207244873,
                                        -0.22390282154083253,
                                        -0.10507071018218994,
                                        0.515885591506958,
                                        0.7250230312347412,
                                        -0.48082053661346438,
                                        -0.8466901779174805,
                                        0.5894782543182373,
                                        -0.559335470199585
                                    ]
                                },
                                {
                                    "list": [
                                        -0.6712429523468018,
                                        0.8993353843688965,
                                        -0.5694453716278076,
                                        -0.43830406665802,
                                        0.7337555885314941,
                                        -0.627166748046875,
                                        0.2430359125137329,
                                        -0.2298961877822876,
                                        0.3851787745952606
                                    ]
                                },
                                {
                                    "list": [
                                        -0.030337214469909669,
                                        0.922271728515625,
                                        0.3928355872631073,
                                        -0.8467996120452881,
                                        0.47930285334587099,
                                        0.07886326313018799,
                                        -0.38447654247283938,
                                        0.9543688297271729,
                                        0.03431546688079834
                                    ]
                                },
                                {
                                    "list": [
                                        0.7470748424530029,
                                        0.6999971866607666,
                                        0.05545008182525635,
                                        -0.5282435417175293,
                                        -0.6155271530151367,
                                        0.5364487171173096,
                                        -0.09966146945953369,
                                        -0.16874921321868897,
                                        -0.2449129819869995
                                    ]
                                },
                                {
                                    "list": [
                                        -0.5976791381835938,
                                        -0.5259690284729004,
                                        -0.8672201633453369,
                                        0.864729642868042,
                                        0.6801178455352783,
                                        0.021443963050842286,
                                        -0.10160601139068604,
                                        0.31491968035697939,
                                        -0.031104445457458497
                                    ]
                                }
                            ]
                        },
                        {
                            "list": [
                                {
                                    "list": [
                                        0.6602048873901367,
                                        -0.8096086978912354
                                    ]
                                },
                                {
                                    "list": [
                                        -0.7920737266540527,
                                        -0.4861077070236206
                                    ]
                                },
                                {
                                    "list": [
                                        -0.9752779006958008,
                                        -0.3008185625076294
                                    ]
                                },
                                {
                                    "list": [
                                        0.6997885704040527,
                                        -0.1043553352355957
                                    ]
                                },
                                {
                                    "list": [
                                        -0.004848837852478027,
                                        0.1542421579360962
                                    ]
                                },
                                {
                                    "list": [
                                        0.8361361026763916,
                                        0.9525015354156494
                                    ]
                                },
                                {
                                    "list": [
                                        -0.9996075630187988,
                                        0.5727798938751221
                                    ]
                                },
                                {
                                    "list": [
                                        -0.40051162242889407,
                                        -0.6841788291931152
                                    ]
                                },
                                {
                                    "list": [
                                        -0.14525270462036134,
                                        0.7512686252593994
                                    ]
                                }
                            ]
                        }
                    ]
                },
                "Biases": {
                    "list": [
                        -0.3094683885574341,
                        0.11826786398887634,
                        -0.2214576005935669
                    ]
                },
                "Fitness": 13200.0
            },
            {
                "InputLayer": {
                    "list": [
                        0.1733369678258896,
                        1.0,
                        0.1832786351442337
                    ]
                },
                "HiddenLayers": {
                    "list": [
                        {
                            "list": [
                                0.08442632108926773,
                                -0.2843177616596222,
                                -0.7338969707489014,
                                0.21422038972377778,
                                -0.1393403559923172,
                                -0.7985856533050537,
                                -0.46502792835235598,
                                -0.5175778269767761,
                                -0.3543853163719177
                            ]
                        },
                        {
                            "list": [
                                0.6515294313430786,
                                -0.6189161539077759,
                                0.5083179473876953,
                                0.8088708519935608,
                                -0.30207785964012148,
                                0.31586164236068728,
                                -0.16886527836322785,
                                -0.08212191611528397,
                                0.4878319501876831
                            ]
                        }
                    ]
                },
                "OutputLayer": {
                    "list": [
                        0.8228561282157898,
                        -0.10479502379894257
                    ]
                },
                "Weights": {
                    "list": [
                        {
                            "list": [
                                {
                                    "list": [
                                        -0.0290449857711792,
                                        0.6108670234680176,
                                        -0.08767163753509522,
                                        0.6767528057098389,
                                        0.7104198932647705,
                                        0.24628818035125733,
                                        0.26897546648979189,
                                        0.06509697437286377,
                                        -0.052005648612976077
                                    ]
                                },
                                {
                                    "list": [
                                        0.25518152117729189,
                                        0.04893767833709717,
                                        -0.759742259979248,
                                        0.45558544993400576,
                                        0.09747779369354248,
                                        -0.8582196235656738,
                                        -0.09436166286468506,
                                        -0.09824240207672119,
                                        -0.052573323249816897
                                    ]
                                },
                                {
                                    "list": [
                                        0.7854118347167969,
                                        -0.7514703273773193,
                                        0.8036167621612549,
                                        -0.2500714063644409,
                                        -0.28047049045562746,
                                        0.16532933712005616,
                                        -0.7993342876434326,
                                        -0.9635522365570068,
                                        0.0033072233200073244
                                    ]
                                }
                            ]
                        },
                        {
                            "list": [
                                {
                                    "list": [
                                        0.34917017817497256,
                                        0.6420886516571045,
                                        0.7452328205108643,
                                        -0.3352624177932739,
                                        0.11968624591827393,
                                        -0.613929271697998,
                                        0.6529245376586914,
                                        -0.635267972946167,
                                        -0.7587146759033203
                                    ]
                                },
                                {
                                    "list": [
                                        0.34343191981315615,
                                        -0.9434494972229004,
                                        -0.4791041612625122,
                                        0.8436741828918457,
                                        -0.603827714920044,
                                        0.016322970390319825,
                                        0.5095152854919434,
                                        -0.40003740787506106,
                                        -0.37531769275665285
                                    ]
                                },
                                {
                                    "list": [
                                        -0.5150442123413086,
                                        -0.05396878719329834,
                                        0.41721412539482119,
                                        -0.8993818759918213,
                                        -0.5371215343475342,
                                        -0.13511550426483155,
                                        0.6130154132843018,
                                        -0.0953139066696167,
                                        -0.7276129722595215
                                    ]
                                },
                                {
                                    "list": [
                                        -0.4694782495498657,
                                        0.4118036925792694,
                                        -0.07512867450714112,
                                        -0.1179877519607544,
                                        -0.8109707832336426,
                                        -0.37265217304229739,
                                        0.2828321158885956,
                                        0.16798770427703858,
                                        -0.2514709234237671
                                    ]
                                },
                                {
                                    "list": [
                                        -0.5392463207244873,
                                        -0.22390282154083253,
                                        -0.10507071018218994,
                                        0.515885591506958,
                                        0.7250230312347412,
                                        -0.48082053661346438,
                                        -0.8466901779174805,
                                        0.5894782543182373,
                                        -0.559335470199585
                                    ]
                                },
                                {
                                    "list": [
                                        -0.6712429523468018,
                                        0.8993353843688965,
                                        -0.5694453716278076,
                                        -0.43830406665802,
                                        0.7337555885314941,
                                        -0.627166748046875,
                                        0.2430359125137329,
                                        -0.2298961877822876,
                                        0.3851787745952606
                                    ]
                                },
                                {
                                    "list": [
                                        -0.030337214469909669,
                                        0.922271728515625,
                                        0.3928355872631073,
                                        -0.8467996120452881,
                                        0.47930285334587099,
                                        0.07886326313018799,
                                        -0.38447654247283938,
                                        0.9543688297271729,
                                        0.03431546688079834
                                    ]
                                },
                                {
                                    "list": [
                                        0.7470748424530029,
                                        0.6999971866607666,
                                        0.05545008182525635,
                                        -0.5282435417175293,
                                        -0.6155271530151367,
                                        0.5364487171173096,
                                        -0.09966146945953369,
                                        -0.16874921321868897,
                                        -0.2449129819869995
                                    ]
                                },
                                {
                                    "list": [
                                        -0.5976791381835938,
                                        -0.5259690284729004,
                                        -0.8672201633453369,
                                        0.864729642868042,
                                        0.6801178455352783,
                                        0.021443963050842286,
                                        -0.10160601139068604,
                                        0.31491968035697939,
                                        -0.031104445457458497
                                    ]
                                }
                            ]
                        },
                        {
                            "list": [
                                {
                                    "list": [
                                        0.6602048873901367,
                                        -0.8096086978912354
                                    ]
                                },
                                {
                                    "list": [
                                        -0.7920737266540527,
                                        -0.4861077070236206
                                    ]
                                },
                                {
                                    "list": [
                                        -0.9752779006958008,
                                        -0.3008185625076294
                                    ]
                                },
                                {
                                    "list": [
                                        0.6997885704040527,
                                        -0.1043553352355957
                                    ]
                                },
                                {
                                    "list": [
                                        -0.004848837852478027,
                                        0.1542421579360962
                                    ]
                                },
                                {
                                    "list": [
                                        0.8361361026763916,
                                        0.9525015354156494
                                    ]
                                },
                                {
                                    "list": [
                                        -0.9996075630187988,
                                        0.5727798938751221
                                    ]
                                },
                                {
                                    "list": [
                                        -0.40051162242889407,
                                        -0.6841788291931152
                                    ]
                                },
                                {
                                    "list": [
                                        -0.14525270462036134,
                                        0.7512686252593994
                                    ]
                                }
                            ]
                        }
                    ]
                },
                "Biases": {
                    "list": [
                        -0.3094683885574341,
                        0.11826786398887634,
                        -0.2214576005935669
                    ]
                },
                "Fitness": 12915.0
            },
            {
                "InputLayer": {
                    "list": [
                        0.14489765465259553,
                        -1.0,
                        0.18890944123268128
                    ]
                },
                "HiddenLayers": {
                    "list": [
                        {
                            "list": [
                                -0.39734041690826418,
                                -0.3900446593761444,
                                0.5294504165649414,
                                -0.6133255362510681,
                                -0.3425613343715668,
                                0.5481060743331909,
                                -0.31594374775886538,
                                -0.3660183250904083,
                                -0.257851779460907
                            ]
                        },
                        {
                            "list": [
                                -0.4070795476436615,
                                0.10722611844539643,
                                0.07891811430454254,
                                -0.5786604285240173,
                                0.516492486000061,
                                0.10661432147026062,
                                0.39574772119522097,
                                -0.26890328526496889,
                                0.6776046752929688
                            ]
                        }
                    ]
                },
                "OutputLayer": {
                    "list": [
                        -0.8756322860717773,
                        0.8316836953163147
                    ]
                },
                "Weights": {
                    "list": [
                        {
                            "list": [
                                {
                                    "list": [
                                        -0.0290449857711792,
                                        0.6108670234680176,
                                        -0.08767163753509522,
                                        0.6767528057098389,
                                        0.7104198932647705,
                                        0.24628818035125733,
                                        0.26897546648979189,
                                        0.06509697437286377,
                                        -0.052005648612976077
                                    ]
                                },
                                {
                                    "list": [
                                        0.25518152117729189,
                                        0.04893767833709717,
                                        -0.759742259979248,
                                        0.45558544993400576,
                                        0.09747779369354248,
                                        -0.8582196235656738,
                                        -0.09436166286468506,
                                        -0.09824240207672119,
                                        -0.052573323249816897
                                    ]
                                },
                                {
                                    "list": [
                                        0.7854118347167969,
                                        -0.7514703273773193,
                                        0.8036167621612549,
                                        -0.2500714063644409,
                                        -0.28047049045562746,
                                        0.16532933712005616,
                                        -0.7993342876434326,
                                        -0.9635522365570068,
                                        0.0033072233200073244
                                    ]
                                }
                            ]
                        },
                        {
                            "list": [
                                {
                                    "list": [
                                        0.34917017817497256,
                                        0.6420886516571045,
                                        0.7452328205108643,
                                        -0.3352624177932739,
                                        0.11968624591827393,
                                        -0.613929271697998,
                                        0.6529245376586914,
                                        -0.635267972946167,
                                        -0.7587146759033203
                                    ]
                                },
                                {
                                    "list": [
                                        0.34343191981315615,
                                        -0.9434494972229004,
                                        -0.4791041612625122,
                                        0.8436741828918457,
                                        -0.603827714920044,
                                        0.016322970390319825,
                                        0.5095152854919434,
                                        -0.40003740787506106,
                                        -0.37531769275665285
                                    ]
                                },
                                {
                                    "list": [
                                        -0.5150442123413086,
                                        -0.05396878719329834,
                                        0.41721412539482119,
                                        -0.8993818759918213,
                                        -0.5371215343475342,
                                        -0.13511550426483155,
                                        0.6130154132843018,
                                        -0.0953139066696167,
                                        -0.7276129722595215
                                    ]
                                },
                                {
                                    "list": [
                                        -0.4694782495498657,
                                        0.4118036925792694,
                                        -0.07512867450714112,
                                        -0.1179877519607544,
                                        -0.8109707832336426,
                                        -0.37265217304229739,
                                        0.2828321158885956,
                                        0.16798770427703858,
                                        -0.2514709234237671
                                    ]
                                },
                                {
                                    "list": [
                                        -0.5392463207244873,
                                        -0.22390282154083253,
                                        -0.10507071018218994,
                                        0.515885591506958,
                                        0.7250230312347412,
                                        -0.48082053661346438,
                                        -0.8466901779174805,
                                        0.5894782543182373,
                                        -0.559335470199585
                                    ]
                                },
                                {
                                    "list": [
                                        -0.6712429523468018,
                                        0.8993353843688965,
                                        -0.5694453716278076,
                                        -0.43830406665802,
                                        0.7337555885314941,
                                        -0.627166748046875,
                                        0.2430359125137329,
                                        -0.2298961877822876,
                                        0.3851787745952606
                                    ]
                                },
                                {
                                    "list": [
                                        -0.030337214469909669,
                                        0.922271728515625,
                                        0.3928355872631073,
                                        -0.8467996120452881,
                                        0.47930285334587099,
                                        0.07886326313018799,
                                        -0.38447654247283938,
                                        0.9543688297271729,
                                        0.03431546688079834
                                    ]
                                },
                                {
                                    "list": [
                                        0.7470748424530029,
                                        0.6999971866607666,
                                        0.05545008182525635,
                                        -0.5282435417175293,
                                        -0.6155271530151367,
                                        0.5364487171173096,
                                        -0.09966146945953369,
                                        -0.16874921321868897,
                                        -0.2449129819869995
                                    ]
                                },
                                {
                                    "list": [
                                        -0.5976791381835938,
                                        -0.5259690284729004,
                                        -0.8672201633453369,
                                        0.864729642868042,
                                        0.6801178455352783,
                                        0.021443963050842286,
                                        -0.10160601139068604,
                                        0.31491968035697939,
                                        -0.031104445457458497
                                    ]
                                }
                            ]
                        },
                        {
                            "list": [
                                {
                                    "list": [
                                        0.6602048873901367,
                                        -0.8096086978912354
                                    ]
                                },
                                {
                                    "list": [
                                        -0.7920737266540527,
                                        -0.4861077070236206
                                    ]
                                },
                                {
                                    "list": [
                                        -0.9752779006958008,
                                        -0.3008185625076294
                                    ]
                                },
                                {
                                    "list": [
                                        0.6997885704040527,
                                        -0.1043553352355957
                                    ]
                                },
                                {
                                    "list": [
                                        -0.004848837852478027,
                                        0.1542421579360962
                                    ]
                                },
                                {
                                    "list": [
                                        0.8361361026763916,
                                        0.9525015354156494
                                    ]
                                },
                                {
                                    "list": [
                                        -0.9996075630187988,
                                        0.5727798938751221
                                    ]
                                },
                                {
                                    "list": [
                                        -0.40051162242889407,
                                        -0.6841788291931152
                                    ]
                                },
                                {
                                    "list": [
                                        -0.14525270462036134,
                                        0.7512686252593994
                                    ]
                                }
                            ]
                        }
                    ]
                },
                "Biases": {
                    "list": [
                        -0.3094683885574341,
                        0.11826786398887634,
                        -0.2214576005935669
                    ]
                },
                "Fitness": 12860.0
            },
            {
                "InputLayer": {
                    "list": [
                        0.13048392534255982,
                        1.0,
                        0.03276573866605759
                    ]
                },
                "HiddenLayers": {
                    "list": [
                        {
                            "list": [
                                -0.032330892980098727,
                                -0.20260237157344819,
                                -0.7834799885749817,
                                0.22244665026664735,
                                -0.12777972221374513,
                                -0.8110651969909668,
                                -0.3755972683429718,
                                -0.40597981214523318,
                                -0.3528709411621094
                            ]
                        },
                        {
                            "list": [
                                0.7007736563682556,
                                -0.6189221739768982,
                                0.4291797876358032,
                                0.818918764591217,
                                -0.36334341764450076,
                                0.44054898619651797,
                                -0.28364959359169009,
                                0.04193728044629097,
                                0.5295739769935608
                            ]
                        }
                    ]
                },
                "OutputLayer": {
                    "list": [
                        0.8948731422424316,
                        -0.1314738690853119
                    ]
                },
                "Weights": {
                    "list": [
                        {
                            "list": [
                                {
                                    "list": [
                                        -0.0290449857711792,
                                        0.6108670234680176,
                                        -0.08767163753509522,
                                        0.6767528057098389,
                                        0.7104198932647705,
                                        0.24628818035125733,
                                        0.26897546648979189,
                                        0.06509697437286377,
                                        -0.052005648612976077
                                    ]
                                },
                                {
                                    "list": [
                                        0.25518152117729189,
                                        0.04893767833709717,
                                        -0.759742259979248,
                                        0.45558544993400576,
                                        0.09747779369354248,
                                        -0.8582196235656738,
                                        -0.09436166286468506,
                                        -0.09824240207672119,
                                        -0.052573323249816897
                                    ]
                                },
                                {
                                    "list": [
                                        0.7854118347167969,
                                        -0.7514703273773193,
                                        0.8036167621612549,
                                        -0.2500714063644409,
                                        -0.28047049045562746,
                                        0.16532933712005616,
                                        -0.7993342876434326,
                                        -0.9635522365570068,
                                        0.0033072233200073244
                                    ]
                                }
                            ]
                        },
                        {
                            "list": [
                                {
                                    "list": [
                                        0.34917017817497256,
                                        0.6420886516571045,
                                        0.7452328205108643,
                                        -0.3352624177932739,
                                        0.11968624591827393,
                                        -0.613929271697998,
                                        0.6529245376586914,
                                        -0.635267972946167,
                                        -0.7587146759033203
                                    ]
                                },
                                {
                                    "list": [
                                        0.34343191981315615,
                                        -0.9434494972229004,
                                        -0.4791041612625122,
                                        0.8436741828918457,
                                        -0.603827714920044,
                                        0.016322970390319825,
                                        0.5095152854919434,
                                        -0.40003740787506106,
                                        -0.37531769275665285
                                    ]
                                },
                                {
                                    "list": [
                                        -0.5150442123413086,
                                        -0.05396878719329834,
                                        0.41721412539482119,
                                        -0.8993818759918213,
                                        -0.5371215343475342,
                                        -0.13511550426483155,
                                        0.6130154132843018,
                                        -0.0953139066696167,
                                        -0.7276129722595215
                                    ]
                                },
                                {
                                    "list": [
                                        -0.4694782495498657,
                                        0.4118036925792694,
                                        -0.07512867450714112,
                                        -0.1179877519607544,
                                        -0.8109707832336426,
                                        -0.37265217304229739,
                                        0.2828321158885956,
                                        0.16798770427703858,
                                        -0.2514709234237671
                                    ]
                                },
                                {
                                    "list": [
                                        -0.5392463207244873,
                                        -0.22390282154083253,
                                        -0.10507071018218994,
                                        0.515885591506958,
                                        0.7250230312347412,
                                        -0.48082053661346438,
                                        -0.8466901779174805,
                                        0.5894782543182373,
                                        -0.559335470199585
                                    ]
                                },
                                {
                                    "list": [
                                        -0.6712429523468018,
                                        0.8993353843688965,
                                        -0.5694453716278076,
                                        -0.43830406665802,
                                        0.7337555885314941,
                                        -0.627166748046875,
                                        0.2430359125137329,
                                        -0.2298961877822876,
                                        0.3851787745952606
                                    ]
                                },
                                {
                                    "list": [
                                        -0.030337214469909669,
                                        0.922271728515625,
                                        0.3928355872631073,
                                        -0.8467996120452881,
                                        0.47930285334587099,
                                        0.07886326313018799,
                                        -0.38447654247283938,
                                        0.9543688297271729,
                                        0.03431546688079834
                                    ]
                                },
                                {
                                    "list": [
                                        0.7470748424530029,
                                        0.6999971866607666,
                                        0.05545008182525635,
                                        -0.5282435417175293,
                                        -0.6155271530151367,
                                        0.5364487171173096,
                                        -0.09966146945953369,
                                        -0.16874921321868897,
                                        -0.2449129819869995
                                    ]
                                },
                                {
                                    "list": [
                                        -0.5976791381835938,
                                        -0.5259690284729004,
                                        -0.8672201633453369,
                                        0.864729642868042,
                                        0.6801178455352783,
                                        0.021443963050842286,
                                        -0.10160601139068604,
                                        0.31491968035697939,
                                        -0.031104445457458497
                                    ]
                                }
                            ]
                        },
                        {
                            "list": [
                                {
                                    "list": [
                                        0.6602048873901367,
                                        -0.8096086978912354
                                    ]
                                },
                                {
                                    "list": [
                                        -0.7920737266540527,
                                        -0.4861077070236206
                                    ]
                                },
                                {
                                    "list": [
                                        -0.9752779006958008,
                                        -0.3008185625076294
                                    ]
                                },
                                {
                                    "list": [
                                        0.6997885704040527,
                                        -0.1043553352355957
                                    ]
                                },
                                {
                                    "list": [
                                        -0.004848837852478027,
                                        0.1542421579360962
                                    ]
                                },
                                {
                                    "list": [
                                        0.8361361026763916,
                                        0.9525015354156494
                                    ]
                                },
                                {
                                    "list": [
                                        -0.9996075630187988,
                                        0.5727798938751221
                                    ]
                                },
                                {
                                    "list": [
                                        -0.40051162242889407,
                                        -0.6841788291931152
                                    ]
                                },
                                {
                                    "list": [
                                        -0.14525270462036134,
                                        0.7512686252593994
                                    ]
                                }
                            ]
                        }
                    ]
                },
                "Biases": {
                    "list": [
                        -0.3094683885574341,
                        0.11826786398887634,
                        -0.2214576005935669
                    ]
                },
                "Fitness": 5845.0
            },
            {
                "InputLayer": {
                    "list": [
                        0.20111803710460664,
                        1.0,
                        0.1844150573015213
                    ]
                },
                "HiddenLayers": {
                    "list": [
                        {
                            "list": [
                                0.08451136201620102,
                                -0.26943710446357729,
                                -0.7345986366271973,
                                0.23181556165218354,
                                -0.1202506348490715,
                                -0.7960246205329895,
                                -0.4598677158355713,
                                -0.5170552730560303,
                                -0.35564470291137698
                            ]
                        },
                        {
                            "list": [
                                0.6435242891311646,
                                -0.6206926107406616,
                                0.5016155242919922,
                                0.8136808276176453,
                                -0.30738702416419985,
                                0.301025927066803,
                                -0.17397551238536836,
                                -0.07007227092981339,
                                0.47309067845344546
                            ]
                        }
                    ]
                },
                "OutputLayer": {
                    "list": [
                        0.8215827345848084,
                        -0.1327303946018219
                    ]
                },
                "Weights": {
                    "list": [
                        {
                            "list": [
                                {
                                    "list": [
                                        -0.0290449857711792,
                                        0.6108670234680176,
                                        -0.08767163753509522,
                                        0.6767528057098389,
                                        0.7104198932647705,
                                        0.24628818035125733,
                                        0.26897546648979189,
                                        0.06509697437286377,
                                        -0.052005648612976077
                                    ]
                                },
                                {
                                    "list": [
                                        0.25518152117729189,
                                        0.04893767833709717,
                                        -0.759742259979248,
                                        0.45558544993400576,
                                        0.09747779369354248,
                                        -0.8582196235656738,
                                        -0.09436166286468506,
                                        -0.09824240207672119,
                                        -0.052573323249816897
                                    ]
                                },
                                {
                                    "list": [
                                        0.7854118347167969,
                                        -0.7514703273773193,
                                        0.8036167621612549,
                                        -0.2500714063644409,
                                        -0.28047049045562746,
                                        0.16532933712005616,
                                        -0.7993342876434326,
                                        -0.9635522365570068,
                                        0.0033072233200073244
                                    ]
                                }
                            ]
                        },
                        {
                            "list": [
                                {
                                    "list": [
                                        0.34917017817497256,
                                        0.6420886516571045,
                                        0.7452328205108643,
                                        -0.3352624177932739,
                                        0.11968624591827393,
                                        -0.613929271697998,
                                        0.6529245376586914,
                                        -0.635267972946167,
                                        -0.7587146759033203
                                    ]
                                },
                                {
                                    "list": [
                                        0.34343191981315615,
                                        -0.9434494972229004,
                                        -0.4791041612625122,
                                        0.8436741828918457,
                                        -0.603827714920044,
                                        0.016322970390319825,
                                        0.5095152854919434,
                                        -0.40003740787506106,
                                        -0.37531769275665285
                                    ]
                                },
                                {
                                    "list": [
                                        -0.5150442123413086,
                                        -0.05396878719329834,
                                        0.41721412539482119,
                                        -0.8993818759918213,
                                        -0.5371215343475342,
                                        -0.13511550426483155,
                                        0.6130154132843018,
                                        -0.0953139066696167,
                                        -0.7276129722595215
                                    ]
                                },
                                {
                                    "list": [
                                        -0.4694782495498657,
                                        0.4118036925792694,
                                        -0.07512867450714112,
                                        -0.1179877519607544,
                                        -0.8109707832336426,
                                        -0.37265217304229739,
