{
    "Item1": 80,
    "Item2": {
        "list": [
            {
                "InputLayer": {
                    "list": [
                        0.20200370252132417,
                        -0.9999950528144836,
                        0.20173028111457826
                    ]
                },
                "HiddenLayers": {
                    "list": [
                        {
                            "list": [
                                0.21905024349689485,
                                -0.3312550187110901,
                                -0.666195273399353,
                                0.010604356415569783,
                                -0.7774152755737305,
                                0.2690090537071228,
                                0.8289812803268433,
                                0.7722452282905579,
                                -0.6041580438613892
                            ]
                        },
                        {
                            "list": [
                                0.7933685183525086,
                                -0.9266216158866882,
                                -0.8539985418319702,
                                -0.5937797427177429,
                                -0.7908449769020081,
                                0.8644431829452515,
                                -0.3030785322189331,
                                -0.6245074272155762,
                                0.6434306502342224
                            ]
                        }
                    ]
                },
                "OutputLayer": {
                    "list": [
                        -0.10783146321773529,
                        0.9944115877151489
                    ]
                },
                "Weights": {
                    "list": [
                        {
                            "list": [
                                {
                                    "list": [
                                        -0.8398118019104004,
                                        -0.6079065799713135,
                                        -0.6166744232177734,
                                        -0.5164880752563477,
                                        -0.9599804878234863,
                                        -0.33276212215423586,
                                        0.4557659327983856,
                                        0.9787535667419434,
                                        0.04960167407989502
                                    ]
                                },
                                {
                                    "list": [
                                        -0.0748668909072876,
                                        0.4716908633708954,
                                        0.7870514392852783,
                                        -0.13714087009429933,
                                        0.852834939956665,
                                        -0.06622815132141113,
                                        -0.7930915355682373,
                                        -0.7521936893463135,
                                        0.9741415977478027
                                    ]
                                },
                                {
                                    "list": [
                                        1.0,
                                        0.6669502258300781,
                                        -0.03945577144622803,
                                        -0.6836330890655518,
                                        -0.5341792106628418,
                                        0.7984921932220459,
                                        0.9121592044830322,
                                        -0.19700515270233155,
                                        0.7373256683349609
                                    ]
                                }
                            ]
                        },
                        {
                            "list": [
                                {
                                    "list": [
                                        -0.8543941974639893,
                                        -0.291904091835022,
                                        0.6689975261688232,
                                        -0.23707091808319093,
                                        -0.6977026462554932,
                                        0.628218412399292,
                                        0.38769790530204775,
                                        -0.8653409481048584,
                                        -0.5981864929199219
                                    ]
                                },
                                {
                                    "list": [
                                        -0.6468100547790527,
                                        0.3729719817638397,
                                        0.1365889310836792,
                                        0.04948580265045166,
                                        -0.7008187770843506,
                                        -0.21246349811553956,
                                        -0.8426847457885742,
                                        0.8296773433685303,
                                        -0.22928917407989503
                                    ]
                                },
                                {
                                    "list": [
                                        0.11410987377166748,
                                        0.6312623023986816,
                                        0.6601307392120361,
                                        -0.4019416570663452,
                                        -0.34877312183380129,
                                        -0.9014649391174316,
                                        0.21539175510406495,
                                        -0.9037694931030273,
                                        0.005261778831481934
                                    ]
                                },
                                {
                                    "list": [
                                        -0.06528031826019287,
                                        -0.02551257610321045,
                                        0.8219521045684815,
                                        -0.04618489742279053,
                                        0.9907376766204834,
                                        0.8816206455230713,
                                        0.1900573968887329,
                                        0.14417970180511475,
                                        0.6894049644470215
                                    ]
                                },
                                {
                                    "list": [
                                        -0.5434467792510986,
                                        0.0028878450393676759,
                                        0.1945725679397583,
                                        0.9896080493927002,
                                        0.6080322265625,
                                        -0.25068771839141848,
                                        0.9034984111785889,
                                        -0.7243893146514893,
                                        -0.8431205749511719
                                    ]
                                },
                                {
                                    "list": [
                                        -0.8488996028900147,
                                        0.41122815012931826,
                                        -0.7007706165313721,
                                        0.5144760608673096,
                                        -0.8267695903778076,
                                        0.006005644798278809,
                                        0.8429622650146484,
                                        0.4363860785961151,
                                        -0.3999117612838745
                                    ]
                                },
                                {
                                    "list": [
                                        0.8267147541046143,
                                        -0.40182459354400637,
                                        0.8825056552886963,
                                        -0.4476701021194458,
                                        0.09709560871124268,
                                        0.3834492862224579,
                                        -0.7178497314453125,
                                        -0.9328968524932861,
                                        0.8525187969207764
                                    ]
                                },
                                {
                                    "list": [
                                        0.8513698577880859,
                                        -0.36685168743133547,
                                        -0.9864974021911621,
                                        0.6252119541168213,
                                        -0.627856969833374,
                                        -0.22976267337799073,
                                        0.23732173442840577,
                                        -0.780402660369873,
                                        -0.1903160810470581
                                    ]
                                },
                                {
                                    "list": [
                                        0.6787567138671875,
                                        0.8620898723602295,
                                        0.9503929615020752,
                                        0.6065201759338379,
                                        0.4959120452404022,
                                        -0.25259411334991457,
                                        -0.5772051811218262,
                                        0.2968384921550751,
                                        0.4892224967479706
                                    ]
                                }
                            ]
                        },
                        {
                            "list": [
                                {
                                    "list": [
                                        -0.08028852939605713,
                                        0.8155980110168457
                                    ]
                                },
                                {
                                    "list": [
                                        0.24653851985931397,
                                        0.35558387637138369
                                    ]
                                },
                                {
                                    "list": [
                                        0.1274048089981079,
                                        -0.5393593311309815
                                    ]
                                },
                                {
                                    "list": [
                                        0.9308857917785645,
                                        -0.22584664821624757
                                    ]
                                },
                                {
                                    "list": [
                                        0.6014163494110107,
                                        -0.5646970272064209
                                    ]
                                },
                                {
                                    "list": [
                                        0.5107917785644531,
                                        0.2815832793712616
                                    ]
                                },
                                {
                                    "list": [
                                        -0.5354082584381104,
                                        0.8606679439544678
                                    ]
                                },
                                {
                                    "list": [
                                        0.10401546955108643,
                                        -0.43816959857940676
                                    ]
                                },
                                {
                                    "list": [
                                        0.06933414936065674,
                                        0.9107849597930908
                                    ]
                                }
                            ]
                        }
                    ]
                },
                "Biases": {
                    "list": [
                        0.11570656299591065,
                        0.003221869468688965,
                        0.7375912666320801
                    ]
                },
                "Fitness": 34505.0
            },
            {
                "InputLayer": {
                    "list": [
                        0.19977465271949769,
                        -1.0,
                        0.20664885640144349
                    ]
                },
                "HiddenLayers": {
                    "list": [
                        {
                            "list": [
                                0.10673880577087403,
                                -0.3271239101886749,
                                -0.665540337562561,
                                0.008394014090299607,
                                -0.7776097655296326,
                                0.40775710344314577,
                                0.8300649523735046,
                                0.770971953868866,
                                -0.6019236445426941
                            ]
                        },
                        {
                            "list": [
                                0.7847487330436707,
                                -0.9121435284614563,
                                -0.8936232924461365,
                                -0.5266882181167603,
                                -0.8052803874015808,
                                0.8448030352592468,
                                -0.2409621924161911,
                                -0.5163291096687317,
                                0.6502074599266052
                            ]
                        }
                    ]
                },
                "OutputLayer": {
                    "list": [
                        -0.08661641925573349,
                        0.9946214556694031
                    ]
                },
                "Weights": {
                    "list": [
                        {
                            "list": [
                                {
                                    "list": [
                                        -0.8398118019104004,
                                        -0.6079065799713135,
                                        -0.6166744232177734,
                                        -0.5164880752563477,
                                        -0.9599804878234863,
                                        -0.33276212215423586,
                                        0.4557659327983856,
                                        0.9787535667419434,
                                        0.04960167407989502
                                    ]
                                },
                                {
                                    "list": [
                                        -0.0748668909072876,
                                        0.4716908633708954,
                                        0.7870514392852783,
                                        -0.13714087009429933,
                                        0.852834939956665,
                                        -0.2186814546585083,
                                        -0.7930915355682373,
                                        -0.7521936893463135,
                                        0.9741415977478027
                                    ]
                                },
                                {
                                    "list": [
                                        0.40816399455070498,
                                        0.6669502258300781,
                                        -0.03945577144622803,
                                        -0.6836330890655518,
                                        -0.5341792106628418,
                                        0.7984921932220459,
                                        0.9121592044830322,
                                        -0.19700515270233155,
                                        0.7373256683349609
                                    ]
                                }
                            ]
                        },
                        {
                            "list": [
                                {
                                    "list": [
                                        -0.8543941974639893,
                                        -0.291904091835022,
                                        0.6689975261688232,
                                        -0.23707091808319093,
                                        -0.6977026462554932,
                                        0.628218412399292,
                                        0.38769790530204775,
                                        -0.8653409481048584,
                                        -0.5981864929199219
                                    ]
                                },
                                {
                                    "list": [
                                        -0.6468100547790527,
                                        0.3729719817638397,
                                        0.1365889310836792,
                                        0.04948580265045166,
                                        -0.7008187770843506,
                                        -0.21246349811553956,
                                        -0.8426847457885742,
                                        0.8296773433685303,
                                        -0.22928917407989503
                                    ]
                                },
                                {
                                    "list": [
                                        0.11410987377166748,
                                        0.6312623023986816,
                                        0.6601307392120361,
                                        -0.4019416570663452,
                                        -0.34877312183380129,
                                        -0.9014649391174316,
                                        0.21539175510406495,
                                        -0.9037694931030273,
                                        0.005261778831481934
                                    ]
                                },
                                {
                                    "list": [
                                        -0.06528031826019287,
                                        -0.02551257610321045,
                                        0.8219521045684815,
                                        -0.04618489742279053,
                                        0.9907376766204834,
                                        0.8816206455230713,
                                        0.1900573968887329,
                                        0.14417970180511475,
                                        0.6894049644470215
                                    ]
                                },
                                {
                                    "list": [
                                        -0.5434467792510986,
                                        0.0028878450393676759,
                                        0.1945725679397583,
                                        0.9896080493927002,
                                        0.6080322265625,
                                        -0.25068771839141848,
                                        0.9034984111785889,
                                        -0.7243893146514893,
                                        -0.8431205749511719
                                    ]
                                },
                                {
                                    "list": [
                                        -0.8488996028900147,
                                        0.41122815012931826,
                                        -0.7007706165313721,
                                        0.5144760608673096,
                                        -0.8267695903778076,
                                        0.006005644798278809,
                                        0.8429622650146484,
                                        0.4363860785961151,
                                        -0.3999117612838745
                                    ]
                                },
                                {
                                    "list": [
                                        0.8267147541046143,
                                        -0.40182459354400637,
                                        0.8825056552886963,
                                        -0.4476701021194458,
                                        0.09709560871124268,
                                        0.3834492862224579,
                                        -0.7178497314453125,
                                        -0.9328968524932861,
                                        0.8525187969207764
                                    ]
                                },
                                {
                                    "list": [
                                        0.8513698577880859,
                                        -0.36685168743133547,
                                        -0.9864974021911621,
                                        0.6252119541168213,
                                        -0.627856969833374,
                                        -0.22976267337799073,
                                        0.23732173442840577,
                                        -0.780402660369873,
                                        -0.1903160810470581
                                    ]
                                },
                                {
                                    "list": [
                                        0.6787567138671875,
                                        0.8620898723602295,
                                        0.9503929615020752,
                                        0.6065201759338379,
                                        0.4959120452404022,
                                        -0.25259411334991457,
                                        -0.5772051811218262,
                                        0.2968384921550751,
                                        0.4892224967479706
                                    ]
                                }
                            ]
                        },
                        {
                            "list": [
                                {
                                    "list": [
                                        -0.08028852939605713,
                                        0.8155980110168457
                                    ]
                                },
                                {
                                    "list": [
                                        0.24653851985931397,
                                        0.35558387637138369
                                    ]
                                },
                                {
                                    "list": [
                                        0.1274048089981079,
                                        -0.5393593311309815
                                    ]
                                },
                                {
                                    "list": [
                                        0.9308857917785645,
                                        -0.22584664821624757
                                    ]
                                },
                                {
                                    "list": [
                                        0.6014163494110107,
                                        -0.5646970272064209
                                    ]
                                },
                                {
                                    "list": [
                                        0.5107917785644531,
                                        0.2815832793712616
                                    ]
                                },
                                {
                                    "list": [
                                        -0.5354082584381104,
                                        0.8606679439544678
                                    ]
                                },
                                {
                                    "list": [
                                        0.10401546955108643,
                                        -0.43816959857940676
                                    ]
                                },
                                {
                                    "list": [
                                        0.06933414936065674,
                                        0.9107849597930908
                                    ]
                                }
                            ]
                        }
                    ]
                },
                "Biases": {
                    "list": [
                        0.11570656299591065,
                        0.003221869468688965,
                        0.7375912666320801
                    ]
                },
                "Fitness": 33805.0
            },
            {
                "InputLayer": {
                    "list": [
                        0.1660662144422531,
                        -1.0,
                        0.20762032270431519
                    ]
                },
                "HiddenLayers": {
                    "list": [
                        {
                            "list": [
                                0.1350225955247879,
                                -0.3081180155277252,
                                -0.6538219451904297,
                                0.025134796276688577,
                                -0.7647074460983276,
                                0.41770660877227785,
                                0.8255082368850708,
                                0.7571643590927124,
                                -0.6025327444076538
                            ]
                        },
                        {
                            "list": [
                                0.7573645114898682,
                                -0.9093636870384216,
                                -0.8836227655410767,
                                -0.5269217491149902,
                                -0.8098063468933106,
                                0.8494144082069397,
                                -0.22104065120220185,
                                -0.5214751362800598,
                                0.6348935961723328
                            ]
                        }
                    ]
                },
                "OutputLayer": {
                    "list": [
                        -0.09523340314626694,
                        0.994431734085083
                    ]
                },
                "Weights": {
                    "list": [
                        {
                            "list": [
                                {
                                    "list": [
                                        -0.8398118019104004,
                                        -0.6079065799713135,
                                        -0.6166744232177734,
                                        -0.5164880752563477,
                                        -0.9599804878234863,
                                        -0.33276212215423586,
                                        0.4557659327983856,
                                        0.9787535667419434,
                                        0.04960167407989502
                                    ]
                                },
                                {
                                    "list": [
                                        -0.0748668909072876,
                                        0.4716908633708954,
                                        0.7870514392852783,
                                        -0.13714087009429933,
                                        0.852834939956665,
                                        -0.2186814546585083,
                                        -0.7930915355682373,
                                        -0.7521936893463135,
                                        0.9741415977478027
                                    ]
                                },
                                {
                                    "list": [
                                        0.40816399455070498,
                                        0.6669502258300781,
                                        -0.03945577144622803,
                                        -0.6836330890655518,
                                        -0.5341792106628418,
                                        0.7984921932220459,
                                        0.9121592044830322,
                                        -0.19700515270233155,
                                        0.7373256683349609
                                    ]
                                }
                            ]
                        },
                        {
                            "list": [
                                {
                                    "list": [
                                        -0.8543941974639893,
                                        -0.291904091835022,
                                        0.6689975261688232,
                                        -0.23707091808319093,
                                        -0.6977026462554932,
                                        0.628218412399292,
                                        0.38769790530204775,
                                        -0.8653409481048584,
                                        -0.5981864929199219
                                    ]
                                },
                                {
                                    "list": [
                                        -0.6468100547790527,
                                        0.3729719817638397,
                                        0.1365889310836792,
                                        0.04948580265045166,
                                        -0.7008187770843506,
                                        -0.21246349811553956,
                                        -0.8426847457885742,
                                        0.8296773433685303,
                                        -0.22928917407989503
                                    ]
                                },
                                {
                                    "list": [
                                        0.11410987377166748,
                                        0.6312623023986816,
                                        0.6601307392120361,
                                        -0.4019416570663452,
                                        -0.34877312183380129,
                                        -0.9014649391174316,
                                        0.21539175510406495,
                                        -0.9037694931030273,
                                        0.005261778831481934
                                    ]
                                },
                                {
                                    "list": [
                                        -0.06528031826019287,
                                        -0.02551257610321045,
                                        0.8219521045684815,
                                        -0.04618489742279053,
                                        0.9907376766204834,
                                        0.8816206455230713,
                                        0.1900573968887329,
                                        0.14417970180511475,
                                        0.6894049644470215
                                    ]
                                },
                                {
                                    "list": [
                                        -0.5434467792510986,
                                        0.0028878450393676759,
                                        0.1945725679397583,
                                        0.9896080493927002,
                                        0.6080322265625,
                                        -0.25068771839141848,
                                        0.9034984111785889,
                                        -0.7243893146514893,
                                        -0.8431205749511719
                                    ]
                                },
                                {
                                    "list": [
                                        -0.8488996028900147,
                                        0.41122815012931826,
                                        -0.7007706165313721,
                                        0.5144760608673096,
                                        -0.8267695903778076,
                                        0.006005644798278809,
                                        0.8429622650146484,
                                        0.4363860785961151,
                                        -0.3999117612838745
                                    ]
                                },
                                {
                                    "list": [
                                        0.8267147541046143,
                                        -0.40182459354400637,
                                        0.8825056552886963,
                                        -0.4476701021194458,
                                        0.09709560871124268,
                                        0.3834492862224579,
                                        -0.7178497314453125,
                                        -0.9328968524932861,
                                        0.8525187969207764
                                    ]
                                },
                                {
                                    "list": [
                                        0.8513698577880859,
                                        -0.36685168743133547,
                                        -0.9864974021911621,
                                        0.6252119541168213,
                                        -0.627856969833374,
                                        -0.22976267337799073,
                                        0.23732173442840577,
                                        -0.780402660369873,
                                        -0.1903160810470581
                                    ]
                                },
                                {
                                    "list": [
                                        0.6787567138671875,
                                        0.8620898723602295,
                                        0.9503929615020752,
                                        0.6065201759338379,
                                        0.4959120452404022,
                                        -0.25259411334991457,
                                        -0.5772051811218262,
                                        0.2968384921550751,
                                        0.4892224967479706
                                    ]
                                }
                            ]
                        },
                        {
                            "list": [
                                {
                                    "list": [
                                        -0.08028852939605713,
                                        0.8155980110168457
                                    ]
                                },
                                {
                                    "list": [
                                        0.24653851985931397,
                                        0.35558387637138369
                                    ]
                                },
                                {
                                    "list": [
                                        0.1274048089981079,
                                        -0.5393593311309815
                                    ]
                                },
                                {
                                    "list": [
                                        0.9308857917785645,
                                        -0.22584664821624757
                                    ]
                                },
                                {
                                    "list": [
                                        0.6014163494110107,
                                        -0.5646970272064209
                                    ]
                                },
                                {
                                    "list": [
                                        0.5107917785644531,
                                        0.2815832793712616
                                    ]
                                },
                                {
                                    "list": [
                                        -0.5354082584381104,
                                        0.8606679439544678
                                    ]
                                },
                                {
                                    "list": [
                                        0.10401546955108643,
                                        -0.43816959857940676
                                    ]
                                },
                                {
                                    "list": [
                                        0.06933414936065674,
                                        0.9107849597930908
                                    ]
                                }
                            ]
                        }
                    ]
                },
                "Biases": {
                    "list": [
                        0.11570656299591065,
                        0.003221869468688965,
                        0.7375912666320801
                    ]
                },
                "Fitness": 29100.0
            },
            {
                "InputLayer": {
                    "list": [
                        0.17418041825294496,
                        -1.0,
                        0.20063084363937379
                    ]
                },
                "HiddenLayers": {
                    "list": [
                        {
                            "list": [
                                0.24014268815517426,
                                -0.3167755603790283,
                                -0.656520426273346,
                                0.02572176791727543,
                                -0.7663862705230713,
                                0.2767658531665802,
                                0.8246535658836365,
                                0.7611126899719238,
                                -0.6055502891540527
                            ]
                        },
                        {
                            "list": [
                                0.7725445628166199,
                                -0.9247890710830689,
                                -0.8435311913490295,
                                -0.5936715602874756,
                                -0.7934853434562683,
                                0.8677692413330078,
                                -0.285997211933136,
                                -0.6276057362556458,
                                0.6314891576766968
                            ]
                        }
                    ]
                },
                "OutputLayer": {
                    "list": [
                        -0.1143762469291687,
                        0.9942488074302673
                    ]
                },
                "Weights": {
                    "list": [
                        {
                            "list": [
                                {
                                    "list": [
                                        -0.8398118019104004,
                                        -0.6079065799713135,
                                        -0.6166744232177734,
                                        -0.5164880752563477,
                                        -0.9599804878234863,
                                        -0.33276212215423586,
                                        0.4557659327983856,
                                        0.9787535667419434,
                                        0.04960167407989502
                                    ]
                                },
                                {
                                    "list": [
                                        -0.0748668909072876,
                                        0.4716908633708954,
                                        0.7870514392852783,
                                        -0.13714087009429933,
                                        0.852834939956665,
                                        -0.06622815132141113,
                                        -0.7930915355682373,
                                        -0.7521936893463135,
                                        0.9741415977478027
                                    ]
                                },
                                {
                                    "list": [
                                        1.0,
                                        0.6669502258300781,
                                        -0.03945577144622803,
                                        -0.6836330890655518,
                                        -0.5341792106628418,
                                        0.7984921932220459,
                                        0.9121592044830322,
                                        -0.19700515270233155,
                                        0.7373256683349609
                                    ]
                                }
                            ]
                        },
                        {
                            "list": [
                                {
                                    "list": [
                                        -0.8543941974639893,
                                        -0.291904091835022,
                                        0.6689975261688232,
                                        -0.23707091808319093,
                                        -0.6977026462554932,
                                        0.628218412399292,
                                        0.38769790530204775,
                                        -0.8653409481048584,
                                        -0.5981864929199219
                                    ]
                                },
                                {
                                    "list": [
                                        -0.6468100547790527,
                                        0.3729719817638397,
                                        0.1365889310836792,
                                        0.04948580265045166,
                                        -0.7008187770843506,
                                        -0.21246349811553956,
                                        -0.8426847457885742,
                                        0.8296773433685303,
                                        -0.22928917407989503
                                    ]
                                },
                                {
                                    "list": [
                                        0.11410987377166748,
                                        0.6312623023986816,
                                        0.6601307392120361,
                                        -0.4019416570663452,
                                        -0.34877312183380129,
                                        -0.9014649391174316,
                                        0.21539175510406495,
                                        -0.9037694931030273,
                                        0.005261778831481934
                                    ]
                                },
                                {
                                    "list": [
                                        -0.06528031826019287,
                                        -0.02551257610321045,
                                        0.8219521045684815,
                                        -0.04618489742279053,
                                        0.9907376766204834,
                                        0.8816206455230713,
                                        0.1900573968887329,
                                        0.14417970180511475,
                                        0.6894049644470215
                                    ]
                                },
                                {
                                    "list": [
                                        -0.5434467792510986,
                                        0.0028878450393676759,
                                        0.1945725679397583,
                                        0.9896080493927002,
                                        0.6080322265625,
                                        -0.25068771839141848,
                                        0.9034984111785889,
                                        -0.7243893146514893,
                                        -0.8431205749511719
                                    ]
                                },
                                {
                                    "list": [
                                        -0.8488996028900147,
                                        0.41122815012931826,
                                        -0.7007706165313721,
                                        0.5144760608673096,
                                        -0.8267695903778076,
                                        0.006005644798278809,
                                        0.8429622650146484,
                                        0.4363860785961151,
                                        -0.3999117612838745
                                    ]
                                },
                                {
                                    "list": [
                                        0.8267147541046143,
                                        -0.40182459354400637,
                                        0.8825056552886963,
                                        -0.4476701021194458,
                                        0.09709560871124268,
                                        0.3834492862224579,
                                        -0.7178497314453125,
                                        -0.9328968524932861,
                                        0.8525187969207764
                                    ]
                                },
                                {
                                    "list": [
                                        0.8513698577880859,
                                        -0.36685168743133547,
                                        -0.9864974021911621,
                                        0.6252119541168213,
                                        -0.627856969833374,
                                        -0.22976267337799073,
                                        0.23732173442840577,
                                        -0.780402660369873,
                                        -0.1903160810470581
                                    ]
                                },
                                {
                                    "list": [
                                        0.6787567138671875,
                                        0.8620898723602295,
                                        0.9503929615020752,
                                        0.6065201759338379,
                                        0.4959120452404022,
                                        -0.25259411334991457,
                                        -0.5772051811218262,
                                        0.2968384921550751,
                                        0.4892224967479706
                                    ]
                                }
                            ]
                        },
                        {
                            "list": [
                                {
                                    "list": [
                                        -0.08028852939605713,
                                        0.8155980110168457
                                    ]
                                },
                                {
                                    "list": [
                                        0.24653851985931397,
                                        0.35558387637138369
                                    ]
                                },
                                {
                                    "list": [
                                        0.1274048089981079,
                                        -0.5393593311309815
                                    ]
                                },
                                {
                                    "list": [
                                        0.9308857917785645,
                                        -0.22584664821624757
                                    ]
                                },
                                {
                                    "list": [
                                        0.6014163494110107,
                                        -0.5646970272064209
                                    ]
                                },
                                {
                                    "list": [
                                        0.5107917785644531,
                                        0.2815832793712616
                                    ]
                                },
                                {
                                    "list": [
                                        -0.5354082584381104,
                                        0.8606679439544678
                                    ]
                                },
                                {
                                    "list": [
                                        0.10401546955108643,
                                        -0.43816959857940676
                                    ]
                                },
                                {
                                    "list": [
                                        0.06933414936065674,
                                        0.9107849597930908
                                    ]
                                }
                            ]
                        }
                    ]
                },
                "Biases": {
                    "list": [
                        0.11570656299591065,
                        0.003221869468688965,
                        0.7375912666320801
                    ]
                },
                "Fitness": 27480.0
            },
            {
                "InputLayer": {
                    "list": [
                        0.20373617112636567,
                        -0.9317227005958557,
                        0.20130495727062226
                    ]
                },
                "HiddenLayers": {
                    "list": [
                        {
                            "list": [
                                -0.12281317263841629,
                                -0.48792558908462527,
                                -0.7492101192474365,
                                -0.21587520837783814,
                                -0.8342570066452026,
                                0.19009754061698914,
                                0.7216898798942566,
                                0.6389092803001404,
                                -0.6928175091743469
                            ]
                        },
                        {
                            "list": [
                                0.8654532432556152,
                                -0.9297084212303162,
                                -0.943056046962738,
                                -0.636530339717865,
                                -0.6966615319252014,
                                0.7739149928092957,
                                -0.37623992562294009,
                                -0.32709890604019167,
                                0.6739088892936707
                            ]
                        }
                    ]
                },
                "OutputLayer": {
                    "list": [
                        -0.0831289291381836,
                        0.9927752614021301
                    ]
                },
                "Weights": {
                    "list": [
                        {
                            "list": [
                                {
                                    "list": [
                                        -0.8398118019104004,
                                        -0.6079065799713135,
                                        -0.6166744232177734,
                                        -0.5164880752563477,
                                        -0.9599804878234863,
                                        -0.33276212215423586,
                                        0.4557659327983856,
                                        0.9787535667419434,
                                        0.04960167407989502
                                    ]
                                },
                                {
                                    "list": [
                                        -0.0748668909072876,
                                        0.4716908633708954,
                                        0.7870514392852783,
                                        -0.13714087009429933,
                                        0.852834939956665,
                                        -0.2186814546585083,
                                        -0.7930915355682373,
                                        -0.7521936893463135,
                                        0.9741415977478027
                                    ]
                                },
                                {
                                    "list": [
                                        0.40816399455070498,
                                        0.6669502258300781,
                                        -0.03945577144622803,
                                        -0.6836330890655518,
                                        -0.5341792106628418,
                                        0.7984921932220459,
                                        0.9121592044830322,
                                        -0.19700515270233155,
                                        0.7373256683349609
                                    ]
                                }
                            ]
                        },
                        {
                            "list": [
                                {
                                    "list": [
                                        -0.8543941974639893,
                                        -0.291904091835022,
                                        0.6689975261688232,
                                        -0.23707091808319093,
                                        -0.6977026462554932,
                                        0.628218412399292,
                                        0.38769790530204775,
                                        -0.8653409481048584,
                                        -0.5981864929199219
                                    ]
                                },
                                {
                                    "list": [
                                        -0.6468100547790527,
                                        0.3729719817638397,
                                        0.1365889310836792,
                                        0.04948580265045166,
                                        -0.7008187770843506,
                                        -0.21246349811553956,
                                        -0.8426847457885742,
                                        0.8296773433685303,
                                        -0.22928917407989503
                                    ]
                                },
                                {
                                    "list": [
                                        0.11410987377166748,
                                        0.6312623023986816,
                                        0.6601307392120361,
                                        -0.4019416570663452,
                                        -0.34877312183380129,
                                        -0.9014649391174316,
                                        0.21539175510406495,
                                        -0.9037694931030273,
                                        0.005261778831481934
                                    ]
                                },
                                {
                                    "list": [
                                        -0.06528031826019287,
                                        -0.02551257610321045,
                                        0.8219521045684815,
                                        -0.04618489742279053,
                                        0.9907376766204834,
                                        0.8816206455230713,
                                        0.1900573968887329,
                                        0.14417970180511475,
                                        0.6894049644470215
                                    ]
                                },
                                {
                                    "list": [
                                        -0.5434467792510986,
                                        0.0028878450393676759,
                                        0.1945725679397583,
                                        0.9896080493927002,
                                        0.6080322265625,
                                        -0.25068771839141848,
                                        0.9034984111785889,
                                        -0.7243893146514893,
                                        -0.8431205749511719
                                    ]
                                },
                                {
                                    "list": [
                                        -0.8488996028900147,
                                        0.41122815012931826,
                                        -0.7007706165313721,
                                        0.5144760608673096,
                                        -0.8267695903778076,
                                        0.006005644798278809,
                                        0.8429622650146484,
                                        0.4363860785961151,
                                        -0.3999117612838745
                                    ]
                                },
                                {
                                    "list": [
                                        0.8267147541046143,
                                        -0.40182459354400637,
                                        0.8825056552886963,
                                        -0.4476701021194458,
                                        0.09709560871124268,
                                        0.3834492862224579,
                                        -0.7178497314453125,
                                        -0.9328968524932861,
                                        0.8525187969207764
                                    ]
                                },
                                {
                                    "list": [
                                        0.8513698577880859,
                                        -0.36685168743133547,
                                        -0.9864974021911621,
                                        0.6252119541168213,
                                        -0.627856969833374,
                                        -0.22976267337799073,
                                        0.23732173442840577,
                                        -0.780402660369873,
                                        -0.1903160810470581
                                    ]
                                },
                                {
                                    "list": [
                                        0.6787567138671875,
                                        0.8620898723602295,
                                        0.9503929615020752,
                                        0.6065201759338379,
                                        0.4959120452404022,
                                        -0.25259411334991457,
                                        -0.5772051811218262,
                                        0.2968384921550751,
                                        0.4892224967479706
                                    ]
                                }
                            ]
                        },
                        {
                            "list": [
                                {
                                    "list": [
                                        -0.08028852939605713,
                                        0.8155980110168457
                                    ]
                                },
                                {
                                    "list": [
                                        0.24653851985931397,
                                        0.35558387637138369
                                    ]
                                },
                                {
                                    "list": [
                                        0.1274048089981079,
                                        -0.5393593311309815
                                    ]
                                },
                                {
                                    "list": [
                                        0.9308857917785645,
                                        -0.22584664821624757
                                    ]
                                },
                                {
                                    "list": [
                                        0.6014163494110107,
                                        -0.5646970272064209
                                    ]
                                },
                                {
                                    "list": [
                                        0.5107917785644531,
                                        0.2815832793712616
                                    ]
                                },
                                {
                                    "list": [
                                        -0.5354082584381104,
                                        0.8606679439544678
                                    ]
                                },
                                {
                                    "list": [
                                        0.10401546955108643,
                                        -0.43816959857940676
                                    ]
                                },
                                {
                                    "list": [
                                        0.06933414936065674,
                                        0.9107849597930908
                                    ]
                                }
                            ]
                        }
                    ]
                },
                "Biases": {
                    "list": [
                        -0.10425686836242676,
                        0.003221869468688965,
                        0.7375912666320801
                    ]
                },
                "Fitness": 17385.0
            },
            {
                "InputLayer": {
                    "list": [
                        0.2022494375705719,
                        -0.9638406038284302,
                        0.20320865511894227
                    ]
                },
                "HiddenLayers": {
                    "list": [
                        {
                            "list": [
                                0.10061569511890412,
                                -0.315234512090683,
                                -0.6501886248588562,
                                0.004508889280259609,
                                -0.765346348285675,
                                0.39814305305480959,
                                0.8202750086784363,
                                0.7610142230987549,
                                -0.5805870890617371
                            ]
                        },
                        {
                            "list": [
                                0.7843467593193054,
                                -0.9055203795433044,
                                -0.8863369822502136,
                                -0.5162504315376282,
                                -0.7988519072532654,
                                0.8348984718322754,
                                -0.25457173585891726,
                                -0.508299708366394,
                                0.647794783115387
                            ]
                        }
                    ]
                },
                "OutputLayer": {
                    "list": [
                        -0.06765896826982498,
                        0.9943112730979919
                    ]
                },
                "Weights": {
                    "list": [
                        {
                            "list": [
                                {
                                    "list": [
                                        -0.8398118019104004,
                                        -0.6079065799713135,
                                        -0.6166744232177734,
                                        -0.5164880752563477,
                                        -0.9599804878234863,
                                        -0.33276212215423586,
                                        0.4557659327983856,
                                        0.9787535667419434,
                                        0.04960167407989502
                                    ]
                                },
                                {
                                    "list": [
                                        -0.0748668909072876,
                                        0.4716908633708954,
                                        0.7870514392852783,
                                        -0.13714087009429933,
                                        0.852834939956665,
                                        -0.2186814546585083,
                                        -0.7930915355682373,
                                        -0.7521936893463135,
                                        0.9741415977478027
                                    ]
                                },
                                {
                                    "list": [
                                        0.40816399455070498,
                                        0.6669502258300781,
                                        -0.03945577144622803,
                                        -0.6836330890655518,
                                        -0.5341792106628418,
                                        0.7984921932220459,
                                        0.9121592044830322,
                                        -0.19700515270233155,
                                        0.7373256683349609
                                    ]
                                }
                            ]
                        },
                        {
                            "list": [
                                {
                                    "list": [
                                        -0.8543941974639893,
                                        -0.291904091835022,
                                        0.6689975261688232,
                                        -0.23707091808319093,
                                        -0.6977026462554932,
                                        0.628218412399292,
                                        0.38769790530204775,
                                        -0.8653409481048584,
                                        -0.5981864929199219
                                    ]
                                },
                                {
                                    "list": [
                                        -0.6468100547790527,
                                        0.3729719817638397,
                                        0.1365889310836792,
                                        0.04948580265045166,
                                        -0.7008187770843506,
                                        -0.21246349811553956,
                                        -0.8426847457885742,
                                        0.8296773433685303,
                                        -0.22928917407989503
                                    ]
                                },
                                {
                                    "list": [
                                        0.11410987377166748,
                                        0.6312623023986816,
                                        0.6601307392120361,
                                        -0.4019416570663452,
                                        -0.34877312183380129,
                                        -0.9014649391174316,
                                        0.21539175510406495,
                                        -0.9037694931030273,
                                        0.005261778831481934
                                    ]
                                },
                                {
                                    "list": [
                                        -0.06528031826019287,
                                        -0.02551257610321045,
                                        0.8219521045684815,
                                        -0.04618489742279053,
                                        0.9907376766204834,
                                        0.8816206455230713,
                                        0.1900573968887329,
                                        0.14417970180511475,
                                        0.6894049644470215
                                    ]
                                },
                                {
                                    "list": [
                                        -0.5434467792510986,
                                        0.0028878450393676759,
                                        0.1945725679397583,
                                        0.9896080493927002,
                                        0.6080322265625,
                                        -0.25068771839141848,
                                        0.9034984111785889,
                                        -0.7243893146514893,
                                        -0.8431205749511719
                                    ]
                                },
                                {
                                    "list": [
                                        -0.8488996028900147,
                                        0.41122815012931826,
                                        -0.7007706165313721,
                                        0.5144760608673096,
                                        -0.8267695903778076,
                                        0.006005644798278809,
                                        0.8429622650146484,
                                        0.4363860785961151,
                                        -0.3999117612838745
                                    ]
                                },
                                {
                                    "list": [
                                        0.8267147541046143,
                                        -0.40182459354400637,
                                        0.8825056552886963,
                                        -0.4476701021194458,
                                        0.09709560871124268,
                                        0.3834492862224579,
                                        -0.7178497314453125,
                                        -0.9328968524932861,
                                        0.8525187969207764
                                    ]
                                },
                                {
                                    "list": [
                                        0.8513698577880859,
                                        -0.36685168743133547,
                                        -0.9864974021911621,
                                        0.6252119541168213,
                                        -0.627856969833374,
                                        -0.22976267337799073,
                                        0.23732173442840577,
                                        -0.780402660369873,
                                        -0.1903160810470581
                                    ]
                                },
                                {
                                    "list": [
                                        0.6787567138671875,
                                        0.8620898723602295,
                                        0.9503929615020752,
                                        0.6065201759338379,
                                        0.4959120452404022,
                                        -0.25259411334991457,
                                        -0.5772051811218262,
                                        0.2968384921550751,
                                        0.4892224967479706
                                    ]
                                }
                            ]
                        },
                        {
                            "list": [
                                {
                                    "list": [
                                        -0.08028852939605713,
                                        0.8155980110168457
                                    ]
                                },
                                {
                                    "list": [
                                        0.24653851985931397,
                                        0.35558387637138369
                                    ]
                                },
                                {
                                    "list": [
                                        0.1274048089981079,
                                        -0.5393593311309815
                                    ]
                                },
                                {
                                    "list": [
                                        0.9308857917785645,
                                        -0.22584664821624757
                                    ]
                                },
                                {
                                    "list": [
                                        0.6014163494110107,
                                        -0.5646970272064209
                                    ]
                                },
                                {
                                    "list": [
                                        0.5107917785644531,
                                        0.2815832793712616
                                    ]
                                },
                                {
                                    "list": [
                                        -0.5354082584381104,
                                        0.8606679439544678
                                    ]
                                },
                                {
                                    "list": [
                                        0.10401546955108643,
                                        -0.43816959857940676
                                    ]
                                },
                                {
                                    "list": [
                                        0.06933414936065674,
                                        0.9107849597930908
                                    ]
                                }
                            ]
                        }
                    ]
                },
                "Biases": {
                    "list": [
                        0.11570656299591065,
                        0.003221869468688965,
                        0.7375912666320801
                    ]
                },
                "Fitness": 16730.0
            },
            {
                "InputLayer": {
                    "list": [
                        0.20024222135543824,
                        -1.0,
                        0.223332017660141
                    ]
                },
                "HiddenLayers": {
                    "list": [
                        {
                            "list": [
                                0.1130780577659607,
                                -0.3174075186252594,
                                -0.6660673022270203,
                                -0.0032524277921766044,
                                -0.781283438205719,
                                0.41867464780807497,
                                0.8348027467727661,
                                0.7698219418525696,
                                -0.5940064191818237
                            ]
                        },
                        {
                            "list": [
                                0.7808921337127686,
                                -0.9101808667182922,
                                -0.893598735332489,
                                -0.5240304470062256,
                                -0.8151516318321228,
                                0.8428428769111633,
                                -0.2507493495941162,
                                -0.5107141137123108,
                                0.6460381150245667
                            ]
                        }
                    ]
                },
                "OutputLayer": {
                    "list": [
                        -0.0847620740532875,
                        0.994483232498169
                    ]
                },
                "Weights": {
                    "list": [
                        {
                            "list": [
                                {
                                    "list": [
                                        -0.8398118019104004,
                                        -0.6079065799713135,
                                        -0.6166744232177734,
                                        -0.5164880752563477,
                                        -0.9599804878234863,
                                        -0.33276212215423586,
                                        0.4557659327983856,
                                        0.9787535667419434,
                                        0.04960167407989502
                                    ]
                                },
                                {
                                    "list": [
                                        -0.0748668909072876,
                                        0.4716908633708954,
                                        0.7870514392852783,
                                        -0.13714087009429933,
                                        0.852834939956665,
                                        -0.2186814546585083,
                                        -0.7930915355682373,
                                        -0.7521936893463135,
                                        0.9741415977478027
                                    ]
                                },
                                {
                                    "list": [
                                        0.40816399455070498,
                                        0.6669502258300781,
                                        -0.03945577144622803,
                                        -0.6836330890655518,
                                        -0.5341792106628418,
                                        0.7984921932220459,
                                        0.9121592044830322,
                                        -0.19700515270233155,
                                        0.7373256683349609
                                    ]
                                }
                            ]
                        },
                        {
                            "list": [
                                {
                                    "list": [
                                        -0.8543941974639893,
                                        -0.291904091835022,
                                        0.6689975261688232,
                                        -0.23707091808319093,
                                        -0.6977026462554932,
                                        0.628218412399292,
                                        0.38769790530204775,
                                        -0.8653409481048584,
                                        -0.5981864929199219
                                    ]
                                },
                                {
                                    "list": [
                                        -0.6468100547790527,
                                        0.3729719817638397,
                                        0.1365889310836792,
                                        0.04948580265045166,
                                        -0.7008187770843506,
                                        -0.21246349811553956,
                                        -0.8426847457885742,
                                        0.8296773433685303,
                                        -0.22928917407989503
                                    ]
                                },
                                {
                                    "list": [
                                        0.11410987377166748,
                                        0.6312623023986816,
                                        0.6601307392120361,
                                        -0.4019416570663452,
                                        -0.34877312183380129,
                                        -0.9014649391174316,
                                        0.21539175510406495,
                                        -0.9037694931030273,
                                        0.005261778831481934
                                    ]
                                },
                                {
                                    "list": [
                                        -0.06528031826019287,
                                        -0.02551257610321045,
                                        0.8219521045684815,
                                        -0.04618489742279053,
                                        0.9907376766204834,
                                        0.8816206455230713,
                                        0.1900573968887329,
                                        0.14417970180511475,
                                        0.6894049644470215
                                    ]
                                },
                                {
                                    "list": [
                                        -0.5434467792510986,
                                        0.0028878450393676759,
                                        0.1945725679397583,
                                        0.9896080493927002,
                                        0.6080322265625,
                                        -0.25068771839141848,
                                        0.9034984111785889,
                                        -0.7243893146514893,
                                        -0.8431205749511719
                                    ]
                                },
                                {
                                    "list": [
                                        -0.8488996028900147,
                                        0.41122815012931826,
                                        -0.7007706165313721,
                                        0.5144760608673096,
                                        -0.8267695903778076,
                                        0.006005644798278809,
                                        0.8429622650146484,
                                        0.4363860785961151,
                                        -0.3999117612838745
                                    ]
                                },
                                {
                                    "list": [
                                        0.8267147541046143,
                                        -0.40182459354400637,
                                        0.8825056552886963,
                                        -0.4476701021194458,
                                        0.09709560871124268,
                                        0.3834492862224579,
                                        -0.7178497314453125,
                                        -0.9328968524932861,
                                        0.8525187969207764
                                    ]
                                },
                                {
                                    "list": [
                                        0.8513698577880859,
                                        -0.36685168743133547,
                                        -0.9864974021911621,
                                        0.6252119541168213,
                                        -0.627856969833374,
                                        -0.22976267337799073,
                                        0.23732173442840577,
                                        -0.780402660369873,
                                        -0.1903160810470581
                                    ]
                                },
                                {
                                    "list": [
                                        0.6787567138671875,
                                        0.8620898723602295,
                                        0.9503929615020752,
                                        0.6065201759338379,
                                        0.4959120452404022,
                                        -0.25259411334991457,
                                        -0.5772051811218262,
                                        0.2968384921550751,
                                        0.4892224967479706
                                    ]
                                }
                            ]
                        },
                        {
                            "list": [
                                {
                                    "list": [
                                        -0.08028852939605713,
                                        0.8155980110168457
                                    ]
                                },
                                {
                                    "list": [
                                        0.24653851985931397,
                                        0.35558387637138369
                                    ]
                                },
                                {
                                    "list": [
                                        0.1274048089981079,
                                        -0.5393593311309815
                                    ]
                                },
                                {
                                    "list": [
                                        0.9308857917785645,
                                        -0.22584664821624757
                                    ]
                                },
                                {
                                    "list": [
                                        0.6014163494110107,
                                        -0.5646970272064209
                                    ]
                                },
                                {
                                    "list": [
                                        0.5107917785644531,
                                        0.2815832793712616
                                    ]
                                },
                                {
                                    "list": [
                                        -0.5354082584381104,
                                        0.8606679439544678
                                    ]
                                },
                                {
                                    "list": [
                                        0.10401546955108643,
                                        -0.43816959857940676
                                    ]
                                },
                                {
                                    "list": [
                                        0.06933414936065674,
                                        0.9107849597930908
                                    ]
                                }
                            ]
                        }
                    ]
                },
                "Biases": {
                    "list": [
                        0.11570656299591065,
                        0.003221869468688965,
                        0.7375912666320801
                    ]
                },
                "Fitness": 16430.0
            },
            {
                "InputLayer": {
                    "list": [
                        0.20011496543884278,
                        -1.0,
                        0.19833333790302277
                    ]
                },
                "HiddenLayers": {
                    "list": [
                        {
                            "list": [
                                0.21732604503631593,
                                -0.33225151896476748,
                                -0.6654744744300842,
                                0.013902312144637108,
                                -0.7759777307510376,
                                0.26707515120506289,
                                0.8277400135993958,
                                0.7717702388763428,
                                -0.605808436870575
                            ]
                        },
                        {
                            "list": [
                                0.7934775948524475,
                                -0.9267683029174805,
                                -0.8536363244056702,
                                -0.5940368175506592,
                                -0.7883033156394959,
                                0.8647119402885437,
                                -0.30094021558761599,
                                -0.6247252821922302,
                                0.6442055106163025
                            ]
                        }
                    ]
                },
                "OutputLayer": {
                    "list": [
                        -0.10752099007368088,
                        0.9944247007369995
                    ]
                },
                "Weights": {
                    "list": [
                        {
                            "list": [
                                {
                                    "list": [
                                        -0.8398118019104004,
                                        -0.6079065799713135,
                                        -0.6166744232177734,
                                        -0.5164880752563477,
                                        -0.9599804878234863,
                                        -0.33276212215423586,
                                        0.4557659327983856,
                                        0.9787535667419434,
                                        0.04960167407989502
                                    ]
                                },
                                {
                                    "list": [
                                        -0.0748668909072876,
                                        0.4716908633708954,
                                        0.7870514392852783,
                                        -0.13714087009429933,
                                        0.852834939956665,
                                        -0.06622815132141113,
                                        -0.7930915355682373,
                                        -0.7521936893463135,
                                        0.9741415977478027
                                    ]
                                },
                                {
                                    "list": [
                                        1.0,
                                        0.6669502258300781,
                                        -0.03945577144622803,
                                        -0.6836330890655518,
                                        -0.5341792106628418,
                                        0.7984921932220459,
                                        0.9121592044830322,
                                        -0.19700515270233155,
                                        0.7373256683349609
                                    ]
                                }
                            ]
                        },
                        {
                            "list": [
                                {
                                    "list": [
                                        -0.8543941974639893,
                                        -0.291904091835022,
                                        0.6689975261688232,
                                        -0.23707091808319093,
                                        -0.6977026462554932,
                                        0.628218412399292,
                                        0.38769790530204775,
                                        -0.8653409481048584,
                                        -0.5981864929199219
                                    ]
                                },
                                {
                                    "list": [
                                        -0.6468100547790527,
                                        0.3729719817638397,
                                        0.1365889310836792,
                                        0.04948580265045166,
                                        -0.7008187770843506,
                                        -0.21246349811553956,
                                        -0.8426847457885742,
                                        0.8296773433685303,
                                        -0.22928917407989503
                                    ]
                                },
                                {
                                    "list": [
                                        0.11410987377166748,
                                        0.6312623023986816,
                                        0.6601307392120361,
                                        -0.4019416570663452,
                                        -0.34877312183380129,
                                        -0.9014649391174316,
                                        0.21539175510406495,
                                        -0.9037694931030273,
                                        0.005261778831481934
                                    ]
                                },
                                {
                                    "list": [
                                        -0.06528031826019287,
                                        -0.02551257610321045,
                                        0.8219521045684815,
                                        -0.04618489742279053,
                                        0.9907376766204834,
                                        0.8816206455230713,
                                        0.1900573968887329,
                                        0.14417970180511475,
                                        0.6894049644470215
