{
    "Item1": 52,
    "Item2": {
        "list": [
            {
                "InputLayer": {
                    "list": [
                        0.14726968109607697,
                        1.0,
                        0.16976670920848847
                    ]
                },
                "HiddenLayers": {
                    "list": [
                        {
                            "list": [
                                0.5181645154953003,
                                -0.16055814921855927,
                                -0.8515265583992004,
                                -0.08579196035861969,
                                -0.5916687846183777,
                                0.12855024635791779,
                                0.17700056731700898,
                                0.6565328240394592,
                                -0.568953812122345
                            ]
                        },
                        {
                            "list": [
                                0.7569754123687744,
                                -0.7781885862350464,
                                0.7486292719841003,
                                0.6955821514129639,
                                0.7270419597625732,
                                -0.6030430793762207,
                                0.8704768419265747,
                                0.7599512934684753,
                                -0.13425970077514649
                            ]
                        }
                    ]
                },
                "OutputLayer": {
                    "list": [
                        -0.9248696565628052,
                        0.9406343102455139
                    ]
                },
                "Weights": {
                    "list": [
                        {
                            "list": [
                                {
                                    "list": [
                                        0.9340176582336426,
                                        -0.26069700717926028,
                                        -0.12631309032440186,
                                        -0.5179343223571777,
                                        -0.5974271297454834,
                                        -0.0026930570602416994,
                                        0.3153207004070282,
                                        1.0,
                                        0.7379171848297119
                                    ]
                                },
                                {
                                    "list": [
                                        0.6926884651184082,
                                        -0.07965385913848877,
                                        -0.9623925685882568,
                                        0.10563123226165772,
                                        -0.6100105047225952,
                                        0.2994743585586548,
                                        0.1588960886001587,
                                        0.8168268203735352,
                                        -0.5022366046905518
                                    ]
                                },
                                {
                                    "list": [
                                        -0.8570307493209839,
                                        0.39469146728515627,
                                        -1.0,
                                        -0.026154637336730958,
                                        0.7579929828643799,
                                        -0.3469107151031494,
                                        0.49756333231925967,
                                        -0.3916131258010864,
                                        -0.8334517478942871
                                    ]
                                }
                            ]
                        },
                        {
                            "list": [
                                {
                                    "list": [
                                        0.5263469219207764,
                                        -0.6331729888916016,
                                        0.6137418746948242,
                                        0.5364600419998169,
                                        -0.3765488862991333,
                                        0.6165870428085327,
                                        -0.4250253438949585,
                                        0.9653511047363281,
                                        -0.5576386451721191
                                    ]
                                },
                                {
                                    "list": [
                                        -0.7248597145080566,
                                        -0.46871626377105715,
                                        0.5088620185852051,
                                        -0.9591057300567627,
                                        -0.506364107131958,
                                        -0.9650318622589111,
                                        -0.4882611036300659,
                                        -0.8407473564147949,
                                        0.7469291687011719
                                    ]
                                },
                                {
                                    "list": [
                                        -0.9329308271408081,
                                        0.8218190670013428,
                                        -1.0,
                                        0.742304801940918,
                                        -0.08437740802764893,
                                        0.7779221534729004,
                                        -1.0,
                                        0.10455977916717529,
                                        0.642683744430542
                                    ]
                                },
                                {
                                    "list": [
                                        -0.17291927337646485,
                                        0.026151537895202638,
                                        0.06339132785797119,
                                        0.22700083255767823,
                                        0.4264828860759735,
                                        -0.19500350952148438,
                                        -0.9195562601089478,
                                        0.5783450603485107,
                                        0.8849995136260986
                                    ]
                                },
                                {
                                    "list": [
                                        0.7300703525543213,
                                        0.6160938739776611,
                                        -0.3303283452987671,
                                        -0.8726189136505127,
                                        -0.11849105358123779,
                                        -0.3564189672470093,
                                        -0.9425275325775147,
                                        -0.005204558372497559,
                                        0.14092743396759034
                                    ]
                                },
                                {
                                    "list": [
                                        0.8264172077178955,
                                        -0.9028794765472412,
                                        -0.5597920417785645,
                                        -0.3064168691635132,
                                        0.4754049479961395,
                                        0.2055288553237915,
                                        -0.5133239030838013,
                                        0.4769878089427948,
                                        -0.7728581428527832
                                    ]
                                },
                                {
                                    "list": [
                                        -0.36228621006011965,
                                        -0.8632175922393799,
                                        0.7596142292022705,
                                        0.04254019260406494,
                                        0.9646952152252197,
                                        -0.4813741445541382,
                                        -0.547421932220459,
                                        0.4831819236278534,
                                        0.17692244052886964
                                    ]
                                },
                                {
                                    "list": [
                                        0.48590657114982607,
                                        -0.15104162693023683,
                                        -0.2638617753982544,
                                        0.4292726516723633,
                                        0.8852272033691406,
                                        -0.6981279850006104,
                                        0.6306158304214478,
                                        -0.6272470951080322,
                                        0.6540400981903076
                                    ]
                                },
                                {
                                    "list": [
                                        0.5998094081878662,
                                        -0.7800841331481934,
                                        0.7032260894775391,
                                        -0.1919182538986206,
                                        0.14940083026885987,
                                        0.7438948154449463,
                                        0.817572832107544,
                                        -0.9818309545516968,
                                        -0.7314850091934204
                                    ]
                                }
                            ]
                        },
                        {
                            "list": [
                                {
                                    "list": [
                                        0.1963965892791748,
                                        1.0
                                    ]
                                },
                                {
                                    "list": [
                                        0.5553402900695801,
                                        -0.032642245292663577
                                    ]
                                },
                                {
                                    "list": [
                                        -0.7085165977478027,
                                        -0.0923997163772583
                                    ]
                                },
                                {
                                    "list": [
                                        -0.7304635047912598,
                                        0.12193548679351807
                                    ]
                                },
                                {
                                    "list": [
                                        -0.9989414215087891,
                                        0.8788886070251465
                                    ]
                                },
                                {
                                    "list": [
                                        -0.3783961534500122,
                                        0.35082241892814639
                                    ]
                                },
                                {
                                    "list": [
                                        0.28494927287101748,
                                        0.09597039222717285
                                    ]
                                },
                                {
                                    "list": [
                                        -0.9405622482299805,
                                        -0.52260422706604
                                    ]
                                },
                                {
                                    "list": [
                                        0.27773210406303408,
                                        -0.9628376960754395
                                    ]
                                }
                            ]
                        }
                    ]
                },
                "Biases": {
                    "list": [
                        -0.11091840267181397,
                        0.20282518863677979,
                        0.7024221420288086
                    ]
                },
                "Fitness": 756220.0
            },
            {
                "InputLayer": {
                    "list": [
                        0.18977320194244386,
                        -1.0,
                        0.18108057975769044
                    ]
                },
                "HiddenLayers": {
                    "list": [
                        {
                            "list": [
                                -0.6535937190055847,
                                -0.00926662515848875,
                                0.5692568421363831,
                                -0.30912330746650698,
                                0.4799922704696655,
                                -0.44120222330093386,
                                -0.1193050742149353,
                                -0.6689750552177429,
                                0.3630836308002472
                            ]
                        },
                        {
                            "list": [
                                -0.5982025861740112,
                                0.9348586201667786,
                                -0.3471795916557312,
                                -0.4070848524570465,
                                -0.5689089894294739,
                                0.6882833242416382,
                                -0.08528430759906769,
                                -0.6333894729614258,
                                0.3248388469219208
                            ]
                        }
                    ]
                },
                "OutputLayer": {
                    "list": [
                        0.989391565322876,
                        -0.1900002807378769
                    ]
                },
                "Weights": {
                    "list": [
                        {
                            "list": [
                                {
                                    "list": [
                                        0.9340176582336426,
                                        -0.26069700717926028,
                                        -0.12631309032440186,
                                        -0.5179343223571777,
                                        -0.5974271297454834,
                                        -0.0026930570602416994,
                                        0.3153207004070282,
                                        1.0,
                                        0.7379171848297119
                                    ]
                                },
                                {
                                    "list": [
                                        0.6926884651184082,
                                        -0.07965385913848877,
                                        -0.9623925685882568,
                                        0.10563123226165772,
                                        -0.6100105047225952,
                                        0.2994743585586548,
                                        0.1588960886001587,
                                        0.8168268203735352,
                                        -0.5022366046905518
                                    ]
                                },
                                {
                                    "list": [
                                        -0.8570307493209839,
                                        0.39469146728515627,
                                        -1.0,
                                        -0.026154637336730958,
                                        0.7579929828643799,
                                        -0.3469107151031494,
                                        0.49756333231925967,
                                        -0.3916131258010864,
                                        -0.8334517478942871
                                    ]
                                }
                            ]
                        },
                        {
                            "list": [
                                {
                                    "list": [
                                        0.5263469219207764,
                                        -0.6331729888916016,
                                        0.6137418746948242,
                                        0.5364600419998169,
                                        -0.3765488862991333,
                                        0.6165870428085327,
                                        -0.4250253438949585,
                                        0.9653511047363281,
                                        -0.5576386451721191
                                    ]
                                },
                                {
                                    "list": [
                                        -0.7248597145080566,
                                        -0.46871626377105715,
                                        0.5088620185852051,
                                        -0.9591057300567627,
                                        -0.506364107131958,
                                        -0.9650318622589111,
                                        -0.4882611036300659,
                                        -0.8407473564147949,
                                        0.7469291687011719
                                    ]
                                },
                                {
                                    "list": [
                                        -0.9329308271408081,
                                        0.8218190670013428,
                                        -1.0,
                                        0.742304801940918,
                                        -0.08437740802764893,
                                        0.7779221534729004,
                                        -1.0,
                                        0.10455977916717529,
                                        0.642683744430542
                                    ]
                                },
                                {
                                    "list": [
                                        -0.17291927337646485,
                                        0.026151537895202638,
                                        0.06339132785797119,
                                        0.22700083255767823,
                                        0.4264828860759735,
                                        -0.19500350952148438,
                                        -0.9195562601089478,
                                        0.5783450603485107,
                                        0.8849995136260986
                                    ]
                                },
                                {
                                    "list": [
                                        0.7300703525543213,
                                        0.6160938739776611,
                                        -0.3303283452987671,
                                        -0.8726189136505127,
                                        -0.11849105358123779,
                                        -0.3564189672470093,
                                        -0.9425275325775147,
                                        -0.005204558372497559,
                                        0.14092743396759034
                                    ]
                                },
                                {
                                    "list": [
                                        0.8264172077178955,
                                        -0.9028794765472412,
                                        -0.5597920417785645,
                                        -0.3064168691635132,
                                        0.4754049479961395,
                                        0.2055288553237915,
                                        -0.5133239030838013,
                                        0.4769878089427948,
                                        -0.7728581428527832
                                    ]
                                },
                                {
                                    "list": [
                                        -0.36228621006011965,
                                        -0.8632175922393799,
                                        0.7596142292022705,
                                        0.04254019260406494,
                                        0.9646952152252197,
                                        -0.4813741445541382,
                                        -0.547421932220459,
                                        0.4831819236278534,
                                        0.17692244052886964
                                    ]
                                },
                                {
                                    "list": [
                                        0.48590657114982607,
                                        -0.15104162693023683,
                                        -0.2638617753982544,
                                        0.4292726516723633,
                                        0.8852272033691406,
                                        -0.6981279850006104,
                                        0.6306158304214478,
                                        -0.6272470951080322,
                                        0.6540400981903076
                                    ]
                                },
                                {
                                    "list": [
                                        0.5998094081878662,
                                        -0.7800841331481934,
                                        0.7032260894775391,
                                        -0.1919182538986206,
                                        0.14940083026885987,
                                        0.7438948154449463,
                                        0.817572832107544,
                                        -0.9818309545516968,
                                        -0.7314850091934204
                                    ]
                                }
                            ]
                        },
                        {
                            "list": [
                                {
                                    "list": [
                                        0.1963965892791748,
                                        1.0
                                    ]
                                },
                                {
                                    "list": [
                                        0.5553402900695801,
                                        -0.032642245292663577
                                    ]
                                },
                                {
                                    "list": [
                                        -0.7085165977478027,
                                        -0.0923997163772583
                                    ]
                                },
                                {
                                    "list": [
                                        -0.7304635047912598,
                                        0.12193548679351807
                                    ]
                                },
                                {
                                    "list": [
                                        -0.9989414215087891,
                                        0.8788886070251465
                                    ]
                                },
                                {
                                    "list": [
                                        -0.3783961534500122,
                                        0.35082241892814639
                                    ]
                                },
                                {
                                    "list": [
                                        0.28494927287101748,
                                        0.09597039222717285
                                    ]
                                },
                                {
                                    "list": [
                                        -0.9405622482299805,
                                        -0.52260422706604
                                    ]
                                },
                                {
                                    "list": [
                                        0.27773210406303408,
                                        -0.9628376960754395
                                    ]
                                }
                            ]
                        }
                    ]
                },
                "Biases": {
                    "list": [
                        -0.11091840267181397,
                        0.20282518863677979,
                        0.7024221420288086
                    ]
                },
                "Fitness": 150960.0
            },
            {
                "InputLayer": {
                    "list": [
                        0.18439142405986787,
                        -1.0,
                        0.179869145154953
                    ]
                },
                "HiddenLayers": {
                    "list": [
                        {
                            "list": [
                                -0.6558724045753479,
                                -0.008341826498508454,
                                0.5705338716506958,
                                -0.306571364402771,
                                0.48175811767578127,
                                -0.44085201621055605,
                                -0.12157146632671356,
                                -0.67167729139328,
                                0.36050963401794436
                            ]
                        },
                        {
                            "list": [
                                -0.6007393002510071,
                                0.935768723487854,
                                -0.35213109850883486,
                                -0.4095786511898041,
                                -0.5713626742362976,
                                0.6876004934310913,
                                -0.09274337440729141,
                                -0.6322400569915772,
                                0.32906612753868105
                            ]
                        }
                    ]
                },
                "OutputLayer": {
                    "list": [
                        0.9895177483558655,
                        -0.19980865716934205
                    ]
                },
                "Weights": {
                    "list": [
                        {
                            "list": [
                                {
                                    "list": [
                                        0.9340176582336426,
                                        -0.26069700717926028,
                                        -0.12631309032440186,
                                        -0.5179343223571777,
                                        -0.5974271297454834,
                                        -0.0026930570602416994,
                                        0.3153207004070282,
                                        1.0,
                                        0.7379171848297119
                                    ]
                                },
                                {
                                    "list": [
                                        0.6926884651184082,
                                        -0.07965385913848877,
                                        -0.9623925685882568,
                                        0.10563123226165772,
                                        -0.6100105047225952,
                                        0.2994743585586548,
                                        0.1588960886001587,
                                        0.8168268203735352,
                                        -0.5022366046905518
                                    ]
                                },
                                {
                                    "list": [
                                        -0.8570307493209839,
                                        0.39469146728515627,
                                        -1.0,
                                        -0.026154637336730958,
                                        0.7579929828643799,
                                        -0.3469107151031494,
                                        0.49756333231925967,
                                        -0.3916131258010864,
                                        -0.8334517478942871
                                    ]
                                }
                            ]
                        },
                        {
                            "list": [
                                {
                                    "list": [
                                        0.5263469219207764,
                                        -0.6331729888916016,
                                        0.6137418746948242,
                                        0.5364600419998169,
                                        -0.3765488862991333,
                                        0.6165870428085327,
                                        -0.4250253438949585,
                                        0.9653511047363281,
                                        -0.5576386451721191
                                    ]
                                },
                                {
                                    "list": [
                                        -0.7248597145080566,
                                        -0.46871626377105715,
                                        0.5088620185852051,
                                        -0.9591057300567627,
                                        -0.506364107131958,
                                        -0.9650318622589111,
                                        -0.4882611036300659,
                                        -0.8407473564147949,
                                        0.7469291687011719
                                    ]
                                },
                                {
                                    "list": [
                                        -0.9329308271408081,
                                        0.8218190670013428,
                                        -1.0,
                                        0.742304801940918,
                                        -0.08437740802764893,
                                        0.7779221534729004,
                                        -1.0,
                                        0.10455977916717529,
                                        0.642683744430542
                                    ]
                                },
                                {
                                    "list": [
                                        -0.17291927337646485,
                                        0.026151537895202638,
                                        0.06339132785797119,
                                        0.22700083255767823,
                                        0.4264828860759735,
                                        -0.19500350952148438,
                                        -0.9195562601089478,
                                        0.5783450603485107,
                                        0.8849995136260986
                                    ]
                                },
                                {
                                    "list": [
                                        0.7300703525543213,
                                        0.6160938739776611,
                                        -0.3303283452987671,
                                        -0.8726189136505127,
                                        -0.11849105358123779,
                                        -0.3564189672470093,
                                        -0.9425275325775147,
                                        -0.005204558372497559,
                                        0.14092743396759034
                                    ]
                                },
                                {
                                    "list": [
                                        0.8264172077178955,
                                        -0.9028794765472412,
                                        -0.5597920417785645,
                                        -0.3064168691635132,
                                        0.4754049479961395,
                                        0.2055288553237915,
                                        -0.5133239030838013,
                                        0.4769878089427948,
                                        -0.7728581428527832
                                    ]
                                },
                                {
                                    "list": [
                                        -0.36228621006011965,
                                        -0.8632175922393799,
                                        0.7596142292022705,
                                        0.04254019260406494,
                                        0.9646952152252197,
                                        -0.4813741445541382,
                                        -0.547421932220459,
                                        0.4831819236278534,
                                        0.17692244052886964
                                    ]
                                },
                                {
                                    "list": [
                                        0.48590657114982607,
                                        -0.15104162693023683,
                                        -0.2638617753982544,
                                        0.4292726516723633,
                                        0.8852272033691406,
                                        -0.6981279850006104,
                                        0.6306158304214478,
                                        -0.6272470951080322,
                                        0.6540400981903076
                                    ]
                                },
                                {
                                    "list": [
                                        0.5998094081878662,
                                        -0.7800841331481934,
                                        0.7032260894775391,
                                        -0.1919182538986206,
                                        0.14940083026885987,
                                        0.7438948154449463,
                                        0.817572832107544,
                                        -0.9818309545516968,
                                        -0.7314850091934204
                                    ]
                                }
                            ]
                        },
                        {
                            "list": [
                                {
                                    "list": [
                                        0.1963965892791748,
                                        1.0
                                    ]
                                },
                                {
                                    "list": [
                                        0.5553402900695801,
                                        -0.032642245292663577
                                    ]
                                },
                                {
                                    "list": [
                                        -0.7085165977478027,
                                        -0.0923997163772583
                                    ]
                                },
                                {
                                    "list": [
                                        -0.7304635047912598,
                                        0.12193548679351807
                                    ]
                                },
                                {
                                    "list": [
                                        -0.9989414215087891,
                                        0.8788886070251465
                                    ]
                                },
                                {
                                    "list": [
                                        -0.3783961534500122,
                                        0.35082241892814639
                                    ]
                                },
                                {
                                    "list": [
                                        0.28494927287101748,
                                        0.09597039222717285
                                    ]
                                },
                                {
                                    "list": [
                                        -0.9405622482299805,
                                        -0.52260422706604
                                    ]
                                },
                                {
                                    "list": [
                                        0.27773210406303408,
                                        -0.9628376960754395
                                    ]
                                }
                            ]
                        }
                    ]
                },
                "Biases": {
                    "list": [
                        -0.11091840267181397,
                        0.20282518863677979,
                        0.7024221420288086
                    ]
                },
                "Fitness": 69450.0
            },
            {
                "InputLayer": {
                    "list": [
                        0.18885357677936555,
                        -1.0,
                        0.18198783695697785
                    ]
                },
                "HiddenLayers": {
                    "list": [
                        {
                            "list": [
                                -0.6545301079750061,
                                -0.00866884645074606,
                                0.5687218904495239,
                                -0.3087139129638672,
                                0.48094379901885989,
                                -0.4414536654949188,
                                -0.11914592981338501,
                                -0.6696787476539612,
                                0.36183732748031618
                            ]
                        },
                        {
                            "list": [
                                -0.5989458560943604,
                                0.9350647926330566,
                                -0.3475779891014099,
                                -0.40890970826148989,
                                -0.5693269968032837,
                                0.686937153339386,
                                -0.0873219221830368,
                                -0.6331550478935242,
                                0.32644355297088625
                            ]
                        }
                    ]
                },
                "OutputLayer": {
                    "list": [
                        0.98943692445755,
                        -0.19350476562976838
                    ]
                },
                "Weights": {
                    "list": [
                        {
                            "list": [
                                {
                                    "list": [
                                        0.9340176582336426,
                                        -0.26069700717926028,
                                        -0.12631309032440186,
                                        -0.5179343223571777,
                                        -0.5974271297454834,
                                        -0.0026930570602416994,
                                        0.3153207004070282,
                                        1.0,
                                        0.7379171848297119
                                    ]
                                },
                                {
                                    "list": [
                                        0.6926884651184082,
                                        -0.07965385913848877,
                                        -0.9623925685882568,
                                        0.10563123226165772,
                                        -0.6100105047225952,
                                        0.2994743585586548,
                                        0.1588960886001587,
                                        0.8168268203735352,
                                        -0.5022366046905518
                                    ]
                                },
                                {
                                    "list": [
                                        -0.8570307493209839,
                                        0.39469146728515627,
                                        -1.0,
                                        -0.026154637336730958,
                                        0.7579929828643799,
                                        -0.3469107151031494,
                                        0.49756333231925967,
                                        -0.3916131258010864,
                                        -0.8334517478942871
                                    ]
                                }
                            ]
                        },
                        {
                            "list": [
                                {
                                    "list": [
                                        0.5263469219207764,
                                        -0.6331729888916016,
                                        0.6137418746948242,
                                        0.5364600419998169,
                                        -0.3765488862991333,
                                        0.6165870428085327,
                                        -0.4250253438949585,
                                        0.9653511047363281,
                                        -0.5576386451721191
                                    ]
                                },
                                {
                                    "list": [
                                        -0.7248597145080566,
                                        -0.46871626377105715,
                                        0.5088620185852051,
                                        -0.9591057300567627,
                                        -0.506364107131958,
                                        -0.9650318622589111,
                                        -0.4882611036300659,
                                        -0.8407473564147949,
                                        0.7469291687011719
                                    ]
                                },
                                {
                                    "list": [
                                        -0.9329308271408081,
                                        0.8218190670013428,
                                        -1.0,
                                        0.742304801940918,
                                        -0.08437740802764893,
                                        0.7779221534729004,
                                        -1.0,
                                        0.10455977916717529,
                                        0.642683744430542
                                    ]
                                },
                                {
                                    "list": [
                                        -0.17291927337646485,
                                        0.026151537895202638,
                                        0.06339132785797119,
                                        0.22700083255767823,
                                        0.4264828860759735,
                                        -0.19500350952148438,
                                        -0.9195562601089478,
                                        0.5783450603485107,
                                        0.8849995136260986
                                    ]
                                },
                                {
                                    "list": [
                                        0.7300703525543213,
                                        0.6160938739776611,
                                        -0.3303283452987671,
                                        -0.8726189136505127,
                                        -0.11849105358123779,
                                        -0.3564189672470093,
                                        -0.9425275325775147,
                                        -0.005204558372497559,
                                        0.14092743396759034
                                    ]
                                },
                                {
                                    "list": [
                                        0.8264172077178955,
                                        -0.9028794765472412,
                                        -0.5597920417785645,
                                        -0.3064168691635132,
                                        0.4754049479961395,
                                        0.2055288553237915,
                                        -0.5133239030838013,
                                        0.4769878089427948,
                                        -0.7728581428527832
                                    ]
                                },
                                {
                                    "list": [
                                        -0.36228621006011965,
                                        -0.8632175922393799,
                                        0.7596142292022705,
                                        0.04254019260406494,
                                        0.9646952152252197,
                                        -0.4813741445541382,
                                        -0.547421932220459,
                                        0.4831819236278534,
                                        0.17692244052886964
                                    ]
                                },
                                {
                                    "list": [
                                        0.48590657114982607,
                                        -0.15104162693023683,
                                        -0.2638617753982544,
                                        0.4292726516723633,
                                        0.8852272033691406,
                                        -0.6981279850006104,
                                        0.6306158304214478,
                                        -0.6272470951080322,
                                        0.6540400981903076
                                    ]
                                },
                                {
                                    "list": [
                                        0.5998094081878662,
                                        -0.7800841331481934,
                                        0.7032260894775391,
                                        -0.1919182538986206,
                                        0.14940083026885987,
                                        0.7438948154449463,
                                        0.817572832107544,
                                        -0.9818309545516968,
                                        -0.7314850091934204
                                    ]
                                }
                            ]
                        },
                        {
                            "list": [
                                {
                                    "list": [
                                        0.1963965892791748,
                                        1.0
                                    ]
                                },
                                {
                                    "list": [
                                        0.5553402900695801,
                                        -0.032642245292663577
                                    ]
                                },
                                {
                                    "list": [
                                        -0.7085165977478027,
                                        -0.0923997163772583
                                    ]
                                },
                                {
                                    "list": [
                                        -0.7304635047912598,
                                        0.12193548679351807
                                    ]
                                },
                                {
                                    "list": [
                                        -0.9989414215087891,
                                        0.8788886070251465
                                    ]
                                },
                                {
                                    "list": [
                                        -0.3783961534500122,
                                        0.35082241892814639
                                    ]
                                },
                                {
                                    "list": [
                                        0.28494927287101748,
                                        0.09597039222717285
                                    ]
                                },
                                {
                                    "list": [
                                        -0.9405622482299805,
                                        -0.52260422706604
                                    ]
                                },
                                {
                                    "list": [
                                        0.27773210406303408,
                                        -0.9628376960754395
                                    ]
                                }
                            ]
                        }
                    ]
                },
                "Biases": {
                    "list": [
                        -0.11091840267181397,
                        0.20282518863677979,
                        0.7024221420288086
                    ]
                },
                "Fitness": 69400.0
            },
            {
                "InputLayer": {
                    "list": [
                        0.18823695182800294,
                        -1.0,
                        0.18160170316696168
                    ]
                },
                "HiddenLayers": {
                    "list": [
                        {
                            "list": [
                                -0.6546701192855835,
                                -0.008660494349896908,
                                0.5690357685089111,
                                -0.30841580033302309,
                                0.48100197315216067,
                                -0.4413444697856903,
                                -0.11952699720859528,
                                -0.669935405254364,
                                0.36172157526016238
                            ]
                        },
                        {
                            "list": [
                                -0.5991686582565308,
                                0.9351584315299988,
                                -0.3482460677623749,
                                -0.4088854193687439,
                                -0.5696093440055847,
                                0.6871324777603149,
                                -0.08800802379846573,
                                -0.6330320239067078,
                                0.3267321288585663
                            ]
                        }
                    ]
                },
                "OutputLayer": {
                    "list": [
                        0.989446222782135,
                        -0.19422554969787599
                    ]
                },
                "Weights": {
                    "list": [
                        {
                            "list": [
                                {
                                    "list": [
                                        0.9340176582336426,
                                        -0.26069700717926028,
                                        -0.12631309032440186,
                                        -0.5179343223571777,
                                        -0.5974271297454834,
                                        -0.0026930570602416994,
                                        0.3153207004070282,
                                        1.0,
                                        0.7379171848297119
                                    ]
                                },
                                {
                                    "list": [
                                        0.6926884651184082,
                                        -0.07965385913848877,
                                        -0.9623925685882568,
                                        0.10563123226165772,
                                        -0.6100105047225952,
                                        0.2994743585586548,
                                        0.1588960886001587,
                                        0.8168268203735352,
                                        -0.5022366046905518
                                    ]
                                },
                                {
                                    "list": [
                                        -0.8570307493209839,
                                        0.39469146728515627,
                                        -1.0,
                                        -0.026154637336730958,
                                        0.7579929828643799,
                                        -0.3469107151031494,
                                        0.49756333231925967,
                                        -0.3916131258010864,
                                        -0.8334517478942871
                                    ]
                                }
                            ]
                        },
                        {
                            "list": [
                                {
                                    "list": [
                                        0.5263469219207764,
                                        -0.6331729888916016,
                                        0.6137418746948242,
                                        0.5364600419998169,
                                        -0.3765488862991333,
                                        0.6165870428085327,
                                        -0.4250253438949585,
                                        0.9653511047363281,
                                        -0.5576386451721191
                                    ]
                                },
                                {
                                    "list": [
                                        -0.7248597145080566,
                                        -0.46871626377105715,
                                        0.5088620185852051,
                                        -0.9591057300567627,
                                        -0.506364107131958,
                                        -0.9650318622589111,
                                        -0.4882611036300659,
                                        -0.8407473564147949,
                                        0.7469291687011719
                                    ]
                                },
                                {
                                    "list": [
                                        -0.9329308271408081,
                                        0.8218190670013428,
                                        -1.0,
                                        0.742304801940918,
                                        -0.08437740802764893,
                                        0.7779221534729004,
                                        -1.0,
                                        0.10455977916717529,
                                        0.642683744430542
                                    ]
                                },
                                {
                                    "list": [
                                        -0.17291927337646485,
                                        0.026151537895202638,
                                        0.06339132785797119,
                                        0.22700083255767823,
                                        0.4264828860759735,
                                        -0.19500350952148438,
                                        -0.9195562601089478,
                                        0.5783450603485107,
                                        0.8849995136260986
                                    ]
                                },
                                {
                                    "list": [
                                        0.7300703525543213,
                                        0.6160938739776611,
                                        -0.3303283452987671,
                                        -0.8726189136505127,
                                        -0.11849105358123779,
                                        -0.3564189672470093,
                                        -0.9425275325775147,
                                        -0.005204558372497559,
                                        0.14092743396759034
                                    ]
                                },
                                {
                                    "list": [
                                        0.8264172077178955,
                                        -0.9028794765472412,
                                        -0.5597920417785645,
                                        -0.3064168691635132,
                                        0.4754049479961395,
                                        0.2055288553237915,
                                        -0.5133239030838013,
                                        0.4769878089427948,
                                        -0.7728581428527832
                                    ]
                                },
                                {
                                    "list": [
                                        -0.36228621006011965,
                                        -0.8632175922393799,
                                        0.7596142292022705,
                                        0.04254019260406494,
                                        0.9646952152252197,
                                        -0.4813741445541382,
                                        -0.547421932220459,
                                        0.4831819236278534,
                                        0.17692244052886964
                                    ]
                                },
                                {
                                    "list": [
                                        0.48590657114982607,
                                        -0.15104162693023683,
                                        -0.2638617753982544,
                                        0.4292726516723633,
                                        0.8852272033691406,
                                        -0.6981279850006104,
                                        0.6306158304214478,
                                        -0.6272470951080322,
                                        0.6540400981903076
                                    ]
                                },
                                {
                                    "list": [
                                        0.5998094081878662,
                                        -0.7800841331481934,
                                        0.7032260894775391,
                                        -0.1919182538986206,
                                        0.14940083026885987,
                                        0.7438948154449463,
                                        0.817572832107544,
                                        -0.9818309545516968,
                                        -0.7314850091934204
                                    ]
                                }
                            ]
                        },
                        {
                            "list": [
                                {
                                    "list": [
                                        0.1963965892791748,
                                        1.0
                                    ]
                                },
                                {
                                    "list": [
                                        0.5553402900695801,
                                        -0.032642245292663577
                                    ]
                                },
                                {
                                    "list": [
                                        -0.7085165977478027,
                                        -0.0923997163772583
                                    ]
                                },
                                {
                                    "list": [
                                        -0.7304635047912598,
                                        0.12193548679351807
                                    ]
                                },
                                {
                                    "list": [
                                        -0.9989414215087891,
                                        0.8788886070251465
                                    ]
                                },
                                {
                                    "list": [
                                        -0.3783961534500122,
                                        0.35082241892814639
                                    ]
                                },
                                {
                                    "list": [
                                        0.28494927287101748,
                                        0.09597039222717285
                                    ]
                                },
                                {
                                    "list": [
                                        -0.9405622482299805,
                                        -0.52260422706604
                                    ]
                                },
                                {
                                    "list": [
                                        0.27773210406303408,
                                        -0.9628376960754395
                                    ]
                                }
                            ]
                        }
                    ]
                },
                "Biases": {
                    "list": [
                        -0.11091840267181397,
                        0.20282518863677979,
                        0.7024221420288086
                    ]
                },
                "Fitness": 68390.0
            },
            {
                "InputLayer": {
                    "list": [
                        0.15419134497642518,
                        1.0,
                        0.17132239043712617
                    ]
                },
                "HiddenLayers": {
                    "list": [
                        {
                            "list": [
                                0.5219084024429321,
                                -0.16171766817569734,
                                -0.8521931767463684,
                                -0.08938980102539063,
                                -0.5935866236686707,
                                0.1280011236667633,
                                0.17986303567886353,
                                0.6601095199584961,
                                -0.5663708448410034
                            ]
                        },
                        {
                            "list": [
                                0.7588697075843811,
                                -0.7813948392868042,
                                0.7513132095336914,
                                0.6980577707290649,
                                0.7289122343063355,
                                -0.6016236543655396,
                                0.8723633289337158,
                                0.7594397068023682,
                                -0.1396131068468094
                            ]
                        }
                    ]
                },
                "OutputLayer": {
                    "list": [
                        -0.9260169863700867,
                        0.9417526721954346
                    ]
                },
                "Weights": {
                    "list": [
                        {
                            "list": [
                                {
                                    "list": [
                                        0.9340176582336426,
                                        -0.26069700717926028,
                                        -0.12631309032440186,
                                        -0.5179343223571777,
                                        -0.5974271297454834,
                                        -0.0026930570602416994,
                                        0.3153207004070282,
                                        1.0,
                                        0.7379171848297119
                                    ]
                                },
                                {
                                    "list": [
                                        0.6926884651184082,
                                        -0.07965385913848877,
                                        -0.9623925685882568,
                                        0.10563123226165772,
                                        -0.6100105047225952,
                                        0.2994743585586548,
                                        0.1588960886001587,
                                        0.8168268203735352,
                                        -0.5022366046905518
                                    ]
                                },
                                {
                                    "list": [
                                        -0.8570307493209839,
                                        0.39469146728515627,
                                        -1.0,
                                        -0.026154637336730958,
                                        0.7579929828643799,
                                        -0.3469107151031494,
                                        0.49756333231925967,
                                        -0.3916131258010864,
                                        -0.8334517478942871
                                    ]
                                }
                            ]
                        },
                        {
                            "list": [
                                {
                                    "list": [
                                        0.5263469219207764,
                                        -0.6331729888916016,
                                        0.6137418746948242,
                                        0.5364600419998169,
                                        -0.3765488862991333,
                                        0.6165870428085327,
                                        -0.4250253438949585,
                                        0.9653511047363281,
                                        -0.5576386451721191
                                    ]
                                },
                                {
                                    "list": [
                                        -0.7248597145080566,
                                        -0.46871626377105715,
                                        0.5088620185852051,
                                        -0.9591057300567627,
                                        -0.506364107131958,
                                        -0.9650318622589111,
                                        -0.4882611036300659,
                                        -0.8407473564147949,
                                        0.7469291687011719
                                    ]
                                },
                                {
                                    "list": [
                                        -0.9329308271408081,
                                        0.8218190670013428,
                                        -1.0,
                                        0.742304801940918,
                                        -0.08437740802764893,
                                        0.7779221534729004,
                                        -1.0,
                                        0.10455977916717529,
                                        0.642683744430542
                                    ]
                                },
                                {
                                    "list": [
                                        -0.17291927337646485,
                                        0.026151537895202638,
                                        0.06339132785797119,
                                        0.22700083255767823,
                                        0.4264828860759735,
                                        -0.19500350952148438,
                                        -0.9195562601089478,
                                        0.5783450603485107,
                                        0.8849995136260986
                                    ]
                                },
                                {
                                    "list": [
                                        0.7300703525543213,
                                        0.6160938739776611,
                                        -0.3303283452987671,
                                        -0.8726189136505127,
                                        -0.11849105358123779,
                                        -0.3564189672470093,
                                        -0.9425275325775147,
                                        -0.005204558372497559,
                                        0.14092743396759034
                                    ]
                                },
                                {
                                    "list": [
                                        0.8264172077178955,
                                        -0.9028794765472412,
                                        -0.5597920417785645,
                                        -0.3064168691635132,
                                        0.4754049479961395,
                                        0.2055288553237915,
                                        -0.5133239030838013,
                                        0.4769878089427948,
                                        -0.7728581428527832
                                    ]
                                },
                                {
                                    "list": [
                                        -0.36228621006011965,
                                        -0.8632175922393799,
                                        0.7596142292022705,
                                        0.04254019260406494,
                                        0.9646952152252197,
                                        -0.4813741445541382,
                                        -0.547421932220459,
                                        0.4831819236278534,
                                        0.17692244052886964
                                    ]
                                },
                                {
                                    "list": [
                                        0.48590657114982607,
                                        -0.15104162693023683,
                                        -0.2638617753982544,
                                        0.4292726516723633,
                                        0.8852272033691406,
                                        -0.6981279850006104,
                                        0.6306158304214478,
                                        -0.6272470951080322,
                                        0.6540400981903076
                                    ]
                                },
                                {
                                    "list": [
                                        0.5998094081878662,
                                        -0.7800841331481934,
                                        0.7032260894775391,
                                        -0.1919182538986206,
                                        0.14940083026885987,
                                        0.7438948154449463,
                                        0.817572832107544,
                                        -0.9818309545516968,
                                        -0.7314850091934204
                                    ]
                                }
                            ]
                        },
                        {
                            "list": [
                                {
                                    "list": [
                                        0.1963965892791748,
                                        1.0
                                    ]
                                },
                                {
                                    "list": [
                                        0.5553402900695801,
                                        -0.032642245292663577
                                    ]
                                },
                                {
                                    "list": [
                                        -0.7085165977478027,
                                        -0.0923997163772583
                                    ]
                                },
                                {
                                    "list": [
                                        -0.7304635047912598,
                                        0.12193548679351807
                                    ]
                                },
                                {
                                    "list": [
                                        -0.9989414215087891,
                                        0.8788886070251465
                                    ]
                                },
                                {
                                    "list": [
                                        -0.3783961534500122,
                                        0.35082241892814639
                                    ]
                                },
                                {
                                    "list": [
                                        0.28494927287101748,
                                        0.09597039222717285
                                    ]
                                },
                                {
                                    "list": [
                                        -0.9405622482299805,
                                        -0.52260422706604
                                    ]
                                },
                                {
                                    "list": [
                                        0.27773210406303408,
                                        -0.9628376960754395
                                    ]
                                }
                            ]
                        }
                    ]
                },
                "Biases": {
                    "list": [
                        -0.11091840267181397,
                        0.20282518863677979,
                        0.7024221420288086
                    ]
                },
                "Fitness": 61180.0
            },
            {
                "InputLayer": {
                    "list": [
                        0.14845439791679383,
                        1.0,
                        0.16820400953292848
                    ]
                },
                "HiddenLayers": {
                    "list": [
                        {
                            "list": [
                                0.519951343536377,
                                -0.1614597737789154,
                                -0.851137638092041,
                                -0.08636044710874558,
                                -0.5928972959518433,
                                0.12908023595809937,
                                0.17660921812057496,
                                0.6575539112091065,
                                -0.5674799084663391
                            ]
                        },
                        {
                            "list": [
                                0.7579951286315918,
                                -0.7792142629623413,
                                0.7489770650863648,
                                0.6971435546875,
                                0.7273494601249695,
                                -0.6008086204528809,
                                0.8711447715759277,
                                0.760026216506958,
                                -0.13718988001346589
                            ]
                        }
                    ]
                },
                "OutputLayer": {
                    "list": [
                        -0.9253889918327332,
                        0.9412204027175903
                    ]
                },
                "Weights": {
                    "list": [
                        {
                            "list": [
                                {
                                    "list": [
                                        0.9340176582336426,
                                        -0.26069700717926028,
                                        -0.12631309032440186,
                                        -0.5179343223571777,
                                        -0.5974271297454834,
                                        -0.0026930570602416994,
                                        0.3153207004070282,
                                        1.0,
                                        0.7379171848297119
                                    ]
                                },
                                {
                                    "list": [
                                        0.6926884651184082,
                                        -0.07965385913848877,
                                        -0.9623925685882568,
                                        0.10563123226165772,
                                        -0.6100105047225952,
                                        0.2994743585586548,
                                        0.1588960886001587,
                                        0.8168268203735352,
                                        -0.5022366046905518
                                    ]
                                },
                                {
                                    "list": [
                                        -0.8570307493209839,
                                        0.39469146728515627,
                                        -1.0,
                                        -0.026154637336730958,
                                        0.7579929828643799,
                                        -0.3469107151031494,
                                        0.49756333231925967,
                                        -0.3916131258010864,
                                        -0.8334517478942871
                                    ]
                                }
                            ]
                        },
                        {
                            "list": [
                                {
                                    "list": [
                                        0.5263469219207764,
                                        -0.6331729888916016,
                                        0.6137418746948242,
                                        0.5364600419998169,
                                        -0.3765488862991333,
                                        0.6165870428085327,
                                        -0.4250253438949585,
                                        0.9653511047363281,
                                        -0.5576386451721191
                                    ]
                                },
                                {
                                    "list": [
                                        -0.7248597145080566,
                                        -0.46871626377105715,
                                        0.5088620185852051,
                                        -0.9591057300567627,
                                        -0.506364107131958,
                                        -0.9650318622589111,
                                        -0.4882611036300659,
                                        -0.8407473564147949,
                                        0.7469291687011719
                                    ]
                                },
                                {
                                    "list": [
                                        -0.9329308271408081,
                                        0.8218190670013428,
                                        -1.0,
                                        0.742304801940918,
                                        -0.08437740802764893,
                                        0.7779221534729004,
                                        -1.0,
                                        0.10455977916717529,
                                        0.642683744430542
                                    ]
                                },
                                {
                                    "list": [
                                        -0.17291927337646485,
                                        0.026151537895202638,
                                        0.06339132785797119,
                                        0.22700083255767823,
                                        0.4264828860759735,
                                        -0.19500350952148438,
                                        -0.9195562601089478,
                                        0.5783450603485107,
                                        0.8849995136260986
                                    ]
                                },
                                {
                                    "list": [
                                        0.7300703525543213,
                                        0.6160938739776611,
                                        -0.3303283452987671,
                                        -0.8726189136505127,
                                        -0.11849105358123779,
                                        -0.3564189672470093,
                                        -0.9425275325775147,
                                        -0.005204558372497559,
                                        0.14092743396759034
                                    ]
                                },
                                {
                                    "list": [
                                        0.8264172077178955,
                                        -0.9028794765472412,
                                        -0.5597920417785645,
                                        -0.3064168691635132,
                                        0.4754049479961395,
                                        0.2055288553237915,
                                        -0.5133239030838013,
                                        0.4769878089427948,
                                        -0.7728581428527832
                                    ]
                                },
                                {
                                    "list": [
                                        -0.36228621006011965,
                                        -0.8632175922393799,
                                        0.7596142292022705,
                                        0.04254019260406494,
                                        0.9646952152252197,
                                        -0.4813741445541382,
                                        -0.547421932220459,
                                        0.4831819236278534,
                                        0.17692244052886964
                                    ]
                                },
                                {
                                    "list": [
                                        0.48590657114982607,
                                        -0.15104162693023683,
                                        -0.2638617753982544,
                                        0.4292726516723633,
                                        0.8852272033691406,
                                        -0.6981279850006104,
                                        0.6306158304214478,
                                        -0.6272470951080322,
                                        0.6540400981903076
                                    ]
                                },
                                {
                                    "list": [
                                        0.5998094081878662,
                                        -0.7800841331481934,
                                        0.7032260894775391,
                                        -0.1919182538986206,
                                        0.14940083026885987,
                                        0.7438948154449463,
                                        0.817572832107544,
                                        -0.9818309545516968,
                                        -0.7314850091934204
                                    ]
                                }
                            ]
                        },
                        {
                            "list": [
                                {
                                    "list": [
                                        0.1963965892791748,
                                        1.0
                                    ]
                                },
                                {
                                    "list": [
                                        0.5553402900695801,
                                        -0.032642245292663577
                                    ]
                                },
                                {
                                    "list": [
                                        -0.7085165977478027,
                                        -0.0923997163772583
                                    ]
                                },
                                {
                                    "list": [
                                        -0.7304635047912598,
                                        0.12193548679351807
                                    ]
                                },
                                {
                                    "list": [
                                        -0.9989414215087891,
                                        0.8788886070251465
                                    ]
                                },
                                {
                                    "list": [
                                        -0.3783961534500122,
                                        0.35082241892814639
                                    ]
                                },
                                {
                                    "list": [
                                        0.28494927287101748,
                                        0.09597039222717285
                                    ]
                                },
                                {
                                    "list": [
                                        -0.9405622482299805,
                                        -0.52260422706604
                                    ]
                                },
                                {
                                    "list": [
                                        0.27773210406303408,
                                        -0.9628376960754395
                                    ]
                                }
                            ]
                        }
                    ]
                },
                "Biases": {
                    "list": [
                        -0.11091840267181397,
                        0.20282518863677979,
                        0.7024221420288086
                    ]
                },
                "Fitness": 60080.0
            },
            {
                "InputLayer": {
                    "list": [
                        0.1713782548904419,
                        -1.0,
                        0.1749759465456009
                    ]
                },
                "HiddenLayers": {
                    "list": [
                        {
                            "list": [
                                -0.6603851318359375,
                                -0.006880718749016523,
                                0.574926495552063,
                                -0.3003358542919159,
                                0.48487383127212527,
                                -0.4394551217556,
                                -0.12800762057304383,
                                -0.6777225136756897,
                                0.35569366812705996
                            ]
                        },
                        {
                            "list": [
                                -0.6062552332878113,
                                0.9378286004066467,
                                -0.364780992269516,
                                -0.4130992889404297,
                                -0.5772179365158081,
                                0.6880858540534973,
                                -0.1093733012676239,
                                -0.6295061707496643,
                                0.3377225399017334
                            ]
                        }
                    ]
                },
                "OutputLayer": {
                    "list": [
                        0.9897722601890564,
                        -0.22005321085453034
                    ]
                },
                "Weights": {
                    "list": [
                        {
                            "list": [
                                {
                                    "list": [
                                        0.9340176582336426,
                                        -0.26069700717926028,
                                        -0.12631309032440186,
                                        -0.5179343223571777,
                                        -0.5974271297454834,
                                        -0.0026930570602416994,
                                        0.3153207004070282,
                                        1.0,
                                        0.7379171848297119
                                    ]
                                },
                                {
                                    "list": [
                                        0.6926884651184082,
                                        -0.07965385913848877,
                                        -0.9623925685882568,
                                        0.10563123226165772,
                                        -0.6100105047225952,
                                        0.2994743585586548,
                                        0.1588960886001587,
                                        0.8168268203735352,
                                        -0.5022366046905518
                                    ]
                                },
                                {
                                    "list": [
                                        -0.8570307493209839,
                                        0.39469146728515627,
                                        -1.0,
                                        -0.026154637336730958,
                                        0.7579929828643799,
                                        -0.3469107151031494,
                                        0.49756333231925967,
                                        -0.3916131258010864,
                                        -0.8334517478942871
                                    ]
                                }
                            ]
                        },
                        {
                            "list": [
                                {
                                    "list": [
                                        0.5263469219207764,
                                        -0.6331729888916016,
                                        0.6137418746948242,
                                        0.5364600419998169,
                                        -0.3765488862991333,
                                        0.6165870428085327,
                                        -0.4250253438949585,
                                        0.9653511047363281,
                                        -0.5576386451721191
                                    ]
                                },
                                {
                                    "list": [
                                        -0.7248597145080566,
                                        -0.46871626377105715,
                                        0.5088620185852051,
                                        -0.9591057300567627,
                                        -0.506364107131958,
                                        -0.9650318622589111,
                                        -0.4882611036300659,
                                        -0.8407473564147949,
                                        0.7469291687011719
                                    ]
                                },
                                {
                                    "list": [
                                        -0.9329308271408081,
                                        0.8218190670013428,
                                        -1.0,
                                        0.742304801940918,
                                        -0.08437740802764893,
                                        0.7779221534729004,
                                        -1.0,
                                        0.10455977916717529,
                                        0.642683744430542
                                    ]
                                },
                                {
                                    "list": [
                                        -0.17291927337646485,
                                        0.026151537895202638,
                                        0.06339132785797119,
                                        0.22700083255767823,
                                        0.4264828860759735,
                                        -0.19500350952148438,
                                        -0.9195562601089478,
                                        0.5783450603485107,
                                        0.8849995136260986
                                    ]
                                },
                                {
                                    "list": [
                                        0.7300703525543213,
                                        0.6160938739776611,
                                        -0.3303283452987671,
                                        -0.8726189136505127,
                                        -0.11849105358123779,
                                        -0.3564189672470093,
