{
    "list": [
        {
            "InputLayer": {
                "list": [
                    0.018201200291514398,
                    -1.0,
                    0.1667616218328476
                ]
            },
            "HiddenLayers": {
                "list": [
                    {
                        "list": [
                            -0.5959762930870056,
                            -0.22498761117458344,
                            -0.09486518055200577,
                            0.1860581487417221,
                            -0.8071901202201843,
                            0.36036717891693118,
                            -0.42731642723083498,
                            0.130751371383667,
                            -0.3617020845413208
                        ]
                    },
                    {
                        "list": [
                            -0.9620020985603333,
                            0.18077361583709718,
                            -0.26105034351348879,
                            -0.45839715003967287,
                            0.27946072816848757,
                            -0.21246600151062013,
                            -0.23924420773983003,
                            -0.5152280926704407,
                            -0.12345489114522934
                        ]
                    }
                ]
            },
            "OutputLayer": {
                "list": [
                    -0.7255691289901733,
                    0.6851399540901184
                ]
            },
            "Weights": {
                "list": [
                    {
                        "list": [
                            {
                                "list": [
                                    -0.7205808162689209,
                                    0.31114980578422549,
                                    -0.6665916442871094,
                                    -0.5458192825317383,
                                    -0.9775536060333252,
                                    -0.6311004161834717,
                                    0.866016149520874,
                                    0.5550143718719482,
                                    0.5245451927185059
                                ]
                            },
                            {
                                "list": [
                                    0.3526401221752167,
                                    0.02466404438018799,
                                    -0.33589351177215578,
                                    -0.667555570602417,
                                    0.8926923274993897,
                                    -0.7261061668395996,
                                    0.21742427349090577,
                                    -0.3088792562484741,
                                    0.21250522136688233
                                ]
                            },
                            {
                                "list": [
                                    -0.03206336498260498,
                                    0.6349091529846191,
                                    -0.6184325218200684,
                                    -0.9210090637207031,
                                    0.6437592506408691,
                                    -0.12910830974578858,
                                    0.36479589343070986,
                                    0.7693872451782227,
                                    0.8388998508453369
                                ]
                            }
                        ]
                    },
                    {
                        "list": [
                            {
                                "list": [
                                    0.4418153464794159,
                                    0.23431050777435304,
                                    -0.45942962169647219,
                                    0.16822898387908936,
                                    -0.7519378662109375,
                                    0.047149658203125,
                                    0.19152843952178956,
                                    0.005372166633605957,
                                    0.08181273937225342
                                ]
                            },
                            {
                                "list": [
                                    0.263653963804245,
                                    0.793657660484314,
                                    0.7825016975402832,
                                    0.9269847869873047,
                                    -0.6004819869995117,
                                    -0.13451635837554933,
                                    0.10455036163330078,
                                    0.5339932441711426,
                                    -0.20124828815460206
                                ]
                            },
                            {
                                "list": [
                                    -0.9251654148101807,
                                    -0.7404851913452148,
                                    0.9095242023468018,
                                    -0.5064074993133545,
                                    0.8471653461456299,
                                    -0.9090228080749512,
                                    0.32071420550346377,
                                    0.07638311386108399,
                                    -0.007415056228637695
                                ]
                            },
                            {
                                "list": [
                                    -0.7975066900253296,
                                    0.7154597043991089,
                                    -0.2900768518447876,
                                    -0.11504113674163819,
                                    -0.19862210750579835,
                                    0.42459678649902346,
                                    0.4201917350292206,
                                    0.1203838586807251,
                                    -0.9195828437805176
                                ]
                            },
                            {
                                "list": [
                                    0.9345850944519043,
                                    -0.9678568840026856,
                                    -0.22332775592803956,
                                    0.4112037420272827,
                                    0.43002983927726748,
                                    -0.08588829636573792,
                                    0.7768468856811523,
                                    0.04597628116607666,
                                    0.20549941062927247
                                ]
                            },
                            {
                                "list": [
                                    -0.25153684616088869,
                                    0.4100775420665741,
                                    -0.4979327917098999,
                                    0.7448725700378418,
                                    0.14807403087615968,
                                    0.004903435707092285,
                                    -0.3412536382675171,
                                    0.13015615940093995,
                                    0.02308213710784912
                                ]
                            },
                            {
                                "list": [
                                    0.9501888751983643,
                                    0.9015243053436279,
                                    -0.07367217540740967,
                                    0.20771941542625428,
                                    -0.08344733715057373,
                                    0.8587372303009033,
                                    -0.65775465965271,
                                    0.7886061668395996,
                                    -0.8083286285400391
                                ]
                            },
                            {
                                "list": [
                                    -0.6394140720367432,
                                    0.9689342975616455,
                                    0.4598183333873749,
                                    -0.6671350002288818,
                                    1.0,
                                    0.8235695362091065,
                                    0.8412595987319946,
                                    -1.0,
                                    -0.2104586362838745
                                ]
                            },
                            {
                                "list": [
                                    0.6158666610717773,
                                    0.9439601898193359,
                                    0.790020227432251,
                                    -0.15981519222259522,
                                    0.05544865131378174,
                                    0.4521908462047577,
                                    -0.653394341468811,
                                    -0.07666981220245362,
                                    0.21877726912498475
                                ]
                            }
                        ]
                    },
                    {
                        "list": [
                            {
                                "list": [
                                    0.604374885559082,
                                    0.02370738983154297
                                ]
                            },
                            {
                                "list": [
                                    -1.0,
                                    0.8719322681427002
                                ]
                            },
                            {
                                "list": [
                                    -0.08598315715789795,
                                    -0.7199888229370117
                                ]
                            },
                            {
                                "list": [
                                    0.6282074451446533,
                                    -1.0
                                ]
                            },
                            {
                                "list": [
                                    0.16162168979644776,
                                    -0.04148268699645996
                                ]
                            },
                            {
                                "list": [
                                    0.5180120468139648,
                                    -0.512155294418335
                                ]
                            },
                            {
                                "list": [
                                    0.6543734073638916,
                                    0.35561272501945498
                                ]
                            },
                            {
                                "list": [
                                    0.22721228003501893,
                                    0.8493261337280273
                                ]
                            },
                            {
                                "list": [
                                    0.22394263744354249,
                                    -0.0685509443283081
                                ]
                            }
                        ]
                    }
                ]
            },
            "Biases": {
                "list": [
                    -0.31578123569488528,
                    -0.031418442726135257,
                    0.4745607078075409
                ]
            },
            "Fitness": 189780.0
        },
        {
            "InputLayer": {
                "list": [
                    0.17305848002433778,
                    -1.0,
                    0.1658993810415268
                ]
            },
            "HiddenLayers": {
                "list": [
                    {
                        "list": [
                            -0.6631655693054199,
                            -0.17930753529071809,
                            -0.1953030377626419,
                            0.10414189845323563,
                            -0.8540273904800415,
                            0.2726168930530548,
                            -0.3120497167110443,
                            0.21345530450344087,
                            -0.2897895574569702
                        ]
                    },
                    {
                        "list": [
                            -0.9213094115257263,
                            0.34316667914390566,
                            -0.12701764702796937,
                            -0.6334043741226196,
                            0.18127042055130006,
                            0.641720175743103,
                            0.0003498569130897522,
                            -0.5705320239067078,
                            0.48931634426116946
                        ]
                    }
                ]
            },
            "OutputLayer": {
                "list": [
                    -0.2002662718296051,
                    0.8698213696479797
                ]
            },
            "Weights": {
                "list": [
                    {
                        "list": [
                            {
                                "list": [
                                    -0.7205808162689209,
                                    0.31114980578422549,
                                    -0.6665916442871094,
                                    -0.5458192825317383,
                                    -0.9775536060333252,
                                    -0.6311004161834717,
                                    0.866016149520874,
                                    0.5550143718719482,
                                    0.5245451927185059
                                ]
                            },
                            {
                                "list": [
                                    0.3526401221752167,
                                    0.02466404438018799,
                                    -0.33589351177215578,
                                    -0.667555570602417,
                                    0.8926923274993897,
                                    -0.7261061668395996,
                                    0.21742427349090577,
                                    -0.3088792562484741,
                                    0.21250522136688233
                                ]
                            },
                            {
                                "list": [
                                    -0.03206336498260498,
                                    0.6349091529846191,
                                    -0.6184325218200684,
                                    -0.9210090637207031,
                                    0.6437592506408691,
                                    -0.12910830974578858,
                                    0.36479589343070986,
                                    0.7693872451782227,
                                    0.8388998508453369
                                ]
                            }
                        ]
                    },
                    {
                        "list": [
                            {
                                "list": [
                                    0.4418153464794159,
                                    0.23431050777435304,
                                    -0.45942962169647219,
                                    0.16822898387908936,
                                    -0.7519378662109375,
                                    -0.691821813583374,
                                    -0.40789973735809328,
                                    0.005372166633605957,
                                    0.08181273937225342
                                ]
                            },
                            {
                                "list": [
                                    0.263653963804245,
                                    0.9839034080505371,
                                    0.7825016975402832,
                                    0.9269847869873047,
                                    -0.6004819869995117,
                                    -0.13451635837554933,
                                    -0.6226861476898193,
                                    0.5339932441711426,
                                    -0.20124828815460206
                                ]
                            },
                            {
                                "list": [
                                    -0.9251654148101807,
                                    -0.7404851913452148,
                                    0.9095242023468018,
                                    -0.5064074993133545,
                                    0.8471653461456299,
                                    -0.9090228080749512,
                                    0.32071420550346377,
                                    0.9223833084106445,
                                    0.16804707050323487
                                ]
                            },
                            {
                                "list": [
                                    -0.990541934967041,
                                    -0.13481056690216065,
                                    -0.2900768518447876,
                                    -0.11504113674163819,
                                    -0.19862210750579835,
                                    0.18453681468963624,
                                    0.4201917350292206,
                                    0.1203838586807251,
                                    -0.9195828437805176
                                ]
                            },
                            {
                                "list": [
                                    0.9345850944519043,
                                    -0.9678568840026856,
                                    -0.22332775592803956,
                                    0.5836005210876465,
                                    0.43002983927726748,
                                    -0.39193451404571535,
                                    0.7768468856811523,
                                    0.04597628116607666,
                                    -0.5503427982330322
                                ]
                            },
                            {
                                "list": [
                                    -0.4043840169906616,
                                    0.4100775420665741,
                                    -0.4979327917098999,
                                    0.7448725700378418,
                                    0.14807403087615968,
                                    0.004903435707092285,
                                    -0.3412536382675171,
                                    0.13015615940093995,
                                    0.02308213710784912
                                ]
                            },
                            {
                                "list": [
                                    0.9501888751983643,
                                    0.9015243053436279,
                                    -0.07367217540740967,
                                    0.4273976981639862,
                                    -0.08344733715057373,
                                    0.8587372303009033,
                                    -0.65775465965271,
                                    0.7886061668395996,
                                    -0.8083286285400391
                                ]
                            },
                            {
                                "list": [
                                    -0.6394140720367432,
                                    0.9689342975616455,
                                    0.4598183333873749,
                                    -0.6671350002288818,
                                    0.5220835208892822,
                                    0.8235695362091065,
                                    -0.10601580142974854,
                                    -0.573073148727417,
                                    -0.2104586362838745
                                ]
                            },
                            {
                                "list": [
                                    -0.13090884685516358,
                                    0.9439601898193359,
                                    0.790020227432251,
                                    -0.15981519222259522,
                                    0.05544865131378174,
                                    0.4521908462047577,
                                    -0.836280345916748,
                                    -0.07666981220245362,
                                    -0.1025611162185669
                                ]
                            }
                        ]
                    },
                    {
                        "list": [
                            {
                                "list": [
                                    0.604374885559082,
                                    -0.9347705841064453
                                ]
                            },
                            {
                                "list": [
                                    -0.11540210247039795,
                                    0.8719322681427002
                                ]
                            },
                            {
                                "list": [
                                    -0.08598315715789795,
                                    -0.7199888229370117
                                ]
                            },
                            {
                                "list": [
                                    0.6282074451446533,
                                    -1.0
                                ]
                            },
                            {
                                "list": [
                                    -0.03728604316711426,
                                    -0.9977102279663086
                                ]
                            },
                            {
                                "list": [
                                    0.5180120468139648,
                                    -0.512155294418335
                                ]
                            },
                            {
                                "list": [
                                    0.6543734073638916,
                                    0.35561272501945498
                                ]
                            },
                            {
                                "list": [
                                    0.22721228003501893,
                                    0.8493261337280273
                                ]
                            },
                            {
                                "list": [
                                    0.22394263744354249,
                                    -0.0685509443283081
                                ]
                            }
                        ]
                    }
                ]
            },
            "Biases": {
                "list": [
                    -0.31578123569488528,
                    -0.031418442726135257,
                    0.4745607078075409
                ]
            },
            "Fitness": 90960.0
        },
        {
            "InputLayer": {
                "list": [
                    0.19347386062145234,
                    -1.0,
                    0.14935189485549928
                ]
            },
            "HiddenLayers": {
                "list": [
                    {
                        "list": [
                            -0.6710350513458252,
                            -0.1833248734474182,
                            -0.1985473781824112,
                            0.10819296538829804,
                            -0.862097978591919,
                            0.2626390755176544,
                            -0.3015020787715912,
                            0.21211813390254975,
                            -0.29269328713417055
                        ]
                    },
                    {
                        "list": [
                            -0.9209757447242737,
                            0.34779131412506106,
                            -0.12757770717144013,
                            -0.6394426226615906,
                            0.1794218271970749,
                            0.6530117392539978,
                            -0.0005092154606245458,
                            -0.56854248046875,
                            0.4833296239376068
                        ]
                    }
                ]
            },
            "OutputLayer": {
                "list": [
                    -0.19989177584648133,
                    0.8717594146728516
                ]
            },
            "Weights": {
                "list": [
                    {
                        "list": [
                            {
                                "list": [
                                    -0.7205808162689209,
                                    0.31114980578422549,
                                    -0.6665916442871094,
                                    -0.5458192825317383,
                                    -0.9775536060333252,
                                    -0.6311004161834717,
                                    0.866016149520874,
                                    0.5550143718719482,
                                    0.5245451927185059
                                ]
                            },
                            {
                                "list": [
                                    0.3526401221752167,
                                    0.02466404438018799,
                                    -0.33589351177215578,
                                    -0.667555570602417,
                                    0.8926923274993897,
                                    -0.7261061668395996,
                                    0.21742427349090577,
                                    -0.3088792562484741,
                                    0.21250522136688233
                                ]
                            },
                            {
                                "list": [
                                    -0.03206336498260498,
                                    0.6349091529846191,
                                    -0.6184325218200684,
                                    -0.9210090637207031,
                                    0.6437592506408691,
                                    -0.12910830974578858,
                                    0.36479589343070986,
                                    0.7693872451782227,
                                    0.8388998508453369
                                ]
                            }
                        ]
                    },
                    {
                        "list": [
                            {
                                "list": [
                                    0.4418153464794159,
                                    0.23431050777435304,
                                    -0.45942962169647219,
                                    0.16822898387908936,
                                    -0.7519378662109375,
                                    -0.691821813583374,
                                    -0.40789973735809328,
                                    0.005372166633605957,
                                    0.08181273937225342
                                ]
                            },
                            {
                                "list": [
                                    0.263653963804245,
                                    0.9839034080505371,
                                    0.7825016975402832,
                                    0.9269847869873047,
                                    -0.6004819869995117,
                                    -0.13451635837554933,
                                    -0.6226861476898193,
                                    0.5339932441711426,
                                    -0.20124828815460206
                                ]
                            },
                            {
                                "list": [
                                    -0.9251654148101807,
                                    -0.7404851913452148,
                                    0.9095242023468018,
                                    -0.5064074993133545,
                                    0.8471653461456299,
                                    -0.9090228080749512,
                                    0.32071420550346377,
                                    0.9223833084106445,
                                    0.16804707050323487
                                ]
                            },
                            {
                                "list": [
                                    -0.990541934967041,
                                    -0.13481056690216065,
                                    -0.2900768518447876,
                                    -0.11504113674163819,
                                    -0.19862210750579835,
                                    0.18453681468963624,
                                    0.4201917350292206,
                                    0.1203838586807251,
                                    -0.9195828437805176
                                ]
                            },
                            {
                                "list": [
                                    0.9345850944519043,
                                    -0.9678568840026856,
                                    -0.22332775592803956,
                                    0.5836005210876465,
                                    0.43002983927726748,
                                    -0.39193451404571535,
                                    0.7768468856811523,
                                    0.04597628116607666,
                                    -0.5503427982330322
                                ]
                            },
                            {
                                "list": [
                                    -0.4043840169906616,
                                    0.4100775420665741,
                                    -0.4979327917098999,
                                    0.7448725700378418,
                                    0.14807403087615968,
                                    0.004903435707092285,
                                    -0.3412536382675171,
                                    0.13015615940093995,
                                    0.02308213710784912
                                ]
                            },
                            {
                                "list": [
                                    0.9501888751983643,
                                    0.9015243053436279,
                                    -0.07367217540740967,
                                    0.4273976981639862,
                                    -0.08344733715057373,
                                    0.8587372303009033,
                                    -0.65775465965271,
                                    0.7886061668395996,
                                    -0.8083286285400391
                                ]
                            },
                            {
                                "list": [
                                    -0.6394140720367432,
                                    0.9689342975616455,
                                    0.4598183333873749,
                                    -0.6671350002288818,
                                    0.5220835208892822,
                                    0.8235695362091065,
                                    -0.10601580142974854,
                                    -0.573073148727417,
                                    -0.2104586362838745
                                ]
                            },
                            {
                                "list": [
                                    -0.13090884685516358,
                                    0.9439601898193359,
                                    0.790020227432251,
                                    -0.15981519222259522,
                                    0.05544865131378174,
                                    0.4521908462047577,
                                    -0.836280345916748,
                                    -0.07666981220245362,
                                    -0.1025611162185669
                                ]
                            }
                        ]
                    },
                    {
                        "list": [
                            {
                                "list": [
                                    0.604374885559082,
                                    -0.9347705841064453
                                ]
                            },
                            {
                                "list": [
                                    -0.11540210247039795,
                                    0.8719322681427002
                                ]
                            },
                            {
                                "list": [
                                    -0.08598315715789795,
                                    -0.7199888229370117
                                ]
                            },
                            {
                                "list": [
                                    0.6282074451446533,
                                    -1.0
                                ]
                            },
                            {
                                "list": [
                                    -0.03728604316711426,
                                    -0.9977102279663086
                                ]
                            },
                            {
                                "list": [
                                    0.5180120468139648,
                                    -0.512155294418335
                                ]
                            },
                            {
                                "list": [
                                    0.6543734073638916,
                                    0.35561272501945498
                                ]
                            },
                            {
                                "list": [
                                    0.22721228003501893,
                                    0.8493261337280273
                                ]
                            },
                            {
                                "list": [
                                    0.22394263744354249,
                                    -0.0685509443283081
                                ]
                            }
                        ]
                    }
                ]
            },
            "Biases": {
                "list": [
                    -0.31578123569488528,
                    -0.031418442726135257,
                    0.4745607078075409
                ]
            },
            "Fitness": 67420.0
        },
        {
            "InputLayer": {
                "list": [
                    0.1931280493736267,
                    -1.0,
                    0.15258702635765077
                ]
            },
            "HiddenLayers": {
                "list": [
                    {
                        "list": [
                            -0.6709550619125366,
                            -0.1814432144165039,
                            -0.2002471685409546,
                            0.10543396323919296,
                            -0.8614751100540161,
                            0.2624534070491791,
                            -0.3007012605667114,
                            0.21431086957454682,
                            -0.2903760075569153
                        ]
                    },
                    {
                        "list": [
                            -0.9202821850776672,
                            0.3546779453754425,
                            -0.12420868873596192,
                            -0.6384541988372803,
                            0.17880694568157197,
                            0.6553136706352234,
                            -0.00556778721511364,
                            -0.5696871280670166,
                            0.4834720194339752
                        ]
                    }
                ]
            },
            "OutputLayer": {
                "list": [
                    -0.20216336846351624,
                    0.8714220523834229
                ]
            },
            "Weights": {
                "list": [
                    {
                        "list": [
                            {
                                "list": [
                                    -0.7205808162689209,
                                    0.31114980578422549,
                                    -0.6665916442871094,
                                    -0.5458192825317383,
                                    -0.9775536060333252,
                                    -0.6311004161834717,
                                    0.866016149520874,
                                    0.5550143718719482,
                                    0.5245451927185059
                                ]
                            },
                            {
                                "list": [
                                    0.3526401221752167,
                                    0.02466404438018799,
                                    -0.33589351177215578,
                                    -0.667555570602417,
                                    0.8926923274993897,
                                    -0.7261061668395996,
                                    0.21742427349090577,
                                    -0.3088792562484741,
                                    0.21250522136688233
                                ]
                            },
                            {
                                "list": [
                                    -0.03206336498260498,
                                    0.6349091529846191,
                                    -0.6184325218200684,
                                    -0.9210090637207031,
                                    0.6437592506408691,
                                    -0.12910830974578858,
                                    0.36479589343070986,
                                    0.7693872451782227,
                                    0.8388998508453369
                                ]
                            }
                        ]
                    },
                    {
                        "list": [
                            {
                                "list": [
                                    0.4418153464794159,
                                    0.23431050777435304,
                                    -0.45942962169647219,
                                    0.16822898387908936,
                                    -0.7519378662109375,
                                    -0.691821813583374,
                                    -0.40789973735809328,
                                    0.005372166633605957,
                                    0.08181273937225342
                                ]
                            },
                            {
                                "list": [
                                    0.263653963804245,
                                    0.9839034080505371,
                                    0.7825016975402832,
                                    0.9269847869873047,
                                    -0.6004819869995117,
                                    -0.13451635837554933,
                                    -0.6226861476898193,
                                    0.5339932441711426,
                                    -0.20124828815460206
                                ]
                            },
                            {
                                "list": [
                                    -0.9251654148101807,
                                    -0.7404851913452148,
                                    0.9095242023468018,
                                    -0.5064074993133545,
                                    0.8471653461456299,
                                    -0.9090228080749512,
                                    0.32071420550346377,
                                    0.9223833084106445,
                                    0.16804707050323487
                                ]
                            },
                            {
                                "list": [
                                    -0.990541934967041,
                                    -0.13481056690216065,
                                    -0.2900768518447876,
                                    -0.11504113674163819,
                                    -0.19862210750579835,
                                    0.18453681468963624,
                                    0.4201917350292206,
                                    0.1203838586807251,
                                    -0.9195828437805176
                                ]
                            },
                            {
                                "list": [
                                    0.9345850944519043,
                                    -0.9678568840026856,
                                    -0.22332775592803956,
                                    0.5836005210876465,
                                    0.43002983927726748,
                                    -0.39193451404571535,
                                    0.7768468856811523,
                                    0.04597628116607666,
                                    -0.5503427982330322
                                ]
                            },
                            {
                                "list": [
                                    -0.4043840169906616,
                                    0.4100775420665741,
                                    -0.4979327917098999,
                                    0.7448725700378418,
                                    0.14807403087615968,
                                    0.004903435707092285,
                                    -0.3412536382675171,
                                    0.13015615940093995,
                                    0.02308213710784912
                                ]
                            },
                            {
                                "list": [
                                    0.9501888751983643,
                                    0.9015243053436279,
                                    -0.07367217540740967,
                                    0.4273976981639862,
                                    -0.08344733715057373,
                                    0.8587372303009033,
                                    -0.65775465965271,
                                    0.7886061668395996,
                                    -0.8083286285400391
                                ]
                            },
                            {
                                "list": [
                                    -0.6394140720367432,
                                    0.9689342975616455,
                                    0.4598183333873749,
                                    -0.6671350002288818,
                                    0.5220835208892822,
                                    0.8235695362091065,
                                    -0.10601580142974854,
                                    -0.573073148727417,
                                    -0.2104586362838745
                                ]
                            },
                            {
                                "list": [
                                    -0.13090884685516358,
                                    0.9439601898193359,
                                    0.790020227432251,
                                    -0.15981519222259522,
                                    0.05544865131378174,
                                    0.4521908462047577,
                                    -0.836280345916748,
                                    -0.07666981220245362,
                                    -0.1025611162185669
                                ]
                            }
                        ]
                    },
                    {
                        "list": [
                            {
                                "list": [
                                    0.604374885559082,
                                    -0.9347705841064453
                                ]
                            },
                            {
                                "list": [
                                    -0.11540210247039795,
                                    0.8719322681427002
                                ]
                            },
                            {
                                "list": [
                                    -0.08598315715789795,
                                    -0.7199888229370117
                                ]
                            },
                            {
                                "list": [
                                    0.6282074451446533,
                                    -1.0
                                ]
                            },
                            {
                                "list": [
                                    -0.03728604316711426,
                                    -0.9977102279663086
                                ]
                            },
                            {
                                "list": [
                                    0.5180120468139648,
                                    -0.512155294418335
                                ]
                            },
                            {
                                "list": [
                                    0.6543734073638916,
                                    0.35561272501945498
                                ]
                            },
                            {
                                "list": [
                                    0.22721228003501893,
                                    0.8493261337280273
                                ]
                            },
                            {
                                "list": [
                                    0.22394263744354249,
                                    -0.0685509443283081
                                ]
                            }
                        ]
                    }
                ]
            },
            "Biases": {
                "list": [
                    -0.31578123569488528,
                    -0.031418442726135257,
                    0.4745607078075409
                ]
            },
            "Fitness": 65865.0
        },
        {
            "InputLayer": {
                "list": [
                    0.18888746201992036,
                    -1.0,
                    0.13234107196331025
                ]
            },
            "HiddenLayers": {
                "list": [
                    {
                        "list": [
                            -0.6440479755401611,
                            -0.19511431455612184,
                            0.015330007299780846,
                            0.04087229073047638,
                            -0.8637495040893555,
                            0.3270459473133087,
                            -0.3107256591320038,
                            0.27642491459846499,
                            -0.35765019059181216
                        ]
                    },
                    {
                        "list": [
                            -0.9454173445701599,
                            0.22511951625347138,
                            0.011383920907974244,
                            -0.6929634809494019,
                            0.3819161057472229,
                            0.5177314281463623,
                            0.06634162366390228,
                            -0.4567394256591797,
                            0.5599278211593628
                        ]
                    }
                ]
            },
            "OutputLayer": {
                "list": [
                    -0.2356191873550415,
                    0.8307190537452698
                ]
            },
            "Weights": {
                "list": [
                    {
                        "list": [
                            {
                                "list": [
                                    -0.7205808162689209,
                                    0.31114980578422549,
                                    0.4079835116863251,
                                    -0.5458192825317383,
                                    -0.9775536060333252,
                                    -0.6311004161834717,
                                    0.866016149520874,
                                    1.0,
                                    0.11518251895904541
                                ]
                            },
                            {
                                "list": [
                                    0.30892714858055117,
                                    0.02466404438018799,
                                    -0.33589351177215578,
                                    -0.5816620588302612,
                                    0.8926923274993897,
                                    -0.7261061668395996,
                                    0.21742427349090577,
                                    -0.3088792562484741,
                                    0.21250522136688233
                                ]
                            },
                            {
                                "list": [
                                    -0.03206336498260498,
                                    0.6349091529846191,
                                    -0.6184325218200684,
                                    -0.9210090637207031,
                                    0.6437592506408691,
                                    0.3657132089138031,
                                    0.36479589343070986,
                                    0.7693872451782227,
                                    1.0
                                ]
                            }
                        ]
                    },
                    {
                        "list": [
                            {
                                "list": [
                                    0.4418153464794159,
                                    0.23431050777435304,
                                    -0.45942962169647219,
                                    0.16822898387908936,
                                    -0.7519378662109375,
                                    -0.691821813583374,
                                    -0.40789973735809328,
                                    0.005372166633605957,
                                    0.08181273937225342
                                ]
                            },
                            {
                                "list": [
                                    0.263653963804245,
                                    0.9839034080505371,
                                    0.7825016975402832,
                                    0.9269847869873047,
                                    -0.6004819869995117,
                                    -0.13451635837554933,
                                    -0.6226861476898193,
                                    0.5339932441711426,
                                    -0.20124828815460206
                                ]
                            },
                            {
                                "list": [
                                    -0.9251654148101807,
                                    -0.7404851913452148,
                                    0.9095242023468018,
                                    -0.5064074993133545,
                                    0.8471653461456299,
                                    -0.9090228080749512,
                                    0.32071420550346377,
                                    0.9223833084106445,
                                    0.16804707050323487
                                ]
                            },
                            {
                                "list": [
                                    -0.990541934967041,
                                    -0.13481056690216065,
                                    -0.2900768518447876,
                                    -0.11504113674163819,
                                    -0.19862210750579835,
                                    0.18453681468963624,
                                    0.4201917350292206,
                                    0.1203838586807251,
                                    -0.9195828437805176
                                ]
                            },
                            {
                                "list": [
                                    0.9345850944519043,
                                    -0.9678568840026856,
                                    -0.22332775592803956,
                                    0.5836005210876465,
                                    0.43002983927726748,
                                    -0.39193451404571535,
                                    0.7768468856811523,
                                    0.04597628116607666,
                                    -0.5503427982330322
                                ]
                            },
                            {
                                "list": [
                                    -0.4043840169906616,
                                    0.4100775420665741,
                                    -0.4979327917098999,
                                    0.7448725700378418,
                                    0.14807403087615968,
                                    0.004903435707092285,
                                    -0.3412536382675171,
                                    0.13015615940093995,
                                    0.02308213710784912
                                ]
                            },
                            {
                                "list": [
                                    0.9501888751983643,
                                    0.9015243053436279,
                                    -0.07367217540740967,
                                    0.4273976981639862,
                                    -0.08344733715057373,
                                    0.8587372303009033,
                                    -0.65775465965271,
                                    0.7886061668395996,
                                    -0.8083286285400391
                                ]
                            },
                            {
                                "list": [
                                    -0.6394140720367432,
                                    0.9689342975616455,
                                    0.4598183333873749,
                                    -0.6671350002288818,
                                    0.5220835208892822,
                                    0.8235695362091065,
                                    -0.10601580142974854,
                                    -0.573073148727417,
                                    -0.2104586362838745
                                ]
                            },
                            {
                                "list": [
                                    -0.13090884685516358,
                                    0.9439601898193359,
                                    0.790020227432251,
                                    -0.15981519222259522,
                                    0.05544865131378174,
                                    0.4521908462047577,
                                    -0.836280345916748,
                                    -0.07666981220245362,
                                    -0.1025611162185669
                                ]
                            }
                        ]
                    },
                    {
                        "list": [
                            {
                                "list": [
                                    0.604374885559082,
                                    -0.9347705841064453
                                ]
                            },
                            {
                                "list": [
                                    -0.11540210247039795,
                                    0.8719322681427002
                                ]
                            },
                            {
                                "list": [
                                    -0.08598315715789795,
                                    -0.7199888229370117
                                ]
                            },
                            {
                                "list": [
                                    0.6282074451446533,
                                    -1.0
                                ]
                            },
                            {
                                "list": [
                                    -0.03728604316711426,
                                    -0.9977102279663086
                                ]
                            },
                            {
                                "list": [
                                    0.5180120468139648,
                                    -0.512155294418335
                                ]
                            },
                            {
                                "list": [
                                    0.6543734073638916,
                                    0.35561272501945498
                                ]
                            },
                            {
                                "list": [
                                    0.22721228003501893,
                                    0.8493261337280273
                                ]
                            },
                            {
                                "list": [
                                    0.22394263744354249,
                                    -0.0685509443283081
                                ]
                            }
                        ]
                    }
                ]
            },
            "Biases": {
                "list": [
                    -0.31578123569488528,
                    -0.031418442726135257,
                    0.4745607078075409
                ]
            },
            "Fitness": 20355.0
        },
        {
            "InputLayer": {
                "list": [
                    0.1908094435930252,
                    -1.0,
                    0.15692460536956788
                ]
            },
            "HiddenLayers": {
                "list": [
                    {
                        "list": [
                            -0.6701120734214783,
                            -0.17947687208652497,
                            -0.2013382762670517,
                            0.10273411870002747,
                            -0.8601649403572083,
                            0.2632942199707031,
                            -0.3010883331298828,
                            0.2162662297487259,
                            -0.288156121969223
                        ]
                    },
                    {
                        "list": [
                            -0.919736921787262,
                            0.3599311113357544,
                            -0.1213403269648552,
                            -0.6370339393615723,
                            0.17847920954227448,
                            0.6561222076416016,
                            -0.009698501788079739,
                            -0.5708365440368652,
                            0.4841955304145813
                        ]
                    }
                ]
            },
            "OutputLayer": {
                "list": [
                    -0.20408305525779725,
                    0.8709407448768616
                ]
            },
            "Weights": {
                "list": [
                    {
                        "list": [
                            {
                                "list": [
                                    -0.7205808162689209,
                                    0.31114980578422549,
                                    -0.6665916442871094,
                                    -0.5458192825317383,
                                    -0.9775536060333252,
                                    -0.6311004161834717,
                                    0.866016149520874,
                                    0.5550143718719482,
                                    0.5245451927185059
                                ]
                            },
                            {
                                "list": [
                                    0.3526401221752167,
                                    0.02466404438018799,
                                    -0.33589351177215578,
                                    -0.667555570602417,
                                    0.8926923274993897,
                                    -0.7261061668395996,
                                    0.21742427349090577,
                                    -0.3088792562484741,
                                    0.21250522136688233
                                ]
                            },
                            {
                                "list": [
                                    -0.03206336498260498,
                                    0.6349091529846191,
                                    -0.6184325218200684,
                                    -0.9210090637207031,
                                    0.6437592506408691,
                                    -0.12910830974578858,
                                    0.36479589343070986,
                                    0.7693872451782227,
                                    0.8388998508453369
                                ]
                            }
                        ]
                    },
                    {
                        "list": [
                            {
                                "list": [
                                    0.4418153464794159,
                                    0.23431050777435304,
                                    -0.45942962169647219,
                                    0.16822898387908936,
                                    -0.7519378662109375,
                                    -0.691821813583374,
                                    -0.40789973735809328,
                                    0.005372166633605957,
                                    0.08181273937225342
                                ]
                            },
                            {
                                "list": [
                                    0.263653963804245,
                                    0.9839034080505371,
                                    0.7825016975402832,
                                    0.9269847869873047,
                                    -0.6004819869995117,
                                    -0.13451635837554933,
                                    -0.6226861476898193,
                                    0.5339932441711426,
                                    -0.20124828815460206
                                ]
                            },
                            {
                                "list": [
                                    -0.9251654148101807,
                                    -0.7404851913452148,
                                    0.9095242023468018,
                                    -0.5064074993133545,
                                    0.8471653461456299,
                                    -0.9090228080749512,
                                    0.32071420550346377,
                                    0.9223833084106445,
                                    0.16804707050323487
                                ]
                            },
                            {
                                "list": [
                                    -0.990541934967041,
                                    -0.13481056690216065,
                                    -0.2900768518447876,
                                    -0.11504113674163819,
                                    -0.19862210750579835,
                                    0.18453681468963624,
                                    0.4201917350292206,
                                    0.1203838586807251,
                                    -0.9195828437805176
                                ]
                            },
                            {
                                "list": [
                                    0.9345850944519043,
                                    -0.9678568840026856,
                                    -0.22332775592803956,
                                    0.5836005210876465,
                                    0.43002983927726748,
                                    -0.39193451404571535,
                                    0.7768468856811523,
                                    0.04597628116607666,
                                    -0.5503427982330322
                                ]
                            },
                            {
                                "list": [
                                    -0.4043840169906616,
                                    0.4100775420665741,
                                    -0.4979327917098999,
                                    0.7448725700378418,
                                    0.14807403087615968,
                                    0.004903435707092285,
                                    -0.3412536382675171,
                                    0.13015615940093995,
                                    0.02308213710784912
                                ]
                            },
                            {
                                "list": [
                                    0.9501888751983643,
                                    0.9015243053436279,
                                    -0.07367217540740967,
                                    0.4273976981639862,
                                    -0.08344733715057373,
                                    0.8587372303009033,
                                    -0.65775465965271,
                                    0.7886061668395996,
                                    -0.8083286285400391
                                ]
                            },
                            {
                                "list": [
                                    -0.6394140720367432,
                                    0.9689342975616455,
                                    0.4598183333873749,
                                    -0.6671350002288818,
                                    0.5220835208892822,
                                    0.8235695362091065,
                                    -0.10601580142974854,
                                    -0.573073148727417,
                                    -0.2104586362838745
                                ]
                            },
                            {
                                "list": [
                                    -0.13090884685516358,
                                    0.9439601898193359,
                                    0.790020227432251,
                                    -0.15981519222259522,
                                    0.05544865131378174,
                                    0.4521908462047577,
                                    -0.836280345916748,
                                    -0.07666981220245362,
                                    -0.1025611162185669
                                ]
                            }
                        ]
                    },
                    {
                        "list": [
                            {
                                "list": [
                                    0.604374885559082,
                                    -0.9347705841064453
                                ]
                            },
                            {
                                "list": [
                                    -0.11540210247039795,
                                    0.8719322681427002
                                ]
                            },
                            {
                                "list": [
                                    -0.08598315715789795,
                                    -0.7199888229370117
                                ]
                            },
                            {
                                "list": [
                                    0.6282074451446533,
                                    -1.0
                                ]
                            },
                            {
                                "list": [
                                    -0.03728604316711426,
                                    -0.9977102279663086
                                ]
                            },
                            {
                                "list": [
                                    0.5180120468139648,
                                    -0.512155294418335
                                ]
                            },
                            {
                                "list": [
                                    0.6543734073638916,
                                    0.35561272501945498
                                ]
                            },
                            {
                                "list": [
                                    0.22721228003501893,
                                    0.8493261337280273
                                ]
                            },
                            {
                                "list": [
                                    0.22394263744354249,
                                    -0.0685509443283081
                                ]
                            }
                        ]
                    }
                ]
            },
            "Biases": {
                "list": [
                    -0.31578123569488528,
                    -0.031418442726135257,
                    0.4745607078075409
                ]
            },
            "Fitness": 19170.0
        },
        {
            "InputLayer": {
                "list": [
                    0.18898040056228639,
                    -1.0,
                    0.15751180052757264
                ]
            },
            "HiddenLayers": {
                "list": [
                    {
                        "list": [
                            -0.6693956851959229,
                            -0.17966681718826295,
                            -0.20051677525043488,
                            0.22515496611595155,
                            -0.8596004843711853,
                            0.35519880056381228,
                            -0.30233341455459597,
                            0.21572913229465486,
                            -0.2885841131210327
                        ]
                    },
                    {
                        "list": [
                            -0.9409752488136292,
                            0.37546560168266299,
                            -0.20079894363880158,
                            -0.6037579774856567,
                            0.168398916721344,
                            0.6673070788383484,
                            0.012139897793531418,
                            -0.552531898021698,
                            0.39615774154663088
                        ]
                    }
                ]
            },
            "OutputLayer": {
                "list": [
                    -0.1867598593235016,
                    0.8912498950958252
                ]
            },
            "Weights": {
                "list": [
                    {
                        "list": [
                            {
                                "list": [
                                    -0.7205808162689209,
                                    0.31114980578422549,
                                    -0.6665916442871094,
                                    0.11839962005615235,
                                    -0.9775536060333252,
                                    -0.6311004161834717,
                                    0.866016149520874,
                                    0.5550143718719482,
                                    0.5245451927185059
                                ]
                            },
                            {
                                "list": [
                                    0.3526401221752167,
                                    0.02466404438018799,
                                    -0.33589351177215578,
                                    -0.667555570602417,
                                    0.8926923274993897,
                                    -0.7261061668395996,
                                    0.21742427349090577,
                                    -0.3088792562484741,
                                    0.21250522136688233
                                ]
                            },
                            {
                                "list": [
                                    -0.03206336498260498,
                                    0.6349091529846191,
                                    -0.6184325218200684,
                                    -0.9210090637207031,
                                    0.6437592506408691,
                                    0.5099388360977173,
                                    0.36479589343070986,
                                    0.7693872451782227,
                                    0.8388998508453369
                                ]
                            }
                        ]
                    },
                    {
                        "list": [
                            {
                                "list": [
                                    0.4418153464794159,
                                    0.23431050777435304,
                                    -0.45942962169647219,
                                    0.16822898387908936,
                                    -0.7519378662109375,
                                    -0.691821813583374,
                                    -0.40789973735809328,
                                    0.005372166633605957,
                                    0.08181273937225342
                                ]
                            },
                            {
                                "list": [
                                    0.263653963804245,
                                    0.9839034080505371,
                                    0.7825016975402832,
                                    0.9269847869873047,
                                    -0.6004819869995117,
                                    -0.13451635837554933,
                                    -0.6226861476898193,
                                    0.5339932441711426,
                                    -0.20124828815460206
                                ]
                            },
                            {
                                "list": [
                                    -0.9251654148101807,
                                    -0.7404851913452148,
                                    0.9095242023468018,
                                    -0.5064074993133545,
                                    0.8471653461456299,
                                    -0.9090228080749512,
                                    0.32071420550346377,
                                    0.9223833084106445,
                                    0.16804707050323487
                                ]
                            },
                            {
                                "list": [
                                    -0.990541934967041,
                                    -0.13481056690216065,
                                    -0.2900768518447876,
                                    -0.11504113674163819,
                                    -0.19862210750579835,
                                    0.18453681468963624,
                                    0.4201917350292206,
                                    0.1203838586807251,
                                    -0.9195828437805176
                                ]
                            },
                            {
                                "list": [
                                    0.9345850944519043,
                                    -0.9678568840026856,
                                    -0.22332775592803956,
                                    0.5836005210876465,
                                    0.43002983927726748,
                                    -0.39193451404571535,
                                    0.7768468856811523,
                                    0.04597628116607666,
                                    -0.5503427982330322
                                ]
                            },
                            {
                                "list": [
                                    -0.4043840169906616,
                                    0.4100775420665741,
                                    -0.4979327917098999,
                                    0.7448725700378418,
                                    0.14807403087615968,
                                    0.004903435707092285,
                                    -0.3412536382675171,
                                    0.13015615940093995,
                                    0.02308213710784912
                                ]
                            },
                            {
                                "list": [
                                    0.9501888751983643,
                                    0.9015243053436279,
                                    -0.07367217540740967,
                                    0.4273976981639862,
                                    -0.08344733715057373,
                                    0.8587372303009033,
                                    -0.65775465965271,
                                    0.7886061668395996,
                                    -0.8083286285400391
                                ]
                            },
                            {
                                "list": [
                                    -0.6394140720367432,
                                    0.9689342975616455,
                                    0.4598183333873749,
                                    -0.6671350002288818,
                                    0.5220835208892822,
                                    0.8235695362091065,
                                    -0.10601580142974854,
                                    -0.573073148727417,
                                    -0.2104586362838745
                                ]
                            },
                            {
                                "list": [
                                    -0.13090884685516358,
                                    0.9439601898193359,
                                    0.790020227432251,
                                    -0.15981519222259522,
                                    0.05544865131378174,
                                    0.4521908462047577,
                                    -0.836280345916748,
                                    -0.07666981220245362,
                                    -0.1025611162185669
                                ]
                            }
                        ]
                    },
                    {
                        "list": [
                            {
                                "list": [
                                    0.604374885559082,
                                    -0.9347705841064453
                                ]
                            },
                            {
                                "list": [
                                    -0.11540210247039795,
                                    0.8719322681427002
                                ]
                            },
                            {
                                "list": [
                                    -0.08598315715789795,
                                    -0.7199888229370117
                                ]
                            },
                            {
                                "list": [
                                    0.6282074451446533,
                                    -1.0
                                ]
                            },
                            {
                                "list": [
                                    -0.03728604316711426,
                                    -0.9977102279663086
                                ]
                            },
                            {
                                "list": [
                                    0.5180120468139648,
                                    -0.512155294418335
                                ]
                            },
                            {
                                "list": [
                                    0.6543734073638916,
                                    0.35561272501945498
                                ]
                            },
                            {
                                "list": [
                                    0.22721228003501893,
                                    0.8493261337280273
                                ]
                            },
                            {
                                "list": [
                                    0.22394263744354249,
                                    -0.0685509443283081
                                ]
                            }
                        ]
                    }
                ]
            },
            "Biases": {
                "list": [
                    -0.31578123569488528,
                    -0.031418442726135257,
                    0.4745607078075409
                ]
            },
            "Fitness": 18050.0
        },
        {
            "InputLayer": {
                "list": [
                    0.17283256351947785,
                    1.0,
                    0.15588590502738954
                ]
            },
            "HiddenLayers": {
                "list": [
                    {
                        "list": [
                            -0.09241471439599991,
                            -0.1374906599521637,
                            -0.6979480385780335,
                            -0.8400208950042725,
                            0.4686281979084015,
                            -0.8246207237243652,
                            0.10776524990797043,
                            -0.3874526917934418,
                            0.11760833859443665
                        ]
                    },
                    {
                        "list": [
                            0.9790910482406616,
                            -0.8352770209312439,
                            -0.2681906521320343,
                            0.11568272858858109,
                            -0.5471492409706116,
                            0.04280939698219299,
                            -0.4370057284832001,
                            0.11732315272092819,
                            0.6981932520866394
                        ]
                    }
                ]
            },
            "OutputLayer": {
                "list": [
                    0.9496399164199829,
                    -0.2505221664905548
                ]
            },
            "Weights": {
                "list": [
                    {
                        "list": [
                            {
                                "list": [
                                    -0.7205808162689209,
                                    0.31114980578422549,
                                    -0.6665916442871094,
                                    -0.5458192825317383,
                                    -0.9775536060333252,
                                    -0.6311004161834717,
                                    0.866016149520874,
                                    0.5550143718719482,
                                    0.5245451927185059
                                ]
                            },
                            {
                                "list": [
                                    0.3526401221752167,
                                    0.02466404438018799,
                                    -0.33589351177215578,
                                    -0.667555570602417,
                                    0.8926923274993897,
                                    -0.7261061668395996,
                                    0.21742427349090577,
                                    -0.3088792562484741,
                                    0.21250522136688233
                                ]
                            },
                            {
                                "list": [
                                    -0.03206336498260498,
                                    0.6349091529846191,
                                    -0.6184325218200684,
                                    -0.9210090637207031,
                                    0.6437592506408691,
                                    -0.12910830974578858,
                                    0.36479589343070986,
                                    0.7693872451782227,
                                    0.8388998508453369
                                ]
                            }
                        ]
                    },
                    {
                        "list": [
                            {
                                "list": [
                                    0.4418153464794159,
                                    0.23431050777435304,
                                    -0.45942962169647219,
                                    0.16822898387908936,
                                    -0.7519378662109375,
                                    0.047149658203125,
                                    0.19152843952178956,
                                    0.005372166633605957,
                                    0.08181273937225342
                                ]
                            },
                            {
                                "list": [
                                    0.263653963804245,
                                    0.793657660484314,
                                    0.7825016975402832,
                                    0.9269847869873047,
                                    -0.6004819869995117,
                                    -0.13451635837554933,
                                    0.10455036163330078,
                                    0.5339932441711426,
                                    -0.20124828815460206
                                ]
                            },
                            {
                                "list": [
                                    -0.9251654148101807,
                                    -0.7404851913452148,
                                    0.9095242023468018,
                                    -0.5064074993133545,
                                    0.8471653461456299,
                                    -0.9090228080749512,
                                    0.32071420550346377,
                                    0.07638311386108399,
                                    -0.007415056228637695
                                ]
                            },
                            {
                                "list": [
                                    -0.7975066900253296,
                                    0.7154597043991089,
                                    -0.2900768518447876,
                                    -0.11504113674163819,
                                    -0.19862210750579835,
                                    0.42459678649902346,
                                    0.4201917350292206,
                                    0.1203838586807251,
                                    -0.9195828437805176
                                ]
                            },
                            {
                                "list": [
                                    0.9345850944519043,
                                    -0.9678568840026856,
                                    -0.22332775592803956,
                                    0.4112037420272827,
                                    0.43002983927726748,
                                    -0.08588829636573792,
                                    0.7768468856811523,
                                    0.04597628116607666,
                                    0.20549941062927247
                                ]
                            },
                            {
                                "list": [
                                    -0.25153684616088869,
                                    0.4100775420665741,
                                    -0.4979327917098999,
                                    0.7448725700378418,
                                    0.14807403087615968,
                                    0.004903435707092285,
                                    -0.3412536382675171,
                                    0.13015615940093995,
                                    0.02308213710784912
                                ]
                            },
                            {
                                "list": [
                                    0.9501888751983643,
                                    0.9015243053436279,
                                    -0.07367217540740967,
                                    0.20771941542625428,
                                    -0.08344733715057373,
                                    0.8587372303009033,
                                    -0.65775465965271,
                                    0.7886061668395996,
                                    -0.8083286285400391
                                ]
                            },
                            {
                                "list": [
                                    -0.6394140720367432,
                                    0.9689342975616455,
                                    0.4598183333873749,
                                    -0.6671350002288818,
                                    1.0,
                                    0.8235695362091065,
                                    0.8412595987319946,
                                    -1.0,
                                    -0.2104586362838745
                                ]
                            },
                            {
                                "list": [
                                    0.6158666610717773,
                                    0.9439601898193359,
                                    0.790020227432251,
                                    -0.15981519222259522,
                                    0.05544865131378174,
                                    0.4521908462047577,
                                    -0.653394341468811,
                                    -0.07666981220245362,
                                    0.21877726912498475
                                ]
                            }
                        ]
                    },
                    {
                        "list": [
                            {
                                "list": [
                                    0.604374885559082,
                                    0.02370738983154297
                                ]
                            },
                            {
                                "list": [
                                    -1.0,
                                    0.8719322681427002
                                ]
                            },
                            {
                                "list": [
                                    -0.08598315715789795,
                                    -0.7199888229370117
                                ]
                            },
                            {
                                "list": [
                                    0.6282074451446533,
                                    -1.0
                                ]
                            },
                            {
                                "list": [
                                    0.16162168979644776,
                                    -0.04148268699645996
                                ]
                            },
                            {
                                "list": [
                                    0.5180120468139648,
                                    -0.512155294418335
                                ]
                            },
                            {
                                "list": [
                                    0.6543734073638916,
                                    0.35561272501945498
                                ]
                            },
                            {
                                "list": [
                                    0.22721228003501893,
                                    0.8493261337280273
                                ]
                            },
                            {
                                "list": [
                                    0.22394263744354249,
                                    -0.0685509443283081
                                ]
                            }
                        ]
                    }
                ]
            },
            "Biases": {
                "list": [
                    -0.31578123569488528,
                    -0.031418442726135257,
                    0.4745607078075409
                ]
            },
            "Fitness": 14615.0
        },
        {
            "InputLayer": {
                "list": [
                    0.17396816611289979,
                    1.0,
                    0.1550387591123581
                ]
            },
            "HiddenLayers": {
                "list": [
                    {
                        "list": [
                            -0.09319902956485748,
                            -0.13767169415950776,
                            -0.6980675458908081,
                            -0.8399736881256104,
                            0.4673352539539337,
                            -0.8248149752616882,
                            0.10843182355165482,
                            -0.3874709904193878,
                            0.11749494820833206
                        ]
                    },
                    {
                        "list": [
                            0.9790535569190979,
                            -0.8348402976989746,
                            -0.26788005232810976,
                            0.11494048684835434,
                            -0.5472033023834229,
                            0.04354020953178406,
                            -0.4382229149341583,
                            0.11768170446157456,
                            0.6977315545082092
                        ]
                    }
                ]
            },
            "OutputLayer": {
                "list": [
                    0.949502170085907,
                    -0.25011932849884035
                ]
            },
            "Weights": {
                "list": [
                    {
                        "list": [
                            {
                                "list": [
                                    -0.7205808162689209,
                                    0.31114980578422549,
                                    -0.6665916442871094,
                                    -0.5458192825317383,
                                    -0.9775536060333252,
                                    -0.6311004161834717,
                                    0.866016149520874,
                                    0.5550143718719482,
                                    0.5245451927185059
                                ]
                            },
                            {
                                "list": [
                                    0.3526401221752167,
                                    0.02466404438018799,
                                    -0.33589351177215578,
                                    -0.667555570602417,
