{
    "list": [
        {
            "InputLayer": {
                "list": [
                    0.16084253787994386,
                    -1.0,
                    0.17392626404762269
                ]
            },
            "HiddenLayers": {
                "list": [
                    {
                        "list": [
                            0.6680839657783508,
                            0.9341916441917419,
                            0.29179883003234866,
                            -0.01060845423489809,
                            0.016145197674632074,
                            0.9394074082374573,
                            0.6630282402038574,
                            0.9226475954055786,
                            0.7106975317001343
                        ]
                    },
                    {
                        "list": [
                            0.40875932574272158,
                            -0.36642181873321535,
                            -0.29292330145835879,
                            -0.8544857501983643,
                            -0.9980330467224121,
                            -0.9672709703445435,
                            -0.853594183921814,
                            0.12909097969532014,
                            -0.9156239628791809
                        ]
                    }
                ]
            },
            "OutputLayer": {
                "list": [
                    0.2335503101348877,
                    0.49652430415153506
                ]
            },
            "Weights": {
                "list": [
                    {
                        "list": [
                            {
                                "list": [
                                    0.013578534126281739,
                                    -0.9142463207244873,
                                    -0.8437485694885254,
                                    -0.9212300777435303,
                                    -0.8099517822265625,
                                    0.47307202219963076,
                                    -0.6570079326629639,
                                    0.4643411338329315,
                                    0.8413255214691162
                                ]
                            },
                            {
                                "list": [
                                    0.32077762484550478,
                                    -0.8697898387908936,
                                    0.5783443450927734,
                                    0.8324744701385498,
                                    0.8949668407440186,
                                    -0.8078742027282715,
                                    0.09473049640655518,
                                    -0.514188289642334,
                                    0.20395934581756593
                                ]
                            },
                            {
                                "list": [
                                    0.7946445941925049,
                                    -0.11527693271636963,
                                    0.1548234224319458,
                                    -0.10130679607391358,
                                    0.30892178416252139,
                                    -0.7971210479736328,
                                    0.06292879581451416,
                                    0.17254960536956788,
                                    -0.1749492883682251
                                ]
                            }
                        ]
                    },
                    {
                        "list": [
                            {
                                "list": [
                                    -0.9116547107696533,
                                    -0.6190135478973389,
                                    -0.9208910465240479,
                                    -0.34180915355682375,
                                    -0.820075511932373,
                                    -0.698258638381958,
                                    0.5575432777404785,
                                    0.18794667720794679,
                                    -0.24136388301849366
                                ]
                            },
                            {
                                "list": [
                                    0.506108283996582,
                                    -0.10151875019073487,
                                    -0.9067704677581787,
                                    -0.6129043102264404,
                                    -0.38346707820892336,
                                    0.6241252422332764,
                                    -0.7969305515289307,
                                    0.4920508563518524,
                                    -0.332039475440979
                                ]
                            },
                            {
                                "list": [
                                    0.005967259407043457,
                                    -0.10402786731719971,
                                    0.5487987995147705,
                                    -0.8433940410614014,
                                    -0.2643951177597046,
                                    -0.9122810363769531,
                                    -0.8020334243774414,
                                    0.18299543857574464,
                                    0.5783994197845459
                                ]
                            },
                            {
                                "list": [
                                    0.28864118456840517,
                                    -0.9705805778503418,
                                    -0.4339824914932251,
                                    0.6332647800445557,
                                    -0.6136581897735596,
                                    0.9342288970947266,
                                    -0.7326052188873291,
                                    -0.27989447116851809,
                                    0.9991583824157715
                                ]
                            },
                            {
                                "list": [
                                    -0.10670650005340576,
                                    0.8158845901489258,
                                    0.07124364376068115,
                                    -0.7866551876068115,
                                    -0.645472526550293,
                                    0.8324618339538574,
                                    0.21069777011871339,
                                    -0.6890101432800293,
                                    0.22527015209197999
                                ]
                            },
                            {
                                "list": [
                                    0.9940223693847656,
                                    0.6527466773986816,
                                    0.618539571762085,
                                    0.9369499683380127,
                                    -0.9440009593963623,
                                    -0.4871565103530884,
                                    0.455672949552536,
                                    0.4676191508769989,
                                    -0.7939596176147461
                                ]
                            },
                            {
                                "list": [
                                    -0.45711004734039309,
                                    0.663872241973877,
                                    0.2338634729385376,
                                    0.2740010917186737,
                                    -0.8315761089324951,
                                    -0.6698861122131348,
                                    0.059153199195861819,
                                    0.6333580017089844,
                                    -0.05711376667022705
                                ]
                            },
                            {
                                "list": [
                                    -0.40849077701568606,
                                    -0.1819092035293579,
                                    0.6487178802490234,
                                    -0.41752564907073977,
                                    -0.26245224475860598,
                                    -0.4083167314529419,
                                    -0.6451961994171143,
                                    -0.4858180284500122,
                                    -0.5134754180908203
                                ]
                            },
                            {
                                "list": [
                                    0.7754082679748535,
                                    -0.7359681129455566,
                                    -0.1526697874069214,
                                    -0.9163355827331543,
                                    -0.7918424606323242,
                                    -0.551501989364624,
                                    -0.4430943727493286,
                                    -0.957036018371582,
                                    0.33393046259880068
                                ]
                            }
                        ]
                    },
                    {
                        "list": [
                            {
                                "list": [
                                    -0.9954001903533936,
                                    0.21571767330169679
                                ]
                            },
                            {
                                "list": [
                                    -0.8995561599731445,
                                    0.6777386665344238
                                ]
                            },
                            {
                                "list": [
                                    -0.22516119480133058,
                                    -0.26752007007598879
                                ]
                            },
                            {
                                "list": [
                                    -0.7794609069824219,
                                    -0.9054644107818604
                                ]
                            },
                            {
                                "list": [
                                    -0.18395912647247315,
                                    0.7872986793518066
                                ]
                            },
                            {
                                "list": [
                                    -0.16212904453277589,
                                    0.33658406138420107
                                ]
                            },
                            {
                                "list": [
                                    -0.6739704608917236,
                                    -0.8978471755981445
                                ]
                            },
                            {
                                "list": [
                                    -0.3410450220108032,
                                    0.24278795719146729
                                ]
                            },
                            {
                                "list": [
                                    0.9608972072601318,
                                    -0.6280033588409424
                                ]
                            }
                        ]
                    }
                ]
            },
            "Biases": {
                "list": [
                    0.9876585006713867,
                    -0.2314787209033966,
                    -0.40866076946258547
                ]
            },
            "Fitness": 2360.0
        },
        {
            "InputLayer": {
                "list": [
                    0.17241984605789185,
                    -1.0,
                    0.009000897407531739
                ]
            },
            "HiddenLayers": {
                "list": [
                    {
                        "list": [
                            0.6506602168083191,
                            0.011283574625849724,
                            -0.7164684534072876,
                            0.7000130414962769,
                            -0.3942210078239441,
                            0.8119049668312073,
                            -0.24269065260887147,
                            -0.2497866153717041,
                            0.0337863527238369
                        ]
                    },
                    {
                        "list": [
                            -0.24914315342903138,
                            -0.26623645424842837,
                            -0.0060131121426820759,
                            -0.7120721936225891,
                            0.9089797139167786,
                            0.9605613946914673,
                            0.3901897370815277,
                            -0.7173104882240295,
                            0.1274811178445816
                        ]
                    }
                ]
            },
            "OutputLayer": {
                "list": [
                    0.5253911018371582,
                    -0.48130369186401369
                ]
            },
            "Weights": {
                "list": [
                    {
                        "list": [
                            {
                                "list": [
                                    0.14332139492034913,
                                    0.5256855487823486,
                                    -0.5635182857513428,
                                    -0.8581931591033936,
                                    0.8506133556365967,
                                    0.47204872965812685,
                                    0.0727771520614624,
                                    -0.4086970090866089,
                                    -0.7688539028167725
                                ]
                            },
                            {
                                "list": [
                                    -0.6908087730407715,
                                    0.13200724124908448,
                                    0.86578369140625,
                                    -0.9571504592895508,
                                    0.616079568862915,
                                    -0.9891626834869385,
                                    0.3138599097728729,
                                    0.23740971088409425,
                                    -0.10816490650177002
                                ]
                            },
                            {
                                "list": [
                                    0.2079709768295288,
                                    -0.7108187675476074,
                                    0.3937680423259735,
                                    -0.10059487819671631,
                                    -0.7134494781494141,
                                    0.33213016390800478,
                                    -0.5966305732727051,
                                    -0.7064516544342041,
                                    -0.09451186656951904
                                ]
                            }
                        ]
                    },
                    {
                        "list": [
                            {
                                "list": [
                                    -0.7966930866241455,
                                    -0.6605560779571533,
                                    0.4895765483379364,
                                    -0.0055495500564575199,
                                    -0.33618485927581789,
                                    -0.10085618495941162,
                                    0.10050952434539795,
                                    -0.5896458625793457,
                                    -0.9099152088165283
                                ]
                            },
                            {
                                "list": [
                                    0.3866572082042694,
                                    -0.4199618101119995,
                                    0.03433382511138916,
                                    -0.336734414100647,
                                    -0.4284151792526245,
                                    0.8915970325469971,
                                    0.7539408206939697,
                                    -0.4682878255844116,
                                    -0.6037032604217529
                                ]
                            },
                            {
                                "list": [
                                    0.13670217990875245,
                                    0.9704487323760986,
                                    0.4850258529186249,
                                    0.9580032825469971,
                                    0.1885455846786499,
                                    -0.5069084167480469,
                                    0.27129361033439639,
                                    0.40450331568717959,
                                    -0.6144740581512451
                                ]
                            },
                            {
                                "list": [
                                    -0.5815355777740479,
                                    0.8167498111724854,
                                    -0.48572838306427,
                                    0.04696691036224365,
                                    0.8984112739562988,
                                    0.7174904346466065,
                                    0.9681026935577393,
                                    0.17564117908477784,
                                    -0.9326944351196289
                                ]
                            },
                            {
                                "list": [
                                    -0.7346887588500977,
                                    -0.5719470977783203,
                                    -0.2611147165298462,
                                    0.9543013572692871,
                                    -0.5254909992218018,
                                    -0.8703227043151856,
                                    0.9978487491607666,
                                    -0.023210883140563966,
                                    0.18742263317108155
                                ]
                            },
                            {
                                "list": [
                                    -0.3147174119949341,
                                    -0.6789577007293701,
                                    -0.04620993137359619,
                                    -0.06917369365692139,
                                    0.9043123722076416,
                                    0.40684863924980166,
                                    -0.5177409648895264,
                                    -0.7074787616729736,
                                    0.6991498470306397
                                ]
                            },
                            {
                                "list": [
                                    -0.8389885425567627,
                                    -0.9250476360321045,
                                    0.6312966346740723,
                                    -0.051230549812316897,
                                    0.21229326725006104,
                                    -0.3121696710586548,
                                    -0.39205992221832278,
                                    0.6987948417663574,
                                    -0.4699040651321411
                                ]
                            },
                            {
                                "list": [
                                    -0.5283775329589844,
                                    0.2464202642440796,
                                    -0.020920872688293458,
                                    0.9017586708068848,
                                    0.37384769320487978,
                                    0.017492175102233888,
                                    -0.5694918632507324,
                                    0.16662251949310304,
                                    0.31302186846733096
                                ]
                            },
                            {
                                "list": [
                                    -0.9367141723632813,
                                    0.6402838230133057,
                                    0.5521743297576904,
                                    -0.3481680154800415,
                                    0.841465950012207,
                                    -0.8301830291748047,
                                    0.1377474069595337,
                                    0.10970461368560791,
                                    -0.48568522930145266
                                ]
                            }
                        ]
                    },
                    {
                        "list": [
                            {
                                "list": [
                                    -0.46040403842926028,
                                    -0.9045146703720093
                                ]
                            },
                            {
                                "list": [
                                    0.5635116100311279,
                                    0.7632780075073242
                                ]
                            },
                            {
                                "list": [
                                    -0.5260317325592041,
                                    -0.7520899772644043
                                ]
                            },
                            {
                                "list": [
                                    -0.15368497371673585,
                                    -0.6711432933807373
                                ]
                            },
                            {
                                "list": [
                                    0.031992554664611819,
                                    -0.4431508779525757
                                ]
                            },
                            {
                                "list": [
                                    0.3025030791759491,
                                    -0.8454194068908691
                                ]
                            },
                            {
                                "list": [
                                    0.5092942714691162,
                                    -0.511164665222168
                                ]
                            },
                            {
                                "list": [
                                    0.922722339630127,
                                    0.06917846202850342
                                ]
                            },
                            {
                                "list": [
                                    0.8191592693328857,
                                    -0.8694348335266113
                                ]
                            }
                        ]
                    }
                ]
            },
            "Biases": {
                "list": [
                    0.059050679206848147,
                    0.4264826476573944,
                    0.5455567836761475
                ]
            },
            "Fitness": 2037.3990478515625
        },
        {
            "InputLayer": {
                "list": [
                    0.15360566973686219,
                    -1.0,
                    0.026704594492912294
                ]
            },
            "HiddenLayers": {
                "list": [
                    {
                        "list": [
                            -0.7254217863082886,
                            -0.6213304996490479,
                            -0.9359034299850464,
                            -0.8015968799591065,
                            -0.7936704158782959,
                            -0.9247999787330627,
                            -0.6135632991790772,
                            -0.7509140372276306,
                            -0.023864446207880975
                        ]
                    },
                    {
                        "list": [
                            -0.5363324284553528,
                            -0.6686609387397766,
                            0.5830634832382202,
                            -0.9190200567245483,
                            0.057882681488990787,
                            0.343595415353775,
                            -0.9501732587814331,
                            -0.866217315196991,
                            0.17757484316825868
                        ]
                    }
                ]
            },
            "OutputLayer": {
                "list": [
                    0.17369742691516877,
                    -0.07826326787471771
                ]
            },
            "Weights": {
                "list": [
                    {
                        "list": [
                            {
                                "list": [
                                    0.23219335079193116,
                                    -0.9181947708129883,
                                    0.1403590440750122,
                                    0.6060068607330322,
                                    -0.06784093379974365,
                                    -0.7330632209777832,
                                    0.7620060443878174,
                                    0.6121230125427246,
                                    -0.21026790142059327
                                ]
                            },
                            {
                                "list": [
                                    -0.041564345359802249,
                                    -0.38366639614105227,
                                    0.7483639717102051,
                                    0.2157806158065796,
                                    0.070320725440979,
                                    0.5279498100280762,
                                    -0.1486600637435913,
                                    0.10551583766937256,
                                    -0.9686679840087891
                                ]
                            },
                            {
                                "list": [
                                    -0.6624710559844971,
                                    0.3272554576396942,
                                    0.051296353340148929,
                                    -0.06868970394134522,
                                    -0.8236715793609619,
                                    -0.07958590984344483,
                                    -0.06701457500457764,
                                    0.5608608722686768,
                                    0.6851370334625244
                                ]
                            }
                        ]
                    },
                    {
                        "list": [
                            {
                                "list": [
                                    0.6281487941741943,
                                    0.9933362007141113,
                                    -0.24664580821990968,
                                    0.2895464599132538,
                                    0.16312921047210694,
                                    0.610271692276001,
                                    0.7750611305236816,
                                    0.15819990634918214,
                                    0.8753170967102051
                                ]
                            },
                            {
                                "list": [
                                    -0.11651432514190674,
                                    0.663367509841919,
                                    -0.46433746814727785,
                                    0.5555393695831299,
                                    0.09114730358123779,
                                    -0.2882927656173706,
                                    0.3737654387950897,
                                    0.49013182520866396,
                                    0.011278986930847168
                                ]
                            },
                            {
                                "list": [
                                    -0.5385770797729492,
                                    0.14585649967193604,
                                    0.8777961730957031,
                                    0.7077362537384033,
                                    -0.47971975803375246,
                                    0.26286837458610537,
                                    0.07203352451324463,
                                    0.23508703708648683,
                                    -0.12164556980133057
                                ]
                            },
                            {
                                "list": [
                                    0.298258513212204,
                                    0.9242424964904785,
                                    -0.9546012878417969,
                                    0.6789047718048096,
                                    -0.511075496673584,
                                    -0.8065049648284912,
                                    0.1831876039505005,
                                    0.6293854713439941,
                                    0.023667216300964357
                                ]
                            },
                            {
                                "list": [
                                    0.9012184143066406,
                                    -0.6117653846740723,
                                    0.5000584125518799,
                                    -0.04296314716339111,
                                    0.21903550624847413,
                                    -0.5433242321014404,
                                    -0.5084884166717529,
                                    -0.25560224056243899,
                                    -0.1684938669204712
                                ]
                            },
                            {
                                "list": [
                                    -0.5603229999542236,
                                    -0.15617024898529054,
                                    -0.4756361246109009,
                                    -0.6947546005249023,
                                    -0.9470822811126709,
                                    0.7068467140197754,
                                    0.031961798667907718,
                                    0.05458343029022217,
                                    -0.6707043647766113
                                ]
                            },
                            {
                                "list": [
                                    0.7964799404144287,
                                    -0.7707240581512451,
                                    -0.8096623420715332,
                                    0.2159513235092163,
                                    0.6904194355010986,
                                    -0.5107424259185791,
                                    0.39677712321281435,
                                    0.9814283847808838,
                                    -0.878892183303833
                                ]
                            },
                            {
                                "list": [
                                    -0.8500509262084961,
                                    -0.7367351055145264,
                                    -0.19755375385284425,
                                    -0.14259207248687745,
                                    0.6036665439605713,
                                    -0.7646200656890869,
                                    0.6487441062927246,
                                    -0.9733550548553467,
                                    0.13532650470733643
                                ]
                            },
                            {
                                "list": [
                                    -0.9062039852142334,
                                    -0.024837851524353029,
                                    -0.9525072574615479,
                                    0.7213902473449707,
                                    -0.16849839687347413,
                                    -0.4633854627609253,
                                    0.5608890056610107,
                                    0.0070313215255737309,
                                    0.427305668592453
                                ]
                            }
                        ]
                    },
                    {
                        "list": [
                            {
                                "list": [
                                    -0.724926233291626,
                                    0.9809300899505615
                                ]
                            },
                            {
                                "list": [
                                    -0.7728970050811768,
                                    -0.8824963569641113
                                ]
                            },
                            {
                                "list": [
                                    -0.4414585828781128,
                                    -0.7455220222473145
                                ]
                            },
                            {
                                "list": [
                                    -0.2599676847457886,
                                    -0.9293878078460693
                                ]
                            },
                            {
                                "list": [
                                    -0.5975062847137451,
                                    0.6598107814788818
                                ]
                            },
                            {
                                "list": [
                                    -0.9031486511230469,
                                    0.38817283511161806
                                ]
                            },
                            {
                                "list": [
                                    -0.9588429927825928,
                                    0.44720718264579775
                                ]
                            },
                            {
                                "list": [
                                    0.6991093158721924,
                                    -0.49163925647735598
                                ]
                            },
                            {
                                "list": [
                                    -0.5986015796661377,
                                    -0.9484591484069824
                                ]
                            }
                        ]
                    }
                ]
            },
            "Biases": {
                "list": [
                    -0.9785349369049072,
                    -0.4548534154891968,
                    -0.5659348964691162
                ]
            },
            "Fitness": 2030.2982177734375
        },
        {
            "InputLayer": {
                "list": [
                    0.17693643271923066,
                    1.0,
                    0.04466767609119415
                ]
            },
            "HiddenLayers": {
                "list": [
                    {
                        "list": [
                            0.7879557013511658,
                            0.5244640111923218,
                            0.7815353274345398,
                            0.23465946316719056,
                            -0.11698269098997116,
                            0.3198009133338928,
                            0.7706303000450134,
                            0.3129960894584656,
                            -0.2519427537918091
                        ]
                    },
                    {
                        "list": [
                            0.790692925453186,
                            -0.6132068037986755,
                            -0.8964115977287293,
                            0.19035018980503083,
                            -0.9619542956352234,
                            -0.8295035362243652,
                            -0.9614742994308472,
                            -0.9146350026130676,
                            -0.40842610597610476
                        ]
                    }
                ]
            },
            "OutputLayer": {
                "list": [
                    -0.751959502696991,
                    0.9808452129364014
                ]
            },
            "Weights": {
                "list": [
                    {
                        "list": [
                            {
                                "list": [
                                    0.6304090023040772,
                                    -0.6122727394104004,
                                    -0.4181860685348511,
                                    -0.5128095149993897,
                                    0.32346054911613467,
                                    0.45084211230278017,
                                    0.4008619487285614,
                                    0.04591071605682373,
                                    0.06364166736602783
                                ]
                            },
                            {
                                "list": [
                                    0.33745047450065615,
                                    0.007864832878112793,
                                    0.4637756049633026,
                                    -0.3230386972427368,
                                    -0.8431057929992676,
                                    -0.38131439685821535,
                                    0.3428501784801483,
                                    -0.3641618490219116,
                                    -0.9595632553100586
                                ]
                            },
                            {
                                "list": [
                                    -0.7084522247314453,
                                    0.7673964500427246,
                                    0.24293506145477296,
                                    0.09446799755096436,
                                    0.4406883418560028,
                                    -0.3514670133590698,
                                    -0.9082162380218506,
                                    0.6992413997650147,
                                    0.9435913562774658
                                ]
                            }
                        ]
                    },
                    {
                        "list": [
                            {
                                "list": [
                                    0.8408560752868652,
                                    0.5792185068130493,
                                    0.3971681296825409,
                                    0.40315330028533938,
                                    -0.3192943334579468,
                                    -0.6561393737792969,
                                    -0.8870383501052856,
                                    -0.5057134628295898,
                                    1.0
                                ]
                            },
                            {
                                "list": [
                                    1.0,
                                    -0.7761411666870117,
                                    -0.8356623649597168,
                                    -0.1912301778793335,
                                    0.5843122005462647,
                                    -0.24320033192634583,
                                    0.19842946529388429,
                                    0.8166542053222656,
                                    0.008020520210266114
                                ]
                            },
                            {
                                "list": [
                                    0.5501537322998047,
                                    -0.5649857521057129,
                                    -0.18794035911560059,
                                    0.4596578776836395,
                                    -0.4262737035751343,
                                    0.3979751765727997,
                                    0.6995160579681397,
                                    -0.9565399885177612,
                                    -0.8254094123840332
                                ]
                            },
                            {
                                "list": [
                                    -0.08604741096496582,
                                    0.035350918769836429,
                                    0.48871585726737978,
                                    0.8584864139556885,
                                    -0.27284228801727297,
                                    0.6018147468566895,
                                    -0.29175102710723879,
                                    -0.07625603675842285,
                                    -0.8015975952148438
                                ]
                            },
                            {
                                "list": [
                                    -0.9220898151397705,
                                    -0.005803108215332031,
                                    -0.020978450775146486,
                                    0.843332052230835,
                                    -0.7237129211425781,
                                    -1.0,
                                    0.3031817376613617,
                                    0.028855204582214357,
                                    0.212441086769104
                                ]
                            },
                            {
                                "list": [
                                    0.5263183116912842,
                                    -0.5929656028747559,
                                    0.11541306972503662,
                                    0.4448339641094208,
                                    -0.05812227725982666,
                                    0.12232387065887451,
                                    -0.06926357746124268,
                                    0.0262678861618042,
                                    0.8195480704307556
                                ]
                            },
                            {
                                "list": [
                                    -0.0980602502822876,
                                    0.8834596872329712,
                                    -0.7794034481048584,
                                    0.8897724151611328,
                                    -0.3016587495803833,
                                    -0.5920424461364746,
                                    -0.6292386054992676,
                                    0.6463141441345215,
                                    0.13604962825775147
                                ]
                            },
                            {
                                "list": [
                                    0.3492419421672821,
                                    0.22113001346588136,
                                    0.1761857271194458,
                                    -0.4864248037338257,
                                    -1.0,
                                    0.670396089553833,
                                    -0.3858546018600464,
                                    -1.0,
                                    0.7703932523727417
                                ]
                            },
                            {
                                "list": [
                                    -0.4244643449783325,
                                    -0.19520413875579835,
                                    -0.5969076156616211,
                                    0.8812227249145508,
                                    0.8310103416442871,
                                    -0.14471924304962159,
                                    0.9713904857635498,
                                    0.27485391497612,
                                    0.14099395275115968
                                ]
                            }
                        ]
                    },
                    {
                        "list": [
                            {
                                "list": [
                                    0.7065799236297607,
                                    0.18181073665618897
                                ]
                            },
                            {
                                "list": [
                                    -0.4233006238937378,
                                    -0.854835033416748
                                ]
                            },
                            {
                                "list": [
                                    -0.49877774715423586,
                                    0.18238604068756104
                                ]
                            },
                            {
                                "list": [
                                    0.5242016315460205,
                                    0.14233577251434327
                                ]
                            },
                            {
                                "list": [
                                    0.7679929733276367,
                                    -0.8656558990478516
                                ]
                            },
                            {
                                "list": [
                                    0.07248842716217041,
                                    -0.7155661582946777
                                ]
                            },
                            {
                                "list": [
                                    0.30620071291923525,
                                    -0.8190903663635254
                                ]
                            },
                            {
                                "list": [
                                    0.5356879234313965,
                                    -0.3428076505661011
                                ]
                            },
                            {
                                "list": [
                                    0.24008190631866456,
                                    0.1916419267654419
                                ]
                            }
                        ]
                    }
                ]
            },
            "Biases": {
                "list": [
                    0.6486685276031494,
                    -0.9403858184814453,
                    -0.6612772941589356
                ]
            },
            "Fitness": 2022.0999755859375
        },
        {
            "InputLayer": {
                "list": [
                    0.18682506680488587,
                    1.0,
                    0.06351250410079956
                ]
            },
            "HiddenLayers": {
                "list": [
                    {
                        "list": [
                            -0.6679707169532776,
                            -0.7502784132957459,
                            -0.4113602638244629,
                            0.7038736939430237,
                            0.31574776768684389,
                            -0.37366652488708498,
                            -0.26571276783943179,
                            -0.1441289484500885,
                            0.14683230221271516
                        ]
                    },
                    {
                        "list": [
                            -0.544140100479126,
                            -0.6585450768470764,
                            0.2519921660423279,
                            -0.33747828006744387,
                            0.5950429439544678,
                            0.5369808077812195,
                            -0.7080183029174805,
                            0.32696452736854555,
                            0.8607051968574524
                        ]
                    }
                ]
            },
            "OutputLayer": {
                "list": [
                    0.8248900771141052,
                    -0.5432929396629334
                ]
            },
            "Weights": {
                "list": [
                    {
                        "list": [
                            {
                                "list": [
                                    0.6435387134552002,
                                    -0.7991697788238525,
                                    -0.9878702163696289,
                                    0.04762732982635498,
                                    0.7774543762207031,
                                    0.3670930564403534,
                                    0.3965427577495575,
                                    -0.6279680728912354,
                                    -0.13094031810760499
                                ]
                            },
                            {
                                "list": [
                                    -0.9960765838623047,
                                    -0.8945057392120361,
                                    -0.34966933727264407,
                                    0.8162853717803955,
                                    0.07341897487640381,
                                    -0.5131890773773193,
                                    -0.36166608333587649,
                                    -0.11916768550872803,
                                    0.14913976192474366
                                ]
                            },
                            {
                                "list": [
                                    0.15314710140228272,
                                    0.17584502696990968,
                                    0.5972073078155518,
                                    -0.1463857889175415,
                                    0.774639368057251,
                                    -0.11213028430938721,
                                    -0.6882727146148682,
                                    0.50852370262146,
                                    -0.564079761505127
                                ]
                            }
                        ]
                    },
                    {
                        "list": [
                            {
                                "list": [
                                    0.5431013107299805,
                                    0.7047226428985596,
                                    -0.9370739459991455,
                                    -0.1379612684249878,
                                    0.03621017932891846,
                                    -0.991905927658081,
                                    0.280635803937912,
                                    0.37526270747184756,
                                    0.47955819964408877
                                ]
                            },
                            {
                                "list": [
                                    0.44508978724479678,
                                    0.7040004730224609,
                                    0.8125603199005127,
                                    -0.08868014812469483,
                                    -0.3077322244644165,
                                    0.49933215975761416,
                                    0.6792867183685303,
                                    0.5634250640869141,
                                    -0.7905447483062744
                                ]
                            },
                            {
                                "list": [
                                    -0.023335814476013185,
                                    -0.10712873935699463,
                                    0.3294825255870819,
                                    0.6630613803863525,
                                    -0.787423849105835,
                                    0.4504964053630829,
                                    0.6060948371887207,
                                    0.42070719599723818,
                                    0.015604615211486817
                                ]
                            },
                            {
                                "list": [
                                    -0.02037060260772705,
                                    -0.9790735244750977,
                                    0.9685676097869873,
                                    -0.7282679080963135,
                                    -0.6171648502349854,
                                    0.9622082710266113,
                                    -0.5007615089416504,
                                    0.7001843452453613,
                                    0.4641716182231903
                                ]
                            },
                            {
                                "list": [
                                    0.37495753169059756,
                                    0.5259566307067871,
                                    -0.5314807891845703,
                                    -0.34572112560272219,
                                    0.15439140796661378,
                                    -0.36974942684173586,
                                    -0.7098350524902344,
                                    0.7376172542572022,
                                    0.24859464168548585
                                ]
                            },
                            {
                                "list": [
                                    0.8361721038818359,
                                    0.07927238941192627,
                                    0.81392502784729,
                                    0.6439268589019775,
                                    0.608264684677124,
                                    0.6140050888061523,
                                    -0.9091951847076416,
                                    -0.8051629066467285,
                                    0.23334205150604249
                                ]
                            },
                            {
                                "list": [
                                    0.537015438079834,
                                    -0.14010846614837647,
                                    0.16514050960540772,
                                    -0.7053864002227783,
                                    -0.5354907512664795,
                                    0.7569847106933594,
                                    0.7965714931488037,
                                    0.48358890414237978,
                                    -0.5677173137664795
                                ]
                            },
                            {
                                "list": [
                                    -0.9413480758666992,
                                    -0.9415669441223145,
                                    0.5996983051300049,
                                    -0.30949580669403078,
                                    -0.6674580574035645,
                                    0.6322081089019775,
                                    -0.5506308078765869,
                                    0.8601863384246826,
                                    -0.6181285381317139
                                ]
                            },
                            {
                                "list": [
                                    -0.9124109745025635,
                                    0.8029532432556152,
                                    -0.879807710647583,
                                    -0.2268749475479126,
                                    0.7001259326934815,
                                    0.21779072284698487,
                                    0.04028809070587158,
                                    -0.10035884380340576,
                                    0.30809661746025088
                                ]
                            }
                        ]
                    },
                    {
                        "list": [
                            {
                                "list": [
                                    -0.46040403842926028,
                                    -0.7218122482299805
                                ]
                            },
                            {
                                "list": [
                                    0.5635116100311279,
                                    0.7632780075073242
                                ]
                            },
                            {
                                "list": [
                                    -0.5260317325592041,
                                    -0.7520899772644043
                                ]
                            },
                            {
                                "list": [
                                    -0.15368497371673585,
                                    -0.6711432933807373
                                ]
                            },
                            {
                                "list": [
                                    0.031992554664611819,
                                    -0.4431508779525757
                                ]
                            },
                            {
                                "list": [
                                    0.3025030791759491,
                                    -0.8454194068908691
                                ]
                            },
                            {
                                "list": [
                                    0.5092942714691162,
                                    -0.511164665222168
                                ]
                            },
                            {
                                "list": [
                                    0.922722339630127,
                                    0.06917846202850342
                                ]
                            },
                            {
                                "list": [
                                    0.8191592693328857,
                                    -0.8694348335266113
                                ]
                            }
                        ]
                    }
                ]
            },
            "Biases": {
                "list": [
                    0.059050679206848147,
                    0.4264826476573944,
                    0.5455567836761475
                ]
            },
            "Fitness": 2022.0
        },
        {
            "InputLayer": {
                "list": [
                    0.18306374549865724,
                    1.0,
                    0.013497428968548775
                ]
            },
            "HiddenLayers": {
                "list": [
                    {
                        "list": [
                            0.5764709115028381,
                            0.7921894192695618,
                            0.9227628707885742,
                            0.37012308835983279,
                            0.4971207082271576,
                            0.7385879755020142,
                            0.05347367748618126,
                            0.29686689376831057,
                            0.6387986540794373
                        ]
                    },
                    {
                        "list": [
                            -0.8682950139045715,
                            0.400886207818985,
                            -0.8671107888221741,
                            0.7407096028327942,
                            -0.8859041333198547,
                            -0.5952214598655701,
                            0.6441535949707031,
                            0.15451833605766297,
                            -0.3432844281196594
                        ]
                    }
                ]
            },
            "OutputLayer": {
                "list": [
                    -0.5191743969917297,
                    0.5728328227996826
                ]
            },
            "Weights": {
                "list": [
                    {
                        "list": [
                            {
                                "list": [
                                    -0.589301347732544,
                                    -0.424594521522522,
                                    -0.8146848678588867,
                                    0.5181243419647217,
                                    -0.8334708213806152,
                                    0.2553498446941376,
                                    -0.4722510576248169,
                                    -0.38593804836273196,
                                    -0.4220324754714966
                                ]
                            },
                            {
                                "list": [
                                    -0.2266327142715454,
                                    0.16716134548187257,
                                    0.756141185760498,
                                    -0.6936812400817871,
                                    -0.2981795072555542,
                                    -0.0994497537612915,
                                    -0.8526735305786133,
                                    -0.6184744834899902,
                                    -0.15670287609100343
                                ]
                            },
                            {
                                "list": [
                                    -0.2575143575668335,
                                    -0.5408055782318115,
                                    0.38289400935173037,
                                    -0.5743281841278076,
                                    0.08024013042449951,
                                    0.36456748843193056,
                                    -0.18513405323028565,
                                    0.004207968711853027,
                                    -0.37383949756622317
                                ]
                            }
                        ]
                    },
                    {
                        "list": [
                            {
                                "list": [
                                    0.6281487941741943,
                                    0.9933362007141113,
                                    -0.24664580821990968,
                                    0.2895464599132538,
                                    0.16312921047210694,
                                    0.610271692276001,
                                    0.7750611305236816,
                                    0.15819990634918214,
                                    0.8753170967102051
                                ]
                            },
                            {
                                "list": [
                                    -0.11651432514190674,
                                    0.663367509841919,
                                    -0.46433746814727785,
                                    0.5555393695831299,
                                    0.09114730358123779,
                                    -0.2882927656173706,
                                    0.3737654387950897,
                                    0.49013182520866396,
                                    0.011278986930847168
                                ]
                            },
                            {
                                "list": [
                                    -0.5385770797729492,
                                    0.14585649967193604,
                                    0.8777961730957031,
                                    0.7077362537384033,
                                    -0.47971975803375246,
                                    0.26286837458610537,
                                    0.07203352451324463,
                                    0.23508703708648683,
                                    -0.12164556980133057
                                ]
                            },
                            {
                                "list": [
                                    0.298258513212204,
                                    0.9242424964904785,
                                    -0.9546012878417969,
                                    0.6789047718048096,
                                    -0.511075496673584,
                                    -0.8065049648284912,
                                    0.1831876039505005,
                                    0.6293854713439941,
                                    0.023667216300964357
                                ]
                            },
                            {
                                "list": [
                                    0.9012184143066406,
                                    -0.6117653846740723,
                                    0.5000584125518799,
                                    -0.04296314716339111,
                                    0.21903550624847413,
                                    -0.5433242321014404,
                                    -0.5084884166717529,
                                    -0.25560224056243899,
                                    -0.1684938669204712
                                ]
                            },
                            {
                                "list": [
                                    -0.5603229999542236,
                                    -0.15617024898529054,
                                    -0.4756361246109009,
                                    -0.6947546005249023,
                                    -0.9470822811126709,
                                    0.7068467140197754,
                                    0.031961798667907718,
                                    0.05458343029022217,
                                    -0.6707043647766113
                                ]
                            },
                            {
                                "list": [
                                    0.7964799404144287,
                                    -0.7707240581512451,
                                    -0.8096623420715332,
                                    0.2159513235092163,
                                    0.6904194355010986,
                                    -0.5107424259185791,
                                    0.39677712321281435,
                                    0.9814283847808838,
                                    -0.878892183303833
                                ]
                            },
                            {
                                "list": [
                                    -0.8500509262084961,
                                    -0.7367351055145264,
                                    -0.19755375385284425,
                                    -0.14259207248687745,
                                    0.6036665439605713,
                                    -0.7646200656890869,
                                    0.6487441062927246,
                                    -0.9733550548553467,
                                    0.13532650470733643
                                ]
                            },
                            {
                                "list": [
                                    -0.9062039852142334,
                                    -0.024837851524353029,
                                    -0.9525072574615479,
                                    0.7213902473449707,
                                    -0.16849839687347413,
                                    -0.4633854627609253,
                                    0.5608890056610107,
                                    0.0070313215255737309,
                                    0.427305668592453
                                ]
                            }
                        ]
                    },
                    {
                        "list": [
                            {
                                "list": [
                                    -0.8718400001525879,
                                    -0.6522791385650635
                                ]
                            },
                            {
                                "list": [
                                    -0.6581110954284668,
                                    -0.5172772407531738
                                ]
                            },
                            {
                                "list": [
                                    0.1637495756149292,
                                    -0.1749058961868286
                                ]
                            },
                            {
                                "list": [
                                    -0.8412120342254639,
                                    0.4228348433971405
                                ]
                            },
                            {
                                "list": [
                                    0.1498814821243286,
                                    -0.6855452060699463
                                ]
                            },
                            {
                                "list": [
                                    -0.6032776832580566,
                                    -0.6621675491333008
                                ]
                            },
                            {
                                "list": [
                                    0.2756745517253876,
                                    -0.9507818222045898
                                ]
                            },
                            {
                                "list": [
                                    0.5462548732757568,
                                    -0.4141963720321655
                                ]
                            },
                            {
                                "list": [
                                    0.6573677062988281,
                                    -0.200384259223938
                                ]
                            }
                        ]
                    }
                ]
            },
            "Biases": {
                "list": [
                    0.9951491355895996,
                    -0.4548534154891968,
                    -0.5659348964691162
                ]
            },
            "Fitness": 2021.998291015625
        },
        {
            "InputLayer": {
                "list": [
                    0.17294912040233613,
                    -1.0,
                    0.061996255069971088
                ]
            },
            "HiddenLayers": {
                "list": [
                    {
                        "list": [
                            0.8261611461639404,
                            0.6784532070159912,
                            0.2681722044944763,
                            -0.6399404406547546,
                            0.16655035316944123,
                            0.5572091937065125,
                            0.41912341117858889,
                            0.1007949635386467,
                            -0.14664104580879212
                        ]
                    },
                    {
                        "list": [
                            0.962313175201416,
                            0.959892749786377,
                            0.2874736189842224,
                            0.7181689739227295,
                            0.3813718557357788,
                            0.08026734739542008,
                            0.8482304811477661,
                            0.642149031162262,
                            -0.1785975694656372
                        ]
                    }
                ]
            },
            "OutputLayer": {
                "list": [
                    0.8608269691467285,
                    -0.5265332460403442
                ]
            },
            "Weights": {
                "list": [
                    {
                        "list": [
                            {
                                "list": [
                                    0.6435387134552002,
                                    -0.7991697788238525,
                                    -0.9878702163696289,
                                    0.04762732982635498,
                                    0.7774543762207031,
                                    0.3670930564403534,
                                    0.3965427577495575,
                                    -0.6279680728912354,
                                    -0.13094031810760499
                                ]
                            },
                            {
                                "list": [
                                    -0.9960765838623047,
                                    -0.8945057392120361,
                                    -0.34966933727264407,
                                    0.8162853717803955,
                                    0.07341897487640381,
                                    -0.5131890773773193,
                                    -0.36166608333587649,
                                    -0.11916768550872803,
                                    0.14913976192474366
                                ]
                            },
                            {
                                "list": [
                                    0.15314710140228272,
                                    0.17584502696990968,
                                    0.5972073078155518,
                                    -0.1463857889175415,
                                    0.774639368057251,
                                    -0.11213028430938721,
                                    -0.6882727146148682,
                                    0.50852370262146,
                                    -0.564079761505127
                                ]
                            }
                        ]
                    },
                    {
                        "list": [
                            {
                                "list": [
                                    0.5431013107299805,
                                    0.7047226428985596,
                                    -0.9370739459991455,
                                    -0.1379612684249878,
                                    0.03621017932891846,
                                    -0.991905927658081,
                                    0.280635803937912,
                                    0.37526270747184756,
                                    0.47955819964408877
                                ]
                            },
                            {
                                "list": [
                                    0.44508978724479678,
                                    0.7040004730224609,
                                    0.8125603199005127,
                                    -0.08868014812469483,
                                    -0.3077322244644165,
                                    0.49933215975761416,
                                    0.6792867183685303,
                                    0.5634250640869141,
                                    -0.7905447483062744
                                ]
                            },
                            {
                                "list": [
                                    -0.023335814476013185,
                                    -0.10712873935699463,
                                    0.3294825255870819,
                                    0.6630613803863525,
                                    -0.787423849105835,
                                    0.4504964053630829,
                                    0.6060948371887207,
                                    0.42070719599723818,
                                    0.015604615211486817
                                ]
                            },
                            {
                                "list": [
                                    -0.02037060260772705,
                                    -0.9790735244750977,
                                    0.9685676097869873,
                                    -0.7282679080963135,
                                    -0.6171648502349854,
                                    0.9622082710266113,
                                    -0.5007615089416504,
                                    0.7001843452453613,
                                    0.4641716182231903
                                ]
                            },
                            {
                                "list": [
                                    0.37495753169059756,
                                    0.5259566307067871,
                                    -0.5314807891845703,
                                    -0.34572112560272219,
                                    0.15439140796661378,
                                    -0.36974942684173586,
                                    -0.7098350524902344,
                                    0.7376172542572022,
                                    0.24859464168548585
                                ]
                            },
                            {
                                "list": [
                                    0.8361721038818359,
                                    0.07927238941192627,
                                    0.81392502784729,
                                    0.6439268589019775,
                                    0.608264684677124,
                                    0.6140050888061523,
                                    -0.9091951847076416,
                                    -0.8051629066467285,
                                    0.23334205150604249
                                ]
                            },
                            {
                                "list": [
                                    0.537015438079834,
                                    -0.14010846614837647,
                                    0.16514050960540772,
                                    -0.7053864002227783,
                                    -0.5354907512664795,
                                    0.7569847106933594,
                                    0.7965714931488037,
                                    0.48358890414237978,
                                    -0.5677173137664795
                                ]
                            },
                            {
                                "list": [
                                    -0.9413480758666992,
                                    -0.9415669441223145,
                                    0.5996983051300049,
                                    -0.30949580669403078,
                                    -0.6674580574035645,
                                    0.6322081089019775,
                                    -0.5506308078765869,
                                    0.8601863384246826,
                                    -0.6181285381317139
                                ]
                            },
                            {
                                "list": [
                                    -0.9124109745025635,
                                    0.8029532432556152,
                                    -0.879807710647583,
                                    -0.2268749475479126,
                                    0.7001259326934815,
                                    0.21779072284698487,
                                    0.04028809070587158,
                                    -0.10035884380340576,
                                    0.30809661746025088
                                ]
                            }
                        ]
                    },
                    {
                        "list": [
                            {
                                "list": [
                                    -0.46040403842926028,
                                    -0.7218122482299805
                                ]
                            },
                            {
                                "list": [
                                    0.5635116100311279,
                                    0.7632780075073242
                                ]
                            },
                            {
                                "list": [
                                    -0.5260317325592041,
                                    -0.7520899772644043
                                ]
                            },
                            {
                                "list": [
                                    -0.15368497371673585,
                                    -0.6711432933807373
                                ]
                            },
                            {
                                "list": [
                                    0.031992554664611819,
                                    -0.4431508779525757
                                ]
                            },
                            {
                                "list": [
                                    0.3025030791759491,
                                    -0.8454194068908691
                                ]
                            },
                            {
                                "list": [
                                    0.5092942714691162,
                                    -0.511164665222168
                                ]
                            },
                            {
                                "list": [
                                    0.922722339630127,
                                    0.06917846202850342
                                ]
                            },
                            {
                                "list": [
                                    0.8191592693328857,
                                    -0.8694348335266113
                                ]
                            }
                        ]
                    }
                ]
            },
            "Biases": {
                "list": [
                    0.059050679206848147,
                    0.4264826476573944,
                    0.5455567836761475
                ]
            },
            "Fitness": 2011.0
        },
        {
            "InputLayer": {
                "list": [
                    0.16544261574745179,
                    -1.0,
                    0.018662214279174806
                ]
            },
            "HiddenLayers": {
                "list": [
                    {
                        "list": [
                            0.6602649688720703,
                            0.9102666974067688,
                            0.605050265789032,
                            0.5902436971664429,
                            0.6864049434661865,
                            0.7446798086166382,
                            0.5360780954360962,
                            0.8690639138221741,
                            0.6232011318206787
                        ]
                    },
                    {
                        "list": [
                            0.4856965243816376,
                            -0.973351776599884,
                            -0.7486782670021057,
                            -0.3478991389274597,
                            0.9763837456703186,
                            -0.9634398221969605,
                            0.30240195989608767,
                            -0.058554645627737048,
                            -0.6165564060211182
                        ]
                    }
                ]
            },
            "OutputLayer": {
                "list": [
                    0.006748871877789497,
                    -0.01040650624781847
                ]
            },
            "Weights": {
                "list": [
                    {
                        "list": [
                            {
                                "list": [
                                    -0.7933869361877441,
                                    -0.01612722873687744,
                                    -0.5888891220092773,
                                    -0.9500927925109863,
                                    -0.7814316749572754,
                                    0.35417434573173525,
                                    -0.8260698318481445,
                                    0.2643255889415741,
                                    0.44312378764152529
                                ]
                            },
                            {
                                "list": [
                                    -0.17739880084991456,
                                    -0.8058502674102783,
                                    -0.051596999168395999,
                                    -0.12080252170562744,
                                    -0.2334691286087036,
                                    -0.1780315637588501,
                                    0.009220242500305176,
                                    -0.5404534339904785,
                                    0.0798729658126831
                                ]
                            },
                            {
                                "list": [
                                    0.8421094417572022,
                                    -0.2964667081832886,
                                    0.8293452262878418,
                                    -0.911231279373169,
                                    0.29524990916252139,
                                    -0.3832348585128784,
                                    0.7016453742980957,
                                    0.7302854061126709,
                                    0.28691646456718447
                                ]
                            }
                        ]
                    },
                    {
                        "list": [
                            {
                                "list": [
                                    -0.11084592342376709,
                                    -0.7143840789794922,
                                    -0.9130556583404541,
                                    -0.8079981803894043,
                                    0.6035056114196777,
                                    -0.8643949031829834,
                                    0.7226755619049072,
                                    -0.011458992958068848,
                                    -0.7593796253204346
                                ]
                            },
                            {
                                "list": [
                                    0.7606053352355957,
                                    0.28287336230278017,
                                    -0.5804691314697266,
                                    0.4298405349254608,
                                    0.47258612513542178,
                                    -0.6177465915679932,
                                    -0.5436358451843262,
                                    0.8656115531921387,
                                    0.19009673595428468
                                ]
                            },
                            {
                                "list": [
                                    -0.9485788345336914,
                                    -0.2681816816329956,
                                    -0.8826911449432373,
                                    -0.09514153003692627,
                                    0.3362440764904022,
                                    -0.9504237174987793,
                                    0.6058125495910645,
                                    -0.26848018169403078,
                                    -0.18729722499847413
                                ]
                            },
                            {
                                "list": [
                                    0.24707353115081788,
                                    0.44989392161369326,
                                    0.42842742800712588,
                                    0.5754947662353516,
                                    0.978701114654541,
                                    0.7440409660339356,
                                    0.6052834987640381,
                                    0.01627504825592041,
                                    0.08609282970428467
                                ]
                            },
                            {
                                "list": [
                                    -0.4003793001174927,
                                    -0.6184372901916504,
                                    0.6604421138763428,
                                    -0.5652720928192139,
                                    0.9592797756195068,
                                    -0.12632286548614503,
                                    -0.9764842987060547,
                                    0.4362184703350067,
                                    -0.469662070274353
                                ]
                            },
                            {
                                "list": [
                                    -0.0015228986740112305,
                                    -0.9187114238739014,
                                    -0.22245562076568604,
                                    0.4827441871166229,
                                    -0.672637939453125,
                                    -0.4142962694168091,
                                    -0.17442071437835694,
                                    0.08509480953216553,
                                    0.32935282588005068
                                ]
                            },
                            {
                                "list": [
                                    -0.2513200044631958,
                                    -0.4861408472061157,
                                    0.8323616981506348,
                                    -0.5895955562591553,
                                    -0.6845378875732422,
                                    -0.2671910524368286,
                                    0.47075316309928896,
                                    -0.3707159757614136,
                                    0.8232104778289795
                                ]
                            },
                            {
                                "list": [
                                    0.7644870281219482,
                                    -0.615354061126709,
                                    0.2317410707473755,
                                    -0.4116164445877075,
                                    0.5243663787841797,
                                    -0.42758357524871828,
                                    -0.5585577487945557,
                                    -0.6551780700683594,
                                    -0.528853178024292
                                ]
                            },
                            {
                                "list": [
                                    -0.03945267200469971,
                                    -0.39741790294647219,
                                    -0.9676156044006348,
                                    0.14301574230194093,
                                    0.39673230051994326,
                                    0.12357509136199951,
                                    0.848883867263794,
                                    -0.6274945735931397,
                                    -0.5510008335113525
                                ]
                            }
                        ]
                    },
                    {
                        "list": [
                            {
                                "list": [
                                    -0.4141796827316284,
                                    0.5329475402832031
                                ]
                            },
                            {
                                "list": [
                                    0.014616608619689942,
                                    -0.5849404335021973
                                ]
                            },
                            {
                                "list": [
                                    -0.5148944854736328,
                                    0.40418264269828799
                                ]
                            },
                            {
                                "list": [
                                    -0.94046950340271,
                                    -0.8048000335693359
                                ]
                            },
                            {
                                "list": [
                                    -0.38385069370269778,
                                    -0.3662985563278198
                                ]
                            },
                            {
                                "list": [
                                    0.12418663501739502,
                                    0.09576547145843506
                                ]
                            },
                            {
                                "list": [
                                    0.39699217677116396,
                                    -0.7160599231719971
                                ]
                            },
                            {
                                "list": [
                                    -0.07958781719207764,
                                    0.9475338459014893
                                ]
                            },
                            {
                                "list": [
                                    0.4192957580089569,
                                    0.37590572237968447
                                ]
                            }
                        ]
                    }
                ]
            },
            "Biases": {
                "list": [
                    0.731428861618042,
                    0.11023342609405518,
                    0.1377028226852417
                ]
            },
            "Fitness": 2009.79833984375
        },
        {
            "InputLayer": {
                "list": [
                    0.19973137974739076,
                    -1.0,
                    0.021729258820414544
                ]
            },
            "HiddenLayers": {
                "list": [
                    {
                        "list": [
                            0.9610406756401062,
                            0.917045533657074,
                            0.7602277398109436,
                            0.021459979936480523,
                            0.7306462526321411,
                            0.8886541724205017,
                            0.8503261208534241,
                            0.6837961077690125,
                            0.5675268769264221
                        ]
                    },
                    {
                        "list": [
                            0.2455304116010666,
                            0.3751705586910248,
                            -0.43935540318489077,
                            -0.8666525483131409,
                            -0.9346264600753784,
                            0.3534717261791229,
                            -0.5605847835540772,
                            0.7635265588760376,
                            -0.9149783849716187
                        ]
                    }
                ]
            },
            "OutputLayer": {
                "list": [
                    -0.0506899356842041,
                    -0.056717123836278918
                ]
            },
            "Weights": {
                "list": [
                    {
                        "list": [
                            {
                                "list": [
                                    0.6435387134552002,
                                    -0.7991697788238525,
                                    -0.9878702163696289,
                                    0.04762732982635498,
                                    0.7774543762207031,
                                    0.3670930564403534,
                                    0.3965427577495575,
                                    -0.6279680728912354,
                                    -0.13094031810760499
                                ]
                            },
                            {
                                "list": [
                                    -0.9960765838623047,
