{
    "list": [
        {
            "InputLayer": {
                "list": [
                    0.1962442845106125,
                    1.0,
                    0.17473722994327546
                ]
            },
            "HiddenLayers": {
                "list": [
                    {
                        "list": [
                            -0.30717727541923525,
                            -0.31526926159858706,
                            -0.7997162342071533,
                            -0.8973914980888367,
                            0.28240033984184267,
                            -0.8843901753425598,
                            -0.07181093841791153,
                            -0.5288688540458679,
                            -0.0609462633728981
                        ]
                    },
                    {
                        "list": [
                            0.958251416683197,
                            -0.9321021437644959,
                            -0.4721103608608246,
                            -0.06202878803014755,
                            -0.5690706372261047,
                            -0.20786596834659577,
                            -0.5323701500892639,
                            0.004249342251569033,
                            0.7745857834815979
                        ]
                    }
                ]
            },
            "OutputLayer": {
                "list": [
                    0.9237256050109863,
                    -0.022245848551392556
                ]
            },
            "Weights": {
                "list": [
                    {
                        "list": [
                            {
                                "list": [
                                    -0.7205808162689209,
                                    0.31114980578422549,
                                    -0.6665916442871094,
                                    -0.5458192825317383,
                                    -0.9775536060333252,
                                    -0.6311004161834717,
                                    0.866016149520874,
                                    0.5550143718719482,
                                    0.5245451927185059
                                ]
                            },
                            {
                                "list": [
                                    0.3526401221752167,
                                    0.02466404438018799,
                                    -0.33589351177215578,
                                    -0.667555570602417,
                                    0.8926923274993897,
                                    -0.7261061668395996,
                                    0.21742427349090577,
                                    -0.3088792562484741,
                                    0.21250522136688233
                                ]
                            },
                            {
                                "list": [
                                    -0.03206336498260498,
                                    0.6349091529846191,
                                    -0.6184325218200684,
                                    -0.9210090637207031,
                                    0.6437592506408691,
                                    -0.12910830974578858,
                                    0.36479589343070986,
                                    0.7693872451782227,
                                    0.8388998508453369
                                ]
                            }
                        ]
                    },
                    {
                        "list": [
                            {
                                "list": [
                                    0.4418153464794159,
                                    0.23431050777435304,
                                    -0.45942962169647219,
                                    0.16822898387908936,
                                    -0.7519378662109375,
                                    0.047149658203125,
                                    0.19152843952178956,
                                    0.005372166633605957,
                                    0.08181273937225342
                                ]
                            },
                            {
                                "list": [
                                    0.263653963804245,
                                    0.793657660484314,
                                    0.7825016975402832,
                                    0.9269847869873047,
                                    -0.6004819869995117,
                                    -0.13451635837554933,
                                    0.10455036163330078,
                                    0.5339932441711426,
                                    -0.20124828815460206
                                ]
                            },
                            {
                                "list": [
                                    -0.9251654148101807,
                                    -0.7404851913452148,
                                    0.9095242023468018,
                                    -0.5064074993133545,
                                    0.8471653461456299,
                                    -0.9090228080749512,
                                    0.32071420550346377,
                                    0.07638311386108399,
                                    -0.007415056228637695
                                ]
                            },
                            {
                                "list": [
                                    -0.7975066900253296,
                                    0.7154597043991089,
                                    -0.2900768518447876,
                                    -0.11504113674163819,
                                    -0.19862210750579835,
                                    0.42459678649902346,
                                    0.4201917350292206,
                                    0.1203838586807251,
                                    -0.9195828437805176
                                ]
                            },
                            {
                                "list": [
                                    0.9345850944519043,
                                    -0.9678568840026856,
                                    -0.22332775592803956,
                                    0.4112037420272827,
                                    0.43002983927726748,
                                    -0.08588829636573792,
                                    0.7768468856811523,
                                    0.04597628116607666,
                                    0.20549941062927247
                                ]
                            },
                            {
                                "list": [
                                    -0.25153684616088869,
                                    0.4100775420665741,
                                    -0.4979327917098999,
                                    0.7448725700378418,
                                    0.14807403087615968,
                                    0.004903435707092285,
                                    -0.3412536382675171,
                                    0.13015615940093995,
                                    0.02308213710784912
                                ]
                            },
                            {
                                "list": [
                                    0.9501888751983643,
                                    0.9015243053436279,
                                    -0.07367217540740967,
                                    0.20771941542625428,
                                    -0.08344733715057373,
                                    0.8587372303009033,
                                    -0.65775465965271,
                                    0.7886061668395996,
                                    -0.8083286285400391
                                ]
                            },
                            {
                                "list": [
                                    -0.6394140720367432,
                                    0.9689342975616455,
                                    0.4598183333873749,
                                    -0.6671350002288818,
                                    1.0,
                                    0.8235695362091065,
                                    0.8412595987319946,
                                    -1.0,
                                    -0.2104586362838745
                                ]
                            },
                            {
                                "list": [
                                    0.6158666610717773,
                                    0.9439601898193359,
                                    0.790020227432251,
                                    -0.15981519222259522,
                                    0.05544865131378174,
                                    0.4521908462047577,
                                    -0.653394341468811,
                                    -0.07666981220245362,
                                    0.21877726912498475
                                ]
                            }
                        ]
                    },
                    {
                        "list": [
                            {
                                "list": [
                                    0.604374885559082,
                                    0.02370738983154297
                                ]
                            },
                            {
                                "list": [
                                    -1.0,
                                    0.8719322681427002
                                ]
                            },
                            {
                                "list": [
                                    -0.08598315715789795,
                                    -0.7199888229370117
                                ]
                            },
                            {
                                "list": [
                                    0.6282074451446533,
                                    -1.0
                                ]
                            },
                            {
                                "list": [
                                    0.16162168979644776,
                                    -0.04148268699645996
                                ]
                            },
                            {
                                "list": [
                                    0.5180120468139648,
                                    -0.512155294418335
                                ]
                            },
                            {
                                "list": [
                                    0.6543734073638916,
                                    0.35561272501945498
                                ]
                            },
                            {
                                "list": [
                                    0.22721228003501893,
                                    0.8493261337280273
                                ]
                            },
                            {
                                "list": [
                                    0.22394263744354249,
                                    -0.0685509443283081
                                ]
                            }
                        ]
                    }
                ]
            },
            "Biases": {
                "list": [
                    -0.5230531692504883,
                    -0.031418442726135257,
                    0.4745607078075409
                ]
            },
            "Fitness": 64285.0
        },
        {
            "InputLayer": {
                "list": [
                    0.17259345948696137,
                    1.0,
                    0.1922556757926941
                ]
            },
            "HiddenLayers": {
                "list": [
                    {
                        "list": [
                            -0.29217711091041567,
                            -0.31187567114830019,
                            -0.7979316711425781,
                            -0.8980176448822022,
                            0.31373801827430727,
                            -0.8816000819206238,
                            -0.08581451326608658,
                            -0.5286152958869934,
                            -0.05866418033838272
                        ]
                    },
                    {
                        "list": [
                            0.959206759929657,
                            -0.9378902912139893,
                            -0.4866988956928253,
                            -0.056762970983982089,
                            -0.573997974395752,
                            -0.23276853561401368,
                            -0.5151090025901794,
                            -0.014538748189806939,
                            0.7778852581977844
                        ]
                    }
                ]
            },
            "OutputLayer": {
                "list": [
                    0.9244554042816162,
                    -0.01912032999098301
                ]
            },
            "Weights": {
                "list": [
                    {
                        "list": [
                            {
                                "list": [
                                    -0.7205808162689209,
                                    0.31114980578422549,
                                    -0.6665916442871094,
                                    -0.5458192825317383,
                                    -0.9775536060333252,
                                    -0.6311004161834717,
                                    0.866016149520874,
                                    0.5550143718719482,
                                    0.5245451927185059
                                ]
                            },
                            {
                                "list": [
                                    0.3526401221752167,
                                    0.02466404438018799,
                                    -0.33589351177215578,
                                    -0.667555570602417,
                                    0.8926923274993897,
                                    -0.7261061668395996,
                                    0.21742427349090577,
                                    -0.3088792562484741,
                                    0.21250522136688233
                                ]
                            },
                            {
                                "list": [
                                    -0.03206336498260498,
                                    0.6349091529846191,
                                    -0.6184325218200684,
                                    -0.9210090637207031,
                                    0.6437592506408691,
                                    -0.12910830974578858,
                                    0.36479589343070986,
                                    0.7693872451782227,
                                    0.8388998508453369
                                ]
                            }
                        ]
                    },
                    {
                        "list": [
                            {
                                "list": [
                                    0.4418153464794159,
                                    0.23431050777435304,
                                    -0.45942962169647219,
                                    0.16822898387908936,
                                    -0.7519378662109375,
                                    0.047149658203125,
                                    0.19152843952178956,
                                    0.005372166633605957,
                                    0.08181273937225342
                                ]
                            },
                            {
                                "list": [
                                    0.263653963804245,
                                    0.793657660484314,
                                    0.7825016975402832,
                                    0.9269847869873047,
                                    -0.6004819869995117,
                                    -0.13451635837554933,
                                    0.10455036163330078,
                                    0.5339932441711426,
                                    -0.20124828815460206
                                ]
                            },
                            {
                                "list": [
                                    -0.9251654148101807,
                                    -0.7404851913452148,
                                    0.9095242023468018,
                                    -0.5064074993133545,
                                    0.8471653461456299,
                                    -0.9090228080749512,
                                    0.32071420550346377,
                                    0.07638311386108399,
                                    -0.007415056228637695
                                ]
                            },
                            {
                                "list": [
                                    -0.7975066900253296,
                                    0.7154597043991089,
                                    -0.2900768518447876,
                                    -0.11504113674163819,
                                    -0.19862210750579835,
                                    0.42459678649902346,
                                    0.4201917350292206,
                                    0.1203838586807251,
                                    -0.9195828437805176
                                ]
                            },
                            {
                                "list": [
                                    0.9345850944519043,
                                    -0.9678568840026856,
                                    -0.22332775592803956,
                                    0.4112037420272827,
                                    0.43002983927726748,
                                    -0.08588829636573792,
                                    0.7768468856811523,
                                    0.04597628116607666,
                                    0.20549941062927247
                                ]
                            },
                            {
                                "list": [
                                    -0.25153684616088869,
                                    0.4100775420665741,
                                    -0.4979327917098999,
                                    0.7448725700378418,
                                    0.14807403087615968,
                                    0.004903435707092285,
                                    -0.3412536382675171,
                                    0.13015615940093995,
                                    0.02308213710784912
                                ]
                            },
                            {
                                "list": [
                                    0.9501888751983643,
                                    0.9015243053436279,
                                    -0.07367217540740967,
                                    0.20771941542625428,
                                    -0.08344733715057373,
                                    0.8587372303009033,
                                    -0.65775465965271,
                                    0.7886061668395996,
                                    -0.8083286285400391
                                ]
                            },
                            {
                                "list": [
                                    -0.6394140720367432,
                                    0.9689342975616455,
                                    0.4598183333873749,
                                    -0.6671350002288818,
                                    1.0,
                                    0.8235695362091065,
                                    0.8412595987319946,
                                    -1.0,
                                    -0.2104586362838745
                                ]
                            },
                            {
                                "list": [
                                    0.6158666610717773,
                                    0.9439601898193359,
                                    0.790020227432251,
                                    -0.15981519222259522,
                                    0.05544865131378174,
                                    0.4521908462047577,
                                    -0.653394341468811,
                                    -0.07666981220245362,
                                    0.21877726912498475
                                ]
                            }
                        ]
                    },
                    {
                        "list": [
                            {
                                "list": [
                                    0.604374885559082,
                                    0.02370738983154297
                                ]
                            },
                            {
                                "list": [
                                    -1.0,
                                    0.8719322681427002
                                ]
                            },
                            {
                                "list": [
                                    -0.08598315715789795,
                                    -0.7199888229370117
                                ]
                            },
                            {
                                "list": [
                                    0.6282074451446533,
                                    -1.0
                                ]
                            },
                            {
                                "list": [
                                    0.16162168979644776,
                                    -0.04148268699645996
                                ]
                            },
                            {
                                "list": [
                                    0.5180120468139648,
                                    -0.512155294418335
                                ]
                            },
                            {
                                "list": [
                                    0.6543734073638916,
                                    0.35561272501945498
                                ]
                            },
                            {
                                "list": [
                                    0.22721228003501893,
                                    0.8493261337280273
                                ]
                            },
                            {
                                "list": [
                                    0.22394263744354249,
                                    -0.0685509443283081
                                ]
                            }
                        ]
                    }
                ]
            },
            "Biases": {
                "list": [
                    -0.5230531692504883,
                    -0.042493343353271487,
                    0.4745607078075409
                ]
            },
            "Fitness": 56175.0
        },
        {
            "InputLayer": {
                "list": [
                    0.020430784672498704,
                    1.0,
                    0.06134803220629692
                ]
            },
            "HiddenLayers": {
                "list": [
                    {
                        "list": [
                            -0.18494892120361329,
                            -0.4244288504123688,
                            -0.7213746905326843,
                            -0.8505843877792358,
                            0.37063613533973696,
                            -0.8537905216217041,
                            -0.2594848573207855,
                            -0.6488978862762451,
                            -0.2433822900056839
                        ]
                    },
                    {
                        "list": [
                            0.9354488253593445,
                            -0.979587733745575,
                            -0.6734964847564697,
                            -0.05840255692601204,
                            -0.5963378548622131,
                            -0.5311691164970398,
                            -0.32469111680984499,
                            -0.04767454043030739,
                            0.8261622190475464
                        ]
                    }
                ]
            },
            "OutputLayer": {
                "list": [
                    0.9261909127235413,
                    0.263722687959671
                ]
            },
            "Weights": {
                "list": [
                    {
                        "list": [
                            {
                                "list": [
                                    -0.7205808162689209,
                                    0.31114980578422549,
                                    -0.6665916442871094,
                                    -0.5458192825317383,
                                    -0.9775536060333252,
                                    -0.6311004161834717,
                                    0.866016149520874,
                                    0.5550143718719482,
                                    0.5245451927185059
                                ]
                            },
                            {
                                "list": [
                                    0.3526401221752167,
                                    0.02466404438018799,
                                    -0.33589351177215578,
                                    -0.667555570602417,
                                    0.8926923274993897,
                                    -0.7261061668395996,
                                    0.21742427349090577,
                                    -0.3088792562484741,
                                    0.21250522136688233
                                ]
                            },
                            {
                                "list": [
                                    -0.03206336498260498,
                                    0.6349091529846191,
                                    -0.6184325218200684,
                                    -0.9210090637207031,
                                    0.6437592506408691,
                                    -0.12910830974578858,
                                    0.36479589343070986,
                                    0.7693872451782227,
                                    0.8388998508453369
                                ]
                            }
                        ]
                    },
                    {
                        "list": [
                            {
                                "list": [
                                    0.4418153464794159,
                                    0.23431050777435304,
                                    -0.45942962169647219,
                                    0.16822898387908936,
                                    -0.7519378662109375,
                                    0.047149658203125,
                                    0.19152843952178956,
                                    0.005372166633605957,
                                    0.08181273937225342
                                ]
                            },
                            {
                                "list": [
                                    0.263653963804245,
                                    0.793657660484314,
                                    0.7825016975402832,
                                    0.9269847869873047,
                                    -0.6004819869995117,
                                    -0.13451635837554933,
                                    0.10455036163330078,
                                    0.5339932441711426,
                                    -0.20124828815460206
                                ]
                            },
                            {
                                "list": [
                                    -0.9251654148101807,
                                    -0.7404851913452148,
                                    0.9095242023468018,
                                    -0.5064074993133545,
                                    0.8471653461456299,
                                    -0.9090228080749512,
                                    0.32071420550346377,
                                    0.07638311386108399,
                                    -0.007415056228637695
                                ]
                            },
                            {
                                "list": [
                                    -0.7975066900253296,
                                    0.7154597043991089,
                                    -0.2900768518447876,
                                    -0.11504113674163819,
                                    -0.19862210750579835,
                                    0.42459678649902346,
                                    0.4201917350292206,
                                    0.1203838586807251,
                                    -0.9195828437805176
                                ]
                            },
                            {
                                "list": [
                                    0.9345850944519043,
                                    -0.9678568840026856,
                                    -0.22332775592803956,
                                    0.4112037420272827,
                                    0.43002983927726748,
                                    -0.08588829636573792,
                                    0.7768468856811523,
                                    0.04597628116607666,
                                    0.20549941062927247
                                ]
                            },
                            {
                                "list": [
                                    -0.25153684616088869,
                                    0.4100775420665741,
                                    -0.4979327917098999,
                                    0.7448725700378418,
                                    0.14807403087615968,
                                    0.004903435707092285,
                                    -0.3412536382675171,
                                    0.13015615940093995,
                                    0.02308213710784912
                                ]
                            },
                            {
                                "list": [
                                    0.9501888751983643,
                                    0.9015243053436279,
                                    -0.07367217540740967,
                                    0.20771941542625428,
                                    -0.08344733715057373,
                                    0.8587372303009033,
                                    -0.65775465965271,
                                    0.7886061668395996,
                                    -0.8083286285400391
                                ]
                            },
                            {
                                "list": [
                                    -0.6394140720367432,
                                    0.9689342975616455,
                                    0.4598183333873749,
                                    -0.6671350002288818,
                                    1.0,
                                    0.8235695362091065,
                                    0.8412595987319946,
                                    -1.0,
                                    -0.2104586362838745
                                ]
                            },
                            {
                                "list": [
                                    0.6158666610717773,
                                    0.9439601898193359,
                                    0.790020227432251,
                                    -0.15981519222259522,
                                    0.05544865131378174,
                                    0.4521908462047577,
                                    -0.653394341468811,
                                    -0.07666981220245362,
                                    0.21877726912498475
                                ]
                            }
                        ]
                    },
                    {
                        "list": [
                            {
                                "list": [
                                    0.604374885559082,
                                    0.02370738983154297
                                ]
                            },
                            {
                                "list": [
                                    -1.0,
                                    0.8719322681427002
                                ]
                            },
                            {
                                "list": [
                                    -0.08598315715789795,
                                    -0.7199888229370117
                                ]
                            },
                            {
                                "list": [
                                    0.6282074451446533,
                                    -1.0
                                ]
                            },
                            {
                                "list": [
                                    0.16162168979644776,
                                    -0.04148268699645996
                                ]
                            },
                            {
                                "list": [
                                    0.5180120468139648,
                                    -0.512155294418335
                                ]
                            },
                            {
                                "list": [
                                    0.6543734073638916,
                                    0.35561272501945498
                                ]
                            },
                            {
                                "list": [
                                    0.22721228003501893,
                                    0.8493261337280273
                                ]
                            },
                            {
                                "list": [
                                    0.22394263744354249,
                                    -0.0685509443283081
                                ]
                            }
                        ]
                    }
                ]
            },
            "Biases": {
                "list": [
                    -0.5230531692504883,
                    -0.031418442726135257,
                    0.4745607078075409
                ]
            },
            "Fitness": 23525.0
        },
        {
            "InputLayer": {
                "list": [
                    0.2055741548538208,
                    1.0,
                    0.17492158710956574
                ]
            },
            "HiddenLayers": {
                "list": [
                    {
                        "list": [
                            -0.31325849890708926,
                            -0.3125467896461487,
                            -0.8019875884056091,
                            -0.8984111547470093,
                            0.27409565448760989,
                            -0.8856713771820068,
                            -0.06370129436254502,
                            -0.5250260233879089,
                            -0.05591493844985962
                        ]
                    },
                    {
                        "list": [
                            0.958402693271637,
                            -0.9287471175193787,
                            -0.46368178725242617,
                            -0.06529976427555084,
                            -0.568461537361145,
                            -0.19434620440006257,
                            -0.5419319868087769,
                            0.006992270704358816,
                            0.7713292241096497
                        ]
                    }
                ]
            },
            "OutputLayer": {
                "list": [
                    0.9229434728622437,
                    -0.029906025156378747
                ]
            },
            "Weights": {
                "list": [
                    {
                        "list": [
                            {
                                "list": [
                                    -0.7205808162689209,
                                    0.31114980578422549,
                                    -0.6665916442871094,
                                    -0.5458192825317383,
                                    -0.9775536060333252,
                                    -0.6311004161834717,
                                    0.866016149520874,
                                    0.5550143718719482,
                                    0.5245451927185059
                                ]
                            },
                            {
                                "list": [
                                    0.3526401221752167,
                                    0.02466404438018799,
                                    -0.33589351177215578,
                                    -0.667555570602417,
                                    0.8926923274993897,
                                    -0.7261061668395996,
                                    0.21742427349090577,
                                    -0.3088792562484741,
                                    0.21250522136688233
                                ]
                            },
                            {
                                "list": [
                                    -0.03206336498260498,
                                    0.6349091529846191,
                                    -0.6184325218200684,
                                    -0.9210090637207031,
                                    0.6437592506408691,
                                    -0.12910830974578858,
                                    0.36479589343070986,
                                    0.7693872451782227,
                                    0.8388998508453369
                                ]
                            }
                        ]
                    },
                    {
                        "list": [
                            {
                                "list": [
                                    0.4418153464794159,
                                    0.23431050777435304,
                                    -0.45942962169647219,
                                    0.16822898387908936,
                                    -0.7519378662109375,
                                    0.047149658203125,
                                    0.19152843952178956,
                                    0.005372166633605957,
                                    0.08181273937225342
                                ]
                            },
                            {
                                "list": [
                                    0.263653963804245,
                                    0.793657660484314,
                                    0.7825016975402832,
                                    0.9269847869873047,
                                    -0.6004819869995117,
                                    -0.13451635837554933,
                                    0.10455036163330078,
                                    0.5339932441711426,
                                    -0.20124828815460206
                                ]
                            },
                            {
                                "list": [
                                    -0.9251654148101807,
                                    -0.7404851913452148,
                                    0.9095242023468018,
                                    -0.5064074993133545,
                                    0.8471653461456299,
                                    -0.9090228080749512,
                                    0.32071420550346377,
                                    0.07638311386108399,
                                    -0.007415056228637695
                                ]
                            },
                            {
                                "list": [
                                    -0.7975066900253296,
                                    0.7154597043991089,
                                    -0.2900768518447876,
                                    -0.11504113674163819,
                                    -0.19862210750579835,
                                    0.42459678649902346,
                                    0.4201917350292206,
                                    0.1203838586807251,
                                    -0.9195828437805176
                                ]
                            },
                            {
                                "list": [
                                    0.9345850944519043,
                                    -0.9678568840026856,
                                    -0.22332775592803956,
                                    0.4112037420272827,
                                    0.43002983927726748,
                                    -0.08588829636573792,
                                    0.7768468856811523,
                                    0.04597628116607666,
                                    0.20549941062927247
                                ]
                            },
                            {
                                "list": [
                                    -0.25153684616088869,
                                    0.4100775420665741,
                                    -0.4979327917098999,
                                    0.7448725700378418,
                                    0.14807403087615968,
                                    0.004903435707092285,
                                    -0.3412536382675171,
                                    0.13015615940093995,
                                    0.02308213710784912
                                ]
                            },
                            {
                                "list": [
                                    0.9501888751983643,
                                    0.9015243053436279,
                                    -0.07367217540740967,
                                    0.20771941542625428,
                                    -0.08344733715057373,
                                    0.8587372303009033,
                                    -0.65775465965271,
                                    0.7886061668395996,
                                    -0.8083286285400391
                                ]
                            },
                            {
                                "list": [
                                    -0.6394140720367432,
                                    0.9689342975616455,
                                    0.4598183333873749,
                                    -0.6671350002288818,
                                    1.0,
                                    0.8235695362091065,
                                    0.8412595987319946,
                                    -1.0,
                                    -0.2104586362838745
                                ]
                            },
                            {
                                "list": [
                                    0.6158666610717773,
                                    0.9439601898193359,
                                    0.790020227432251,
                                    -0.15981519222259522,
                                    0.05544865131378174,
                                    0.4521908462047577,
                                    -0.653394341468811,
                                    -0.07666981220245362,
                                    0.21877726912498475
                                ]
                            }
                        ]
                    },
                    {
                        "list": [
                            {
                                "list": [
                                    0.604374885559082,
                                    0.02370738983154297
                                ]
                            },
                            {
                                "list": [
                                    -1.0,
                                    0.8719322681427002
                                ]
                            },
                            {
                                "list": [
                                    -0.08598315715789795,
                                    -0.7199888229370117
                                ]
                            },
                            {
                                "list": [
                                    0.6282074451446533,
                                    -1.0
                                ]
                            },
                            {
                                "list": [
                                    0.16162168979644776,
                                    -0.04148268699645996
                                ]
                            },
                            {
                                "list": [
                                    0.5180120468139648,
                                    -0.512155294418335
                                ]
                            },
                            {
                                "list": [
                                    0.6543734073638916,
                                    0.35561272501945498
                                ]
                            },
                            {
                                "list": [
                                    0.22721228003501893,
                                    0.8493261337280273
                                ]
                            },
                            {
                                "list": [
                                    0.22394263744354249,
                                    -0.0685509443283081
                                ]
                            }
                        ]
                    }
                ]
            },
            "Biases": {
                "list": [
                    -0.5230531692504883,
                    -0.031418442726135257,
                    0.4745607078075409
                ]
            },
            "Fitness": 17920.0
        },
        {
            "InputLayer": {
                "list": [
                    0.2039646953344345,
                    0.9999956488609314,
                    0.15055565536022187
                ]
            },
            "HiddenLayers": {
                "list": [
                    {
                        "list": [
                            -0.31150832772254946,
                            -0.3268848955631256,
                            -0.7961524724960327,
                            -0.8938177824020386,
                            0.2609900236129761,
                            -0.8847702145576477,
                            -0.07393588125705719,
                            -0.5391043424606323,
                            -0.07710570842027664
                        ]
                    },
                    {
                        "list": [
                            0.955163836479187,
                            -0.9342764616012573,
                            -0.48539844155311587,
                            -0.0757923275232315,
                            -0.5742384791374207,
                            -0.22320659458637238,
                            -0.541307806968689,
                            0.0074905878864228729,
                            0.7724160552024841
                        ]
                    }
                ]
            },
            "OutputLayer": {
                "list": [
                    0.9204959273338318,
                    0.006906608119606972
                ]
            },
            "Weights": {
                "list": [
                    {
                        "list": [
                            {
                                "list": [
                                    -0.7205808162689209,
                                    0.31114980578422549,
                                    -0.6665916442871094,
                                    -0.5458192825317383,
                                    -0.9775536060333252,
                                    -0.6311004161834717,
                                    0.866016149520874,
                                    0.5550143718719482,
                                    0.5245451927185059
                                ]
                            },
                            {
                                "list": [
                                    0.3526401221752167,
                                    0.02466404438018799,
                                    -0.33589351177215578,
                                    -0.667555570602417,
                                    0.8926923274993897,
                                    -0.7261061668395996,
                                    0.21742427349090577,
                                    -0.3088792562484741,
                                    0.21250522136688233
                                ]
                            },
                            {
                                "list": [
                                    -0.03206336498260498,
                                    0.6349091529846191,
                                    -0.6184325218200684,
                                    -0.9210090637207031,
                                    0.6437592506408691,
                                    -0.12910830974578858,
                                    0.36479589343070986,
                                    0.7693872451782227,
                                    0.8388998508453369
                                ]
                            }
                        ]
                    },
                    {
                        "list": [
                            {
                                "list": [
                                    0.4418153464794159,
                                    0.23431050777435304,
                                    -0.45942962169647219,
                                    0.16822898387908936,
                                    -0.7519378662109375,
                                    0.047149658203125,
                                    0.19152843952178956,
                                    0.005372166633605957,
                                    0.08181273937225342
                                ]
                            },
                            {
                                "list": [
                                    0.263653963804245,
                                    0.793657660484314,
                                    0.7825016975402832,
                                    0.9269847869873047,
                                    -0.6004819869995117,
                                    -0.13451635837554933,
                                    0.10455036163330078,
                                    0.5339932441711426,
                                    -0.20124828815460206
                                ]
                            },
                            {
                                "list": [
                                    -0.9251654148101807,
                                    -0.7404851913452148,
                                    0.9095242023468018,
                                    -0.5064074993133545,
                                    0.8471653461456299,
                                    -0.9090228080749512,
                                    0.32071420550346377,
                                    0.07638311386108399,
                                    -0.007415056228637695
                                ]
                            },
                            {
                                "list": [
                                    -0.7975066900253296,
                                    0.7154597043991089,
                                    -0.2900768518447876,
                                    -0.11504113674163819,
                                    -0.19862210750579835,
                                    0.42459678649902346,
                                    0.4201917350292206,
                                    0.1203838586807251,
                                    -0.9195828437805176
                                ]
                            },
                            {
                                "list": [
                                    0.9345850944519043,
                                    -0.9678568840026856,
                                    -0.22332775592803956,
                                    0.4112037420272827,
                                    0.43002983927726748,
                                    -0.08588829636573792,
                                    0.7768468856811523,
                                    0.04597628116607666,
                                    0.20549941062927247
                                ]
                            },
                            {
                                "list": [
                                    -0.25153684616088869,
                                    0.4100775420665741,
                                    -0.4979327917098999,
                                    0.7448725700378418,
                                    0.14807403087615968,
                                    0.004903435707092285,
                                    -0.3412536382675171,
                                    0.13015615940093995,
                                    0.02308213710784912
                                ]
                            },
                            {
                                "list": [
                                    0.9501888751983643,
                                    0.9015243053436279,
                                    -0.07367217540740967,
                                    0.20771941542625428,
                                    -0.08344733715057373,
                                    0.8587372303009033,
                                    -0.65775465965271,
                                    0.7886061668395996,
                                    -0.8083286285400391
                                ]
                            },
                            {
                                "list": [
                                    -0.6394140720367432,
                                    0.9689342975616455,
                                    0.4598183333873749,
                                    -0.6671350002288818,
                                    1.0,
                                    0.8235695362091065,
                                    0.8412595987319946,
                                    -1.0,
                                    -0.2104586362838745
                                ]
                            },
                            {
                                "list": [
                                    0.6158666610717773,
                                    0.9439601898193359,
                                    0.790020227432251,
                                    -0.15981519222259522,
                                    0.05544865131378174,
                                    0.4521908462047577,
                                    -0.653394341468811,
                                    -0.07666981220245362,
                                    0.21877726912498475
                                ]
                            }
                        ]
                    },
                    {
                        "list": [
                            {
                                "list": [
                                    0.604374885559082,
                                    0.02370738983154297
                                ]
                            },
                            {
                                "list": [
                                    -1.0,
                                    0.8719322681427002
                                ]
                            },
                            {
                                "list": [
                                    -0.08598315715789795,
                                    -0.7199888229370117
                                ]
                            },
                            {
                                "list": [
                                    0.6282074451446533,
                                    -1.0
                                ]
                            },
                            {
                                "list": [
                                    0.16162168979644776,
                                    -0.04148268699645996
                                ]
                            },
                            {
                                "list": [
                                    0.5180120468139648,
                                    -0.512155294418335
                                ]
                            },
                            {
                                "list": [
                                    0.6543734073638916,
                                    0.35561272501945498
                                ]
                            },
                            {
                                "list": [
                                    0.22721228003501893,
                                    0.8493261337280273
                                ]
                            },
                            {
                                "list": [
                                    0.22394263744354249,
                                    -0.0685509443283081
                                ]
                            }
                        ]
                    }
                ]
            },
            "Biases": {
                "list": [
                    -0.5230531692504883,
                    -0.031418442726135257,
                    0.4745607078075409
                ]
            },
            "Fitness": 17750.0
        },
        {
            "InputLayer": {
                "list": [
                    0.20494984090328217,
                    1.0,
                    0.18968458473682404
                ]
            },
            "HiddenLayers": {
                "list": [
                    {
                        "list": [
                            -0.3132796883583069,
                            -0.3042409420013428,
                            -0.8050751090049744,
                            -0.9009374380111694,
                            0.28342369198799136,
                            -0.88599693775177,
                            -0.05887468904256821,
                            -0.5170034766197205,
                            -0.043887924402952197
                        ]
                    },
                    {
                        "list": [
                            0.9602134227752686,
                            -0.9257495403289795,
                            -0.45154857635498049,
                            -0.05845452845096588,
                            -0.5649557709693909,
                            -0.1789005845785141,
                            -0.5405985116958618,
                            0.00613561412319541,
                            0.7711766362190247
                        ]
                    }
                ]
            },
            "OutputLayer": {
                "list": [
                    0.9244937896728516,
                    -0.05109371989965439
                ]
            },
            "Weights": {
                "list": [
                    {
                        "list": [
                            {
                                "list": [
                                    -0.7205808162689209,
                                    0.31114980578422549,
                                    -0.6665916442871094,
                                    -0.5458192825317383,
                                    -0.9775536060333252,
                                    -0.6311004161834717,
                                    0.866016149520874,
                                    0.5550143718719482,
                                    0.5245451927185059
                                ]
                            },
                            {
                                "list": [
                                    0.3526401221752167,
                                    0.02466404438018799,
                                    -0.33589351177215578,
                                    -0.667555570602417,
                                    0.8926923274993897,
                                    -0.7261061668395996,
                                    0.21742427349090577,
                                    -0.3088792562484741,
                                    0.21250522136688233
                                ]
                            },
                            {
                                "list": [
                                    -0.03206336498260498,
                                    0.6349091529846191,
                                    -0.6184325218200684,
                                    -0.9210090637207031,
                                    0.6437592506408691,
                                    -0.12910830974578858,
                                    0.36479589343070986,
                                    0.7693872451782227,
                                    0.8388998508453369
                                ]
                            }
                        ]
                    },
                    {
                        "list": [
                            {
                                "list": [
                                    0.4418153464794159,
                                    0.23431050777435304,
                                    -0.45942962169647219,
                                    0.16822898387908936,
                                    -0.7519378662109375,
                                    0.047149658203125,
                                    0.19152843952178956,
                                    0.005372166633605957,
                                    0.08181273937225342
                                ]
                            },
                            {
                                "list": [
                                    0.263653963804245,
                                    0.793657660484314,
                                    0.7825016975402832,
                                    0.9269847869873047,
                                    -0.6004819869995117,
                                    -0.13451635837554933,
                                    0.10455036163330078,
                                    0.5339932441711426,
                                    -0.20124828815460206
                                ]
                            },
                            {
                                "list": [
                                    -0.9251654148101807,
                                    -0.7404851913452148,
                                    0.9095242023468018,
                                    -0.5064074993133545,
                                    0.8471653461456299,
                                    -0.9090228080749512,
                                    0.32071420550346377,
                                    0.07638311386108399,
                                    -0.007415056228637695
                                ]
                            },
                            {
                                "list": [
                                    -0.7975066900253296,
                                    0.7154597043991089,
                                    -0.2900768518447876,
                                    -0.11504113674163819,
                                    -0.19862210750579835,
                                    0.42459678649902346,
                                    0.4201917350292206,
                                    0.1203838586807251,
                                    -0.9195828437805176
                                ]
                            },
                            {
                                "list": [
                                    0.9345850944519043,
                                    -0.9678568840026856,
                                    -0.22332775592803956,
                                    0.4112037420272827,
                                    0.43002983927726748,
                                    -0.08588829636573792,
                                    0.7768468856811523,
                                    0.04597628116607666,
                                    0.20549941062927247
                                ]
                            },
                            {
                                "list": [
                                    -0.25153684616088869,
                                    0.4100775420665741,
                                    -0.4979327917098999,
                                    0.7448725700378418,
                                    0.14807403087615968,
                                    0.004903435707092285,
                                    -0.3412536382675171,
                                    0.13015615940093995,
                                    0.02308213710784912
                                ]
                            },
                            {
                                "list": [
                                    0.9501888751983643,
                                    0.9015243053436279,
                                    -0.07367217540740967,
                                    0.20771941542625428,
                                    -0.08344733715057373,
                                    0.8587372303009033,
                                    -0.65775465965271,
                                    0.7886061668395996,
                                    -0.8083286285400391
                                ]
                            },
                            {
                                "list": [
                                    -0.6394140720367432,
                                    0.9689342975616455,
                                    0.4598183333873749,
                                    -0.6671350002288818,
                                    1.0,
                                    0.8235695362091065,
                                    0.8412595987319946,
                                    -1.0,
                                    -0.2104586362838745
                                ]
                            },
                            {
                                "list": [
                                    0.6158666610717773,
                                    0.9439601898193359,
                                    0.790020227432251,
                                    -0.15981519222259522,
                                    0.05544865131378174,
                                    0.4521908462047577,
                                    -0.653394341468811,
                                    -0.07666981220245362,
                                    0.21877726912498475
                                ]
                            }
                        ]
                    },
                    {
                        "list": [
                            {
                                "list": [
                                    0.604374885559082,
                                    0.02370738983154297
                                ]
                            },
                            {
                                "list": [
                                    -1.0,
                                    0.8719322681427002
                                ]
                            },
                            {
                                "list": [
                                    -0.08598315715789795,
                                    -0.7199888229370117
                                ]
                            },
                            {
                                "list": [
                                    0.6282074451446533,
                                    -1.0
                                ]
                            },
                            {
                                "list": [
                                    0.16162168979644776,
                                    -0.04148268699645996
                                ]
                            },
                            {
                                "list": [
                                    0.5180120468139648,
                                    -0.512155294418335
                                ]
                            },
                            {
                                "list": [
                                    0.6543734073638916,
                                    0.35561272501945498
                                ]
                            },
                            {
                                "list": [
                                    0.22721228003501893,
                                    0.8493261337280273
                                ]
                            },
                            {
                                "list": [
                                    0.22394263744354249,
                                    -0.0685509443283081
                                ]
                            }
                        ]
                    }
                ]
            },
            "Biases": {
                "list": [
                    -0.5230531692504883,
                    -0.031418442726135257,
                    0.4745607078075409
                ]
            },
            "Fitness": 17655.0
        },
        {
            "InputLayer": {
                "list": [
                    0.03805701434612274,
                    1.0,
                    0.19849222898483277
                ]
            },
            "HiddenLayers": {
                "list": [
                    {
                        "list": [
                            -0.20140881836414338,
                            -0.3456747829914093,
                            -0.7645471096038818,
                            -0.88409024477005,
                            0.4302615523338318,
                            -0.8614149689674377,
                            -0.19762685894966126,
                            -0.5770928263664246,
                            -0.12343750149011612
                        ]
                    },
                    {
                        "list": [
                            0.9583150148391724,
                            -0.9669352769851685,
                            -0.5808704495429993,
                            0.002098479075357318,
                            -0.5746725797653198,
                            -0.3942212462425232,
                            -0.3535158634185791,
                            -0.0435192696750164,
                            0.8220362663269043
                        ]
                    }
                ]
            },
            "OutputLayer": {
                "list": [
                    0.9375878572463989,
                    0.07686097174882889
                ]
            },
            "Weights": {
                "list": [
                    {
                        "list": [
                            {
                                "list": [
                                    -0.7205808162689209,
                                    0.31114980578422549,
                                    -0.6665916442871094,
                                    -0.5458192825317383,
                                    -0.9775536060333252,
                                    -0.6311004161834717,
                                    0.866016149520874,
                                    0.5550143718719482,
                                    0.5245451927185059
                                ]
                            },
                            {
                                "list": [
                                    0.3526401221752167,
                                    0.02466404438018799,
                                    -0.33589351177215578,
                                    -0.667555570602417,
                                    0.8926923274993897,
                                    -0.7261061668395996,
                                    0.21742427349090577,
                                    -0.3088792562484741,
                                    0.21250522136688233
                                ]
                            },
                            {
                                "list": [
                                    -0.03206336498260498,
                                    0.6349091529846191,
                                    -0.6184325218200684,
                                    -0.9210090637207031,
                                    0.6437592506408691,
                                    -0.12910830974578858,
                                    0.36479589343070986,
                                    0.7693872451782227,
                                    0.8388998508453369
                                ]
                            }
                        ]
                    },
                    {
                        "list": [
                            {
                                "list": [
                                    0.4418153464794159,
                                    0.23431050777435304,
                                    -0.45942962169647219,
                                    0.16822898387908936,
                                    -0.7519378662109375,
                                    0.047149658203125,
                                    0.19152843952178956,
                                    0.005372166633605957,
                                    0.08181273937225342
                                ]
                            },
                            {
                                "list": [
                                    0.263653963804245,
                                    0.793657660484314,
                                    0.7825016975402832,
                                    0.9269847869873047,
                                    -0.6004819869995117,
                                    -0.13451635837554933,
                                    0.10455036163330078,
                                    0.5339932441711426,
                                    -0.20124828815460206
                                ]
                            },
                            {
                                "list": [
                                    -0.9251654148101807,
                                    -0.7404851913452148,
                                    0.9095242023468018,
                                    -0.5064074993133545,
                                    0.8471653461456299,
                                    -0.9090228080749512,
                                    0.32071420550346377,
                                    0.07638311386108399,
                                    -0.007415056228637695
                                ]
                            },
                            {
                                "list": [
                                    -0.7975066900253296,
                                    0.7154597043991089,
                                    -0.2900768518447876,
                                    -0.11504113674163819,
                                    -0.19862210750579835,
                                    0.42459678649902346,
                                    0.4201917350292206,
                                    0.1203838586807251,
                                    -0.9195828437805176
                                ]
                            },
                            {
                                "list": [
                                    0.9345850944519043,
                                    -0.9678568840026856,
                                    -0.22332775592803956,
                                    0.4112037420272827,
                                    0.43002983927726748,
                                    -0.08588829636573792,
                                    0.7768468856811523,
                                    0.04597628116607666,
                                    0.20549941062927247
                                ]
                            },
                            {
                                "list": [
                                    -0.25153684616088869,
                                    0.4100775420665741,
                                    -0.4979327917098999,
                                    0.7448725700378418,
                                    0.14807403087615968,
                                    0.004903435707092285,
                                    -0.3412536382675171,
                                    0.13015615940093995,
                                    0.02308213710784912
                                ]
                            },
                            {
                                "list": [
                                    0.9501888751983643,
                                    0.9015243053436279,
                                    -0.07367217540740967,
                                    0.20771941542625428,
                                    -0.08344733715057373,
                                    0.8587372303009033,
                                    -0.65775465965271,
                                    0.7886061668395996,
                                    -0.8083286285400391
                                ]
                            },
                            {
                                "list": [
                                    -0.6394140720367432,
                                    0.9689342975616455,
                                    0.4598183333873749,
                                    -0.6671350002288818,
                                    1.0,
                                    0.8235695362091065,
                                    0.8412595987319946,
                                    -1.0,
                                    -0.2104586362838745
                                ]
                            },
                            {
                                "list": [
                                    0.6158666610717773,
                                    0.9439601898193359,
                                    0.790020227432251,
                                    -0.15981519222259522,
                                    0.05544865131378174,
                                    0.4521908462047577,
                                    -0.653394341468811,
                                    -0.07666981220245362,
                                    0.21877726912498475
                                ]
                            }
                        ]
                    },
                    {
                        "list": [
                            {
                                "list": [
                                    0.604374885559082,
                                    0.02370738983154297
                                ]
                            },
                            {
                                "list": [
                                    -1.0,
                                    0.8719322681427002
                                ]
                            },
                            {
                                "list": [
                                    -0.08598315715789795,
                                    -0.7199888229370117
                                ]
                            },
                            {
                                "list": [
                                    0.6282074451446533,
                                    -1.0
                                ]
                            },
                            {
                                "list": [
                                    0.16162168979644776,
                                    -0.04148268699645996
                                ]
                            },
                            {
                                "list": [
                                    0.5180120468139648,
                                    -0.512155294418335
                                ]
                            },
                            {
                                "list": [
                                    0.6543734073638916,
                                    0.35561272501945498
                                ]
                            },
                            {
                                "list": [
                                    0.22721228003501893,
                                    0.8493261337280273
                                ]
                            },
                            {
                                "list": [
                                    0.22394263744354249,
                                    -0.0685509443283081
                                ]
                            }
                        ]
                    }
                ]
            },
            "Biases": {
                "list": [
                    -0.5230531692504883,
                    -0.031418442726135257,
                    0.4745607078075409
                ]
            },
            "Fitness": 17035.0
        },
        {
            "InputLayer": {
                "list": [
                    0.20041050016880036,
                    1.0,
                    0.17884819209575654
                ]
            },
            "HiddenLayers": {
                "list": [
                    {
                        "list": [
                            -0.31001272797584536,
                            -0.3117467761039734,
                            -0.8016255497932434,
                            -0.8985649347305298,
                            0.28108736872673037,
                            -0.8850767016410828,
                            -0.06672778725624085,
                            -0.5249136686325073,
                            -0.055331312119960788
                        ]
                    },
                    {
                        "list": [
                            0.9588265419006348,
                            -0.9297807812690735,
                            -0.4649471044540405,
                            -0.06167137622833252,
                            -0.5678464770317078,
                            -0.19741296768188477,
                            -0.5364784598350525,
                            0.0053011872805655,
                            0.7730426788330078
                        ]
                    }
                ]
            },
            "OutputLayer": {
                "list": [
                    0.9237919449806213,
                    -0.031582310795784
                ]
            },
            "Weights": {
                "list": [
                    {
                        "list": [
                            {
                                "list": [
                                    -0.7205808162689209,
                                    0.31114980578422549,
                                    -0.6665916442871094,
                                    -0.5458192825317383,
                                    -0.9775536060333252,
                                    -0.6311004161834717,
                                    0.866016149520874,
                                    0.5550143718719482,
                                    0.5245451927185059
                                ]
                            },
                            {
                                "list": [
                                    0.3526401221752167,
                                    0.02466404438018799,
                                    -0.33589351177215578,
                                    -0.667555570602417,
                                    0.8926923274993897,
                                    -0.7261061668395996,
                                    0.21742427349090577,
                                    -0.3088792562484741,
                                    0.21250522136688233
                                ]
                            },
                            {
                                "list": [
                                    -0.03206336498260498,
                                    0.6349091529846191,
                                    -0.6184325218200684,
                                    -0.9210090637207031,
                                    0.6437592506408691,
                                    -0.12910830974578858,
                                    0.36479589343070986,
                                    0.7693872451782227,
                                    0.8388998508453369
                                ]
                            }
                        ]
                    },
                    {
                        "list": [
                            {
                                "list": [
                                    0.4418153464794159,
                                    0.23431050777435304,
                                    -0.45942962169647219,
                                    0.16822898387908936,
                                    -0.7519378662109375,
                                    0.047149658203125,
                                    0.19152843952178956,
                                    0.005372166633605957,
                                    0.08181273937225342
                                ]
                            },
                            {
                                "list": [
                                    0.263653963804245,
                                    0.793657660484314,
                                    0.7825016975402832,
                                    0.9269847869873047,
                                    -0.6004819869995117,
                                    -0.13451635837554933,
                                    0.10455036163330078,
                                    0.5339932441711426,
                                    -0.20124828815460206
                                ]
                            },
                            {
                                "list": [
                                    -0.9251654148101807,
                                    -0.7404851913452148,
                                    0.9095242023468018,
                                    -0.5064074993133545,
                                    0.8471653461456299,
                                    -0.9090228080749512,
                                    0.32071420550346377,
                                    0.07638311386108399,
                                    -0.007415056228637695
                                ]
                            },
                            {
                                "list": [
                                    -0.7975066900253296,
                                    0.7154597043991089,
                                    -0.2900768518447876,
                                    -0.11504113674163819,
                                    -0.19862210750579835,
                                    0.42459678649902346,
                                    0.4201917350292206,
                                    0.1203838586807251,
                                    -0.9195828437805176
                                ]
                            },
                            {
                                "list": [
                                    0.9345850944519043,
                                    -0.9678568840026856,
                                    -0.22332775592803956,
                                    0.4112037420272827,
                                    0.43002983927726748,
                                    -0.08588829636573792,
                                    0.7768468856811523,
                                    0.04597628116607666,
                                    0.20549941062927247
                                ]
                            },
                            {
                                "list": [
                                    -0.25153684616088869,
                                    0.4100775420665741,
                                    -0.4979327917098999,
                                    0.7448725700378418,
                                    0.14807403087615968,
                                    0.004903435707092285,
                                    -0.3412536382675171,
                                    0.13015615940093995,
                                    0.02308213710784912
                                ]
                            },
                            {
                                "list": [
                                    0.9501888751983643,
                                    0.9015243053436279,
                                    -0.07367217540740967,
                                    0.20771941542625428,
                                    -0.08344733715057373,
                                    0.8587372303009033,
                                    -0.65775465965271,
                                    0.7886061668395996,
                                    -0.8083286285400391
                                ]
                            },
                            {
                                "list": [
                                    -0.6394140720367432,
                                    0.9689342975616455,
                                    0.4598183333873749,
                                    -0.6671350002288818,
                                    1.0,
                                    0.8235695362091065,
                                    0.8412595987319946,
                                    -1.0,
                                    -0.2104586362838745
                                ]
                            },
                            {
                                "list": [
                                    0.6158666610717773,
                                    0.9439601898193359,
                                    0.790020227432251,
                                    -0.15981519222259522,
                                    0.05544865131378174,
                                    0.4521908462047577,
                                    -0.653394341468811,
                                    -0.07666981220245362,
                                    0.21877726912498475
                                ]
                            }
                        ]
                    },
                    {
                        "list": [
                            {
                                "list": [
                                    0.604374885559082,
                                    0.02370738983154297
                                ]
                            },
                            {
                                "list": [
                                    -1.0,
                                    0.8719322681427002
                                ]
                            },
                            {
                                "list": [
                                    -0.08598315715789795,
                                    -0.7199888229370117
                                ]
                            },
                            {
                                "list": [
                                    0.6282074451446533,
                                    -1.0
                                ]
                            },
                            {
                                "list": [
                                    0.16162168979644776,
                                    -0.04148268699645996
                                ]
                            },
                            {
                                "list": [
                                    0.5180120468139648,
                                    -0.512155294418335
                                ]
                            },
                            {
                                "list": [
                                    0.6543734073638916,
                                    0.35561272501945498
                                ]
                            },
                            {
                                "list": [
                                    0.22721228003501893,
                                    0.8493261337280273
                                ]
                            },
                            {
                                "list": [
                                    0.22394263744354249,
                                    -0.0685509443283081
                                ]
                            }
                        ]
                    }
                ]
            },
            "Biases": {
                "list": [
                    -0.5230531692504883,
                    -0.031418442726135257,
                    0.4745607078075409
                ]
            },
            "Fitness": 16985.0
        },
        {
            "InputLayer": {
                "list": [
                    0.17414279282093049,
                    1.0,
                    0.15187840163707734
                ]
            },
            "HiddenLayers": {
                "list": [
                    {
                        "list": [
                            -0.29201412200927737,
                            -0.334401398897171,
                            -0.7890673279762268,
                            -0.8907490968704224,
                            0.2887283265590668,
                            -0.8806530237197876,
                            -0.09908759593963623,
                            -0.5500320792198181,
                            -0.09153448790311814
                        ]
                    },
                    {
                        "list": [
                            0.9538879990577698,
                            -0.9445423483848572,
                            -0.5177034139633179,
                            -0.0756526067852974,
                            -0.5828325748443604,
                            -0.27364152669906618,
                            -0.5180327892303467,
                            -0.012571603991091252,
                            0.778171181678772
                        ]
                    }
                ]
            },
            "OutputLayer": {
                "list": [
                    0.9200068712234497,
                    0.03805646300315857
                ]
            },
            "Weights": {
                "list": [
                    {
                        "list": [
                            {
                                "list": [
                                    -0.7205808162689209,
                                    0.31114980578422549,
                                    -0.6665916442871094,
                                    -0.5458192825317383,
                                    -0.9775536060333252,
                                    -0.6311004161834717,
                                    0.866016149520874,
                                    0.5550143718719482,
                                    0.5245451927185059
                                ]
                            },
                            {
                                "list": [
                                    0.3526401221752167,
                                    0.02466404438018799,
                                    -0.33589351177215578,
                                    -0.667555570602417,
                                    0.8926923274993897,
                                    -0.7261061668395996,
                                    0.21742427349090577,
                                    -0.3088792562484741,
