{
    "list": [
        {
            "InputLayer": {
                "list": [
                    0.17791612446308137,
                    -1.0,
                    0.027798661962151529
                ]
            },
            "HiddenLayers": {
                "list": [
                    {
                        "list": [
                            0.8039835691452026,
                            0.6275789737701416,
                            0.10432536900043488,
                            0.9430640935897827,
                            0.81684809923172,
                            0.8178085088729858,
                            0.9423525929450989,
                            0.9129694104194641,
                            0.7880909442901611
                        ]
                    },
                    {
                        "list": [
                            -0.25393956899642947,
                            -0.37909045815467837,
                            -0.9978949427604675,
                            0.7060375213623047,
                            -0.3141827881336212,
                            -0.9796422719955444,
                            0.9219874739646912,
                            0.4427206516265869,
                            -0.6575406789779663
                        ]
                    }
                ]
            },
            "OutputLayer": {
                "list": [
                    -0.23995064198970796,
                    0.20191378891468049
                ]
            },
            "Weights": {
                "list": [
                    {
                        "list": [
                            {
                                "list": [
                                    -0.589301347732544,
                                    -0.424594521522522,
                                    -0.8146848678588867,
                                    0.5181243419647217,
                                    -0.8334708213806152,
                                    0.2553498446941376,
                                    -0.4722510576248169,
                                    -0.38593804836273196,
                                    -0.4220324754714966
                                ]
                            },
                            {
                                "list": [
                                    -0.2266327142715454,
                                    0.16716134548187257,
                                    0.756141185760498,
                                    -0.6936812400817871,
                                    -0.2981795072555542,
                                    -0.0994497537612915,
                                    -0.8526735305786133,
                                    -0.6184744834899902,
                                    -0.15670287609100343
                                ]
                            },
                            {
                                "list": [
                                    -0.2575143575668335,
                                    -0.5408055782318115,
                                    0.38289400935173037,
                                    -0.5743281841278076,
                                    0.08024013042449951,
                                    0.36456748843193056,
                                    -0.18513405323028565,
                                    0.004207968711853027,
                                    -0.37383949756622317
                                ]
                            }
                        ]
                    },
                    {
                        "list": [
                            {
                                "list": [
                                    0.6281487941741943,
                                    0.9933362007141113,
                                    -0.24664580821990968,
                                    0.2895464599132538,
                                    0.16312921047210694,
                                    0.610271692276001,
                                    0.7750611305236816,
                                    0.15819990634918214,
                                    0.8753170967102051
                                ]
                            },
                            {
                                "list": [
                                    -0.11651432514190674,
                                    0.663367509841919,
                                    -0.46433746814727785,
                                    0.5555393695831299,
                                    0.09114730358123779,
                                    -0.2882927656173706,
                                    0.3737654387950897,
                                    0.49013182520866396,
                                    0.011278986930847168
                                ]
                            },
                            {
                                "list": [
                                    -0.5385770797729492,
                                    0.14585649967193604,
                                    0.8777961730957031,
                                    0.7077362537384033,
                                    -0.47971975803375246,
                                    0.26286837458610537,
                                    0.07203352451324463,
                                    0.23508703708648683,
                                    -0.12164556980133057
                                ]
                            },
                            {
                                "list": [
                                    0.298258513212204,
                                    0.9242424964904785,
                                    -0.9546012878417969,
                                    0.6789047718048096,
                                    -0.511075496673584,
                                    -0.8065049648284912,
                                    0.1831876039505005,
                                    0.6293854713439941,
                                    0.023667216300964357
                                ]
                            },
                            {
                                "list": [
                                    0.9012184143066406,
                                    -0.6117653846740723,
                                    0.5000584125518799,
                                    -0.04296314716339111,
                                    0.21903550624847413,
                                    -0.5433242321014404,
                                    -0.5084884166717529,
                                    -0.25560224056243899,
                                    -0.1684938669204712
                                ]
                            },
                            {
                                "list": [
                                    -0.5603229999542236,
                                    -0.15617024898529054,
                                    -0.4756361246109009,
                                    -0.6947546005249023,
                                    -0.9470822811126709,
                                    0.7068467140197754,
                                    0.031961798667907718,
                                    0.05458343029022217,
                                    -0.6707043647766113
                                ]
                            },
                            {
                                "list": [
                                    0.7964799404144287,
                                    -0.7707240581512451,
                                    -0.8096623420715332,
                                    0.2159513235092163,
                                    0.6904194355010986,
                                    -0.5107424259185791,
                                    0.39677712321281435,
                                    0.9814283847808838,
                                    -0.878892183303833
                                ]
                            },
                            {
                                "list": [
                                    -0.8500509262084961,
                                    -0.7367351055145264,
                                    -0.19755375385284425,
                                    -0.14259207248687745,
                                    0.6036665439605713,
                                    -0.7646200656890869,
                                    0.6487441062927246,
                                    -0.9733550548553467,
                                    0.13532650470733643
                                ]
                            },
                            {
                                "list": [
                                    -0.9062039852142334,
                                    -0.024837851524353029,
                                    -0.9525072574615479,
                                    0.7213902473449707,
                                    -0.16849839687347413,
                                    -0.4633854627609253,
                                    0.5608890056610107,
                                    0.0070313215255737309,
                                    0.427305668592453
                                ]
                            }
                        ]
                    },
                    {
                        "list": [
                            {
                                "list": [
                                    -0.8718400001525879,
                                    -0.6522791385650635
                                ]
                            },
                            {
                                "list": [
                                    -0.6581110954284668,
                                    -0.5172772407531738
                                ]
                            },
                            {
                                "list": [
                                    0.1637495756149292,
                                    -0.1749058961868286
                                ]
                            },
                            {
                                "list": [
                                    -0.8412120342254639,
                                    0.4228348433971405
                                ]
                            },
                            {
                                "list": [
                                    0.1498814821243286,
                                    -0.6855452060699463
                                ]
                            },
                            {
                                "list": [
                                    -0.6032776832580566,
                                    -0.6621675491333008
                                ]
                            },
                            {
                                "list": [
                                    0.2756745517253876,
                                    -0.9507818222045898
                                ]
                            },
                            {
                                "list": [
                                    0.5462548732757568,
                                    -0.4141963720321655
                                ]
                            },
                            {
                                "list": [
                                    0.6573677062988281,
                                    -0.200384259223938
                                ]
                            }
                        ]
                    }
                ]
            },
            "Biases": {
                "list": [
                    0.9951491355895996,
                    -0.4548534154891968,
                    -0.5659348964691162
                ]
            },
            "Fitness": 4037.907958984375
        },
        {
            "InputLayer": {
                "list": [
                    0.1758020669221878,
                    -1.0,
                    0.05105573683977127
                ]
            },
            "HiddenLayers": {
                "list": [
                    {
                        "list": [
                            0.6708807945251465,
                            0.9085769057273865,
                            0.6180481910705566,
                            0.5639997720718384,
                            0.6871810555458069,
                            0.7407587766647339,
                            0.5460999011993408,
                            0.8753771781921387,
                            0.631619930267334
                        ]
                    },
                    {
                        "list": [
                            0.47057440876960757,
                            -0.9749996662139893,
                            -0.7608902454376221,
                            -0.3785194754600525,
                            0.9757914543151856,
                            -0.9663902521133423,
                            0.3104153871536255,
                            -0.07709892839193344,
                            -0.6254397630691528
                        ]
                    }
                ]
            },
            "OutputLayer": {
                "list": [
                    0.048827990889549258,
                    -0.024504315108060838
                ]
            },
            "Weights": {
                "list": [
                    {
                        "list": [
                            {
                                "list": [
                                    -0.7933869361877441,
                                    -0.01612722873687744,
                                    -0.5888891220092773,
                                    -0.9500927925109863,
                                    -0.7814316749572754,
                                    0.35417434573173525,
                                    -0.8260698318481445,
                                    0.2643255889415741,
                                    0.44312378764152529
                                ]
                            },
                            {
                                "list": [
                                    -0.17739880084991456,
                                    -0.8058502674102783,
                                    -0.051596999168395999,
                                    -0.12080252170562744,
                                    -0.2334691286087036,
                                    -0.1780315637588501,
                                    0.009220242500305176,
                                    -0.5404534339904785,
                                    0.0798729658126831
                                ]
                            },
                            {
                                "list": [
                                    0.8421094417572022,
                                    -0.2964667081832886,
                                    0.8293452262878418,
                                    -0.911231279373169,
                                    0.29524990916252139,
                                    -0.3832348585128784,
                                    0.7016453742980957,
                                    0.7302854061126709,
                                    0.28691646456718447
                                ]
                            }
                        ]
                    },
                    {
                        "list": [
                            {
                                "list": [
                                    -0.11084592342376709,
                                    -0.7143840789794922,
                                    -0.9130556583404541,
                                    -0.8079981803894043,
                                    0.6035056114196777,
                                    -0.8643949031829834,
                                    0.7226755619049072,
                                    -0.011458992958068848,
                                    -0.7593796253204346
                                ]
                            },
                            {
                                "list": [
                                    0.7606053352355957,
                                    0.28287336230278017,
                                    -0.5804691314697266,
                                    0.4298405349254608,
                                    0.47258612513542178,
                                    -0.6177465915679932,
                                    -0.5436358451843262,
                                    0.8656115531921387,
                                    0.19009673595428468
                                ]
                            },
                            {
                                "list": [
                                    -0.9485788345336914,
                                    -0.2681816816329956,
                                    -0.8826911449432373,
                                    -0.09514153003692627,
                                    0.3362440764904022,
                                    -0.9504237174987793,
                                    0.6058125495910645,
                                    -0.26848018169403078,
                                    -0.18729722499847413
                                ]
                            },
                            {
                                "list": [
                                    0.24707353115081788,
                                    0.44989392161369326,
                                    0.42842742800712588,
                                    0.5754947662353516,
                                    0.978701114654541,
                                    0.7440409660339356,
                                    0.6052834987640381,
                                    0.01627504825592041,
                                    0.08609282970428467
                                ]
                            },
                            {
                                "list": [
                                    -0.4003793001174927,
                                    -0.6184372901916504,
                                    0.6604421138763428,
                                    -0.5652720928192139,
                                    0.9592797756195068,
                                    -0.12632286548614503,
                                    -0.9764842987060547,
                                    0.4362184703350067,
                                    -0.469662070274353
                                ]
                            },
                            {
                                "list": [
                                    -0.0015228986740112305,
                                    -0.9187114238739014,
                                    -0.22245562076568604,
                                    0.4827441871166229,
                                    -0.672637939453125,
                                    -0.4142962694168091,
                                    -0.17442071437835694,
                                    0.08509480953216553,
                                    0.32935282588005068
                                ]
                            },
                            {
                                "list": [
                                    -0.2513200044631958,
                                    -0.4861408472061157,
                                    0.8323616981506348,
                                    -0.5895955562591553,
                                    -0.6845378875732422,
                                    -0.2671910524368286,
                                    0.47075316309928896,
                                    -0.3707159757614136,
                                    0.8232104778289795
                                ]
                            },
                            {
                                "list": [
                                    0.7644870281219482,
                                    -0.615354061126709,
                                    0.2317410707473755,
                                    -0.4116164445877075,
                                    0.5243663787841797,
                                    -0.42758357524871828,
                                    -0.5585577487945557,
                                    -0.6551780700683594,
                                    -0.528853178024292
                                ]
                            },
                            {
                                "list": [
                                    -0.03945267200469971,
                                    -0.39741790294647219,
                                    -0.9676156044006348,
                                    0.14301574230194093,
                                    0.39673230051994326,
                                    0.12357509136199951,
                                    0.848883867263794,
                                    -0.6274945735931397,
                                    -0.5510008335113525
                                ]
                            }
                        ]
                    },
                    {
                        "list": [
                            {
                                "list": [
                                    -0.4141796827316284,
                                    0.5329475402832031
                                ]
                            },
                            {
                                "list": [
                                    0.014616608619689942,
                                    -0.5849404335021973
                                ]
                            },
                            {
                                "list": [
                                    -0.5148944854736328,
                                    0.40418264269828799
                                ]
                            },
                            {
                                "list": [
                                    -0.94046950340271,
                                    -0.8048000335693359
                                ]
                            },
                            {
                                "list": [
                                    -0.38385069370269778,
                                    -0.3662985563278198
                                ]
                            },
                            {
                                "list": [
                                    0.12418663501739502,
                                    0.09576547145843506
                                ]
                            },
                            {
                                "list": [
                                    0.39699217677116396,
                                    -0.7160599231719971
                                ]
                            },
                            {
                                "list": [
                                    -0.07958781719207764,
                                    0.9475338459014893
                                ]
                            },
                            {
                                "list": [
                                    0.4192957580089569,
                                    0.37590572237968447
                                ]
                            }
                        ]
                    }
                ]
            },
            "Biases": {
                "list": [
                    0.731428861618042,
                    0.11023342609405518,
                    0.1377028226852417
                ]
            },
            "Fitness": 4019.60791015625
        },
        {
            "InputLayer": {
                "list": [
                    0.16628606617450715,
                    1.0,
                    0.0190864447504282
                ]
            },
            "HiddenLayers": {
                "list": [
                    {
                        "list": [
                            -0.7591191530227661,
                            -0.9066970944404602,
                            -0.20299293100833894,
                            -0.5805519223213196,
                            -0.7330166101455689,
                            -0.5182926058769226,
                            -0.7623336315155029,
                            -0.6413871049880981,
                            -0.9617775082588196
                        ]
                    },
                    {
                        "list": [
                            -0.42229267954826357,
                            -0.6429697871208191,
                            0.9686170816421509,
                            -0.9699572324752808,
                            -0.5969480872154236,
                            0.8059940934181213,
                            -0.9838340282440186,
                            -0.8862195611000061,
                            -0.4424133598804474
                        ]
                    }
                ]
            },
            "OutputLayer": {
                "list": [
                    0.039713822305202487,
                    -0.13753096759319306
                ]
            },
            "Weights": {
                "list": [
                    {
                        "list": [
                            {
                                "list": [
                                    0.23219335079193116,
                                    -0.9181947708129883,
                                    0.1403590440750122,
                                    0.6060068607330322,
                                    -0.06784093379974365,
                                    -0.7330632209777832,
                                    0.7620060443878174,
                                    0.6121230125427246,
                                    -0.21026790142059327
                                ]
                            },
                            {
                                "list": [
                                    -0.041564345359802249,
                                    -0.38366639614105227,
                                    0.7483639717102051,
                                    0.2157806158065796,
                                    0.070320725440979,
                                    0.5279498100280762,
                                    -0.1486600637435913,
                                    0.10551583766937256,
                                    -0.9686679840087891
                                ]
                            },
                            {
                                "list": [
                                    -0.6624710559844971,
                                    0.3272554576396942,
                                    0.051296353340148929,
                                    -0.06868970394134522,
                                    -0.8236715793609619,
                                    -0.07958590984344483,
                                    -0.06701457500457764,
                                    0.5608608722686768,
                                    0.6851370334625244
                                ]
                            }
                        ]
                    },
                    {
                        "list": [
                            {
                                "list": [
                                    0.6281487941741943,
                                    0.9933362007141113,
                                    -0.24664580821990968,
                                    0.2895464599132538,
                                    0.16312921047210694,
                                    0.610271692276001,
                                    0.7750611305236816,
                                    0.15819990634918214,
                                    0.8753170967102051
                                ]
                            },
                            {
                                "list": [
                                    -0.11651432514190674,
                                    0.663367509841919,
                                    -0.46433746814727785,
                                    0.5555393695831299,
                                    0.09114730358123779,
                                    -0.2882927656173706,
                                    0.3737654387950897,
                                    0.49013182520866396,
                                    0.011278986930847168
                                ]
                            },
                            {
                                "list": [
                                    -0.5385770797729492,
                                    0.14585649967193604,
                                    0.8777961730957031,
                                    0.7077362537384033,
                                    -0.47971975803375246,
                                    0.26286837458610537,
                                    0.07203352451324463,
                                    0.23508703708648683,
                                    -0.12164556980133057
                                ]
                            },
                            {
                                "list": [
                                    0.298258513212204,
                                    0.9242424964904785,
                                    -0.9546012878417969,
                                    0.6789047718048096,
                                    -0.511075496673584,
                                    -0.8065049648284912,
                                    0.1831876039505005,
                                    0.6293854713439941,
                                    0.023667216300964357
                                ]
                            },
                            {
                                "list": [
                                    0.9012184143066406,
                                    -0.6117653846740723,
                                    0.5000584125518799,
                                    -0.04296314716339111,
                                    0.21903550624847413,
                                    -0.5433242321014404,
                                    -0.5084884166717529,
                                    -0.25560224056243899,
                                    -0.1684938669204712
                                ]
                            },
                            {
                                "list": [
                                    -0.5603229999542236,
                                    -0.15617024898529054,
                                    -0.4756361246109009,
                                    -0.6947546005249023,
                                    -0.9470822811126709,
                                    0.7068467140197754,
                                    0.031961798667907718,
                                    0.05458343029022217,
                                    -0.6707043647766113
                                ]
                            },
                            {
                                "list": [
                                    0.7964799404144287,
                                    -0.7707240581512451,
                                    -0.8096623420715332,
                                    0.2159513235092163,
                                    0.6904194355010986,
                                    -0.5107424259185791,
                                    0.39677712321281435,
                                    0.9814283847808838,
                                    -0.878892183303833
                                ]
                            },
                            {
                                "list": [
                                    -0.8500509262084961,
                                    -0.7367351055145264,
                                    -0.19755375385284425,
                                    -0.14259207248687745,
                                    0.6036665439605713,
                                    -0.7646200656890869,
                                    0.6487441062927246,
                                    -0.9733550548553467,
                                    0.13532650470733643
                                ]
                            },
                            {
                                "list": [
                                    -0.9062039852142334,
                                    -0.024837851524353029,
                                    -0.9525072574615479,
                                    0.7213902473449707,
                                    -0.16849839687347413,
                                    -0.4633854627609253,
                                    0.5608890056610107,
                                    0.0070313215255737309,
                                    0.427305668592453
                                ]
                            }
                        ]
                    },
                    {
                        "list": [
                            {
                                "list": [
                                    -0.724926233291626,
                                    0.9809300899505615
                                ]
                            },
                            {
                                "list": [
                                    -0.7728970050811768,
                                    -0.8824963569641113
                                ]
                            },
                            {
                                "list": [
                                    -0.4414585828781128,
                                    -0.7455220222473145
                                ]
                            },
                            {
                                "list": [
                                    -0.2599676847457886,
                                    -0.9293878078460693
                                ]
                            },
                            {
                                "list": [
                                    -0.5975062847137451,
                                    0.6598107814788818
                                ]
                            },
                            {
                                "list": [
                                    -0.9031486511230469,
                                    0.38817283511161806
                                ]
                            },
                            {
                                "list": [
                                    -0.9588429927825928,
                                    0.44720718264579775
                                ]
                            },
                            {
                                "list": [
                                    0.6991093158721924,
                                    -0.49163925647735598
                                ]
                            },
                            {
                                "list": [
                                    -0.5986015796661377,
                                    -0.9484591484069824
                                ]
                            }
                        ]
                    }
                ]
            },
            "Biases": {
                "list": [
                    -0.9785349369049072,
                    -0.4548534154891968,
                    -0.8052539825439453
                ]
            },
            "Fitness": 3979.607177734375
        },
        {
            "InputLayer": {
                "list": [
                    0.1398065835237503,
                    -1.0,
                    0.04617767035961151
                ]
            },
            "HiddenLayers": {
                "list": [
                    {
                        "list": [
                            -0.7329627275466919,
                            -0.609500527381897,
                            -0.9360197186470032,
                            -0.8050371408462524,
                            -0.7991933226585388,
                            -0.9235502481460571,
                            -0.620880126953125,
                            -0.7498326301574707,
                            -0.007625611033290625
                        ]
                    },
                    {
                        "list": [
                            -0.5602596402168274,
                            -0.666007936000824,
                            0.5740395188331604,
                            -0.9172425270080566,
                            0.05003942549228668,
                            0.3382936418056488,
                            -0.9494202136993408,
                            -0.8672688007354736,
                            0.18441684544086457
                        ]
                    }
                ]
            },
            "OutputLayer": {
                "list": [
                    0.19565920531749726,
                    -0.11156268417835236
                ]
            },
            "Weights": {
                "list": [
                    {
                        "list": [
                            {
                                "list": [
                                    0.23219335079193116,
                                    -0.9181947708129883,
                                    0.1403590440750122,
                                    0.6060068607330322,
                                    -0.06784093379974365,
                                    -0.7330632209777832,
                                    0.7620060443878174,
                                    0.6121230125427246,
                                    -0.21026790142059327
                                ]
                            },
                            {
                                "list": [
                                    -0.041564345359802249,
                                    -0.38366639614105227,
                                    0.7483639717102051,
                                    0.2157806158065796,
                                    0.070320725440979,
                                    0.5279498100280762,
                                    -0.1486600637435913,
                                    0.10551583766937256,
                                    -0.9686679840087891
                                ]
                            },
                            {
                                "list": [
                                    -0.6624710559844971,
                                    0.3272554576396942,
                                    0.051296353340148929,
                                    -0.06868970394134522,
                                    -0.8236715793609619,
                                    -0.07958590984344483,
                                    -0.06701457500457764,
                                    0.5608608722686768,
                                    0.6851370334625244
                                ]
                            }
                        ]
                    },
                    {
                        "list": [
                            {
                                "list": [
                                    0.6281487941741943,
                                    0.9933362007141113,
                                    -0.24664580821990968,
                                    0.2895464599132538,
                                    0.16312921047210694,
                                    0.610271692276001,
                                    0.7750611305236816,
                                    0.15819990634918214,
                                    0.8753170967102051
                                ]
                            },
                            {
                                "list": [
                                    -0.11651432514190674,
                                    0.663367509841919,
                                    -0.46433746814727785,
                                    0.5555393695831299,
                                    0.09114730358123779,
                                    -0.2882927656173706,
                                    0.3737654387950897,
                                    0.49013182520866396,
                                    0.011278986930847168
                                ]
                            },
                            {
                                "list": [
                                    -0.5385770797729492,
                                    0.14585649967193604,
                                    0.8777961730957031,
                                    0.7077362537384033,
                                    -0.47971975803375246,
                                    0.26286837458610537,
                                    0.07203352451324463,
                                    0.23508703708648683,
                                    -0.12164556980133057
                                ]
                            },
                            {
                                "list": [
                                    0.298258513212204,
                                    0.9242424964904785,
                                    -0.9546012878417969,
                                    0.6789047718048096,
                                    -0.511075496673584,
                                    -0.8065049648284912,
                                    0.1831876039505005,
                                    0.6293854713439941,
                                    0.023667216300964357
                                ]
                            },
                            {
                                "list": [
                                    0.9012184143066406,
                                    -0.6117653846740723,
                                    0.5000584125518799,
                                    -0.04296314716339111,
                                    0.21903550624847413,
                                    -0.5433242321014404,
                                    -0.5084884166717529,
                                    -0.25560224056243899,
                                    -0.1684938669204712
                                ]
                            },
                            {
                                "list": [
                                    -0.5603229999542236,
                                    -0.15617024898529054,
                                    -0.4756361246109009,
                                    -0.6947546005249023,
                                    -0.9470822811126709,
                                    0.7068467140197754,
                                    0.031961798667907718,
                                    0.05458343029022217,
                                    -0.6707043647766113
                                ]
                            },
                            {
                                "list": [
                                    0.7964799404144287,
                                    -0.7707240581512451,
                                    -0.8096623420715332,
                                    0.2159513235092163,
                                    0.6904194355010986,
                                    -0.5107424259185791,
                                    0.39677712321281435,
                                    0.9814283847808838,
                                    -0.878892183303833
                                ]
                            },
                            {
                                "list": [
                                    -0.8500509262084961,
                                    -0.7367351055145264,
                                    -0.19755375385284425,
                                    -0.14259207248687745,
                                    0.6036665439605713,
                                    -0.7646200656890869,
                                    0.6487441062927246,
                                    -0.9733550548553467,
                                    0.13532650470733643
                                ]
                            },
                            {
                                "list": [
                                    -0.9062039852142334,
                                    -0.024837851524353029,
                                    -0.9525072574615479,
                                    0.7213902473449707,
                                    -0.16849839687347413,
                                    -0.4633854627609253,
                                    0.5608890056610107,
                                    0.0070313215255737309,
                                    0.427305668592453
                                ]
                            }
                        ]
                    },
                    {
                        "list": [
                            {
                                "list": [
                                    -0.724926233291626,
                                    0.9809300899505615
                                ]
                            },
                            {
                                "list": [
                                    -0.7728970050811768,
                                    -0.8824963569641113
                                ]
                            },
                            {
                                "list": [
                                    -0.4414585828781128,
                                    -0.7455220222473145
                                ]
                            },
                            {
                                "list": [
                                    -0.2599676847457886,
                                    -0.9293878078460693
                                ]
                            },
                            {
                                "list": [
                                    -0.5975062847137451,
                                    0.6598107814788818
                                ]
                            },
                            {
                                "list": [
                                    -0.9031486511230469,
                                    0.38817283511161806
                                ]
                            },
                            {
                                "list": [
                                    -0.9588429927825928,
                                    0.44720718264579775
                                ]
                            },
                            {
                                "list": [
                                    0.6991093158721924,
                                    -0.49163925647735598
                                ]
                            },
                            {
                                "list": [
                                    -0.5986015796661377,
                                    -0.9484591484069824
                                ]
                            }
                        ]
                    }
                ]
            },
            "Biases": {
                "list": [
                    -0.9785349369049072,
                    -0.4548534154891968,
                    -0.5659348964691162
                ]
            },
            "Fitness": 3687.404296875
        },
        {
            "InputLayer": {
                "list": [
                    0.2079414576292038,
                    -1.0,
                    0.07829860597848892
                ]
            },
            "HiddenLayers": {
                "list": [
                    {
                        "list": [
                            0.9620920419692993,
                            0.9175823330879211,
                            0.7708534598350525,
                            0.013572514988481999,
                            0.7532026767730713,
                            0.8879519701004028,
                            0.840140163898468,
                            0.6961652636528015,
                            0.5447480082511902
                        ]
                    },
                    {
                        "list": [
                            0.25701889395713808,
                            0.3674124479293823,
                            -0.4324468672275543,
                            -0.8634126782417297,
                            -0.93702632188797,
                            0.3383297324180603,
                            -0.5742568969726563,
                            0.7736936807632446,
                            -0.9160871505737305
                        ]
                    }
                ]
            },
            "OutputLayer": {
                "list": [
                    -0.025131074711680414,
                    -0.09140448272228241
                ]
            },
            "Weights": {
                "list": [
                    {
                        "list": [
                            {
                                "list": [
                                    0.6435387134552002,
                                    -0.7991697788238525,
                                    -0.9878702163696289,
                                    0.04762732982635498,
                                    0.7774543762207031,
                                    0.3670930564403534,
                                    0.3965427577495575,
                                    -0.6279680728912354,
                                    -0.13094031810760499
                                ]
                            },
                            {
                                "list": [
                                    -0.9960765838623047,
                                    -0.8945057392120361,
                                    -0.34966933727264407,
                                    0.8162853717803955,
                                    0.07341897487640381,
                                    -0.5131890773773193,
                                    -0.36166608333587649,
                                    -0.11916768550872803,
                                    0.14913976192474366
                                ]
                            },
                            {
                                "list": [
                                    0.15314710140228272,
                                    0.17584502696990968,
                                    0.5972073078155518,
                                    -0.1463857889175415,
                                    0.774639368057251,
                                    -0.11213028430938721,
                                    -0.6882727146148682,
                                    0.50852370262146,
                                    -0.564079761505127
                                ]
                            }
                        ]
                    },
                    {
                        "list": [
                            {
                                "list": [
                                    0.5431013107299805,
                                    0.7047226428985596,
                                    -0.9370739459991455,
                                    -0.1379612684249878,
                                    0.03621017932891846,
                                    -0.991905927658081,
                                    0.280635803937912,
                                    0.37526270747184756,
                                    0.47955819964408877
                                ]
                            },
                            {
                                "list": [
                                    0.44508978724479678,
                                    0.7040004730224609,
                                    0.8125603199005127,
                                    -0.08868014812469483,
                                    -0.3077322244644165,
                                    0.49933215975761416,
                                    0.6792867183685303,
                                    0.5634250640869141,
                                    -0.7905447483062744
                                ]
                            },
                            {
                                "list": [
                                    -0.023335814476013185,
                                    -0.10712873935699463,
                                    0.3294825255870819,
                                    0.6630613803863525,
                                    -0.787423849105835,
                                    0.4504964053630829,
                                    0.6060948371887207,
                                    0.42070719599723818,
                                    0.015604615211486817
                                ]
                            },
                            {
                                "list": [
                                    -0.02037060260772705,
                                    -0.9790735244750977,
                                    0.9685676097869873,
                                    -0.7282679080963135,
                                    -0.6171648502349854,
                                    0.9622082710266113,
                                    -0.5007615089416504,
                                    0.7001843452453613,
                                    0.4641716182231903
                                ]
                            },
                            {
                                "list": [
                                    0.37495753169059756,
                                    0.5259566307067871,
                                    -0.5314807891845703,
                                    -0.34572112560272219,
                                    0.15439140796661378,
                                    -0.36974942684173586,
                                    -0.7098350524902344,
                                    0.7376172542572022,
                                    0.24859464168548585
                                ]
                            },
                            {
                                "list": [
                                    0.8361721038818359,
                                    0.07927238941192627,
                                    0.81392502784729,
                                    0.6439268589019775,
                                    0.608264684677124,
                                    0.6140050888061523,
                                    -0.9091951847076416,
                                    -0.8051629066467285,
                                    0.23334205150604249
                                ]
                            },
                            {
                                "list": [
                                    0.537015438079834,
                                    -0.14010846614837647,
                                    0.16514050960540772,
                                    -0.7053864002227783,
                                    -0.5354907512664795,
                                    0.7569847106933594,
                                    0.7965714931488037,
                                    0.48358890414237978,
                                    -0.5677173137664795
                                ]
                            },
                            {
                                "list": [
                                    -0.9413480758666992,
                                    -0.9415669441223145,
                                    0.5996983051300049,
                                    -0.30949580669403078,
                                    -0.6674580574035645,
                                    0.6322081089019775,
                                    -0.5506308078765869,
                                    0.8601863384246826,
                                    -0.6181285381317139
                                ]
                            },
                            {
                                "list": [
                                    -0.9124109745025635,
                                    0.8029532432556152,
                                    -0.879807710647583,
                                    -0.2268749475479126,
                                    0.7001259326934815,
                                    0.21779072284698487,
                                    0.04028809070587158,
                                    -0.10035884380340576,
                                    0.30809661746025088
                                ]
                            }
                        ]
                    },
                    {
                        "list": [
                            {
                                "list": [
                                    -0.31501781940460207,
                                    -0.9291427135467529
                                ]
                            },
                            {
                                "list": [
                                    -0.3594471216201782,
                                    0.7014577388763428
                                ]
                            },
                            {
                                "list": [
                                    -0.25282156467437746,
                                    -0.891812801361084
                                ]
                            },
                            {
                                "list": [
                                    0.394968718290329,
                                    -0.6234636306762695
                                ]
                            },
                            {
                                "list": [
                                    0.8331997394561768,
                                    0.8842000961303711
                                ]
                            },
                            {
                                "list": [
                                    -0.8217854499816895,
                                    0.17649400234222413
                                ]
                            },
                            {
                                "list": [
                                    -0.7381048202514648,
                                    0.6837093830108643
                                ]
                            },
                            {
                                "list": [
                                    0.5687007904052734,
                                    0.3868071734905243
                                ]
                            },
                            {
                                "list": [
                                    -0.5204906463623047,
                                    0.33845755457878115
                                ]
                            }
                        ]
                    }
                ]
            },
            "Biases": {
                "list": [
                    0.8314168453216553,
                    -0.9734411239624023,
                    0.1376713514328003
                ]
            },
            "Fitness": 3576.405517578125
        },
        {
            "InputLayer": {
                "list": [
                    0.17790931463241578,
                    -1.0,
                    0.023580607026815416
                ]
            },
            "HiddenLayers": {
                "list": [
                    {
                        "list": [
                            0.9362605810165405,
                            0.8738521337509155,
                            0.6530948877334595,
                            -0.2151717245578766,
                            0.5888082385063171,
                            0.8238004446029663,
                            0.7652075886726379,
                            0.5456132292747498,
                            0.38587090373039248
                        ]
                    },
                    {
                        "list": [
                            -0.5790325999259949,
                            -0.031051604077219964,
                            0.1637907773256302,
                            -0.9050766825675964,
                            -0.9487693905830383,
                            -0.8178961277008057,
                            -0.20591580867767335,
                            0.09554241597652435,
                            -0.8946644067764282
                        ]
                    }
                ]
            },
            "OutputLayer": {
                "list": [
                    0.45100343227386477,
                    -0.3075037896633148
                ]
            },
            "Weights": {
                "list": [
                    {
                        "list": [
                            {
                                "list": [
                                    0.6435387134552002,
                                    -0.7991697788238525,
                                    -0.9878702163696289,
                                    0.04762732982635498,
                                    0.7774543762207031,
                                    0.3670930564403534,
                                    0.3965427577495575,
                                    -0.6279680728912354,
                                    -0.13094031810760499
                                ]
                            },
                            {
                                "list": [
                                    -0.9960765838623047,
                                    -0.8945057392120361,
                                    -0.34966933727264407,
                                    0.8162853717803955,
                                    0.07341897487640381,
                                    -0.5131890773773193,
                                    -0.36166608333587649,
                                    -0.11916768550872803,
                                    0.14913976192474366
                                ]
                            },
                            {
                                "list": [
                                    0.15314710140228272,
                                    0.17584502696990968,
                                    0.5972073078155518,
                                    -0.1463857889175415,
                                    0.774639368057251,
                                    -0.11213028430938721,
                                    -0.6882727146148682,
                                    0.50852370262146,
                                    -0.564079761505127
                                ]
                            }
                        ]
                    },
                    {
                        "list": [
                            {
                                "list": [
                                    -0.3246922492980957,
                                    0.7047226428985596,
                                    -0.9370739459991455,
                                    -0.1379612684249878,
                                    0.03621017932891846,
                                    -0.991905927658081,
                                    0.280635803937912,
                                    0.37526270747184756,
                                    0.8239135146141052
                                ]
                            },
                            {
                                "list": [
                                    -0.22412684559822083,
                                    0.7040004730224609,
                                    0.8125603199005127,
                                    -0.08868014812469483,
                                    -0.3077322244644165,
                                    0.49933215975761416,
                                    0.6792867183685303,
                                    0.5634250640869141,
                                    -0.7905447483062744
                                ]
                            },
                            {
                                "list": [
                                    0.42661166191101076,
                                    0.039441823959350589,
                                    0.3294825255870819,
                                    0.6630613803863525,
                                    -1.0,
                                    0.4199746549129486,
                                    0.6060948371887207,
                                    0.42070719599723818,
                                    0.015604615211486817
                                ]
                            },
                            {
                                "list": [
                                    -0.36625075340270998,
                                    -0.9790735244750977,
                                    0.570492148399353,
                                    -1.0,
                                    -0.9165099859237671,
                                    1.0,
                                    -0.5007615089416504,
                                    0.7001843452453613,
                                    0.4641716182231903
                                ]
                            },
                            {
                                "list": [
                                    0.37495753169059756,
                                    -0.39412856101989748,
                                    0.3116755485534668,
                                    -1.0,
                                    0.15439140796661378,
                                    -0.36974942684173586,
                                    -0.7098350524902344,
                                    -0.060929298400878909,
                                    0.24859464168548585
                                ]
                            },
                            {
                                "list": [
                                    0.8361721038818359,
                                    0.07927238941192627,
                                    0.81392502784729,
                                    0.7524555921554565,
                                    0.31306278705596926,
                                    -0.24208426475524903,
                                    -1.0,
                                    -0.8051629066467285,
                                    0.10579442977905274
                                ]
                            },
                            {
                                "list": [
                                    0.537015438079834,
                                    -0.14010846614837647,
                                    0.38229966163635256,
                                    -0.7053864002227783,
                                    -0.5354907512664795,
                                    0.6545451879501343,
                                    0.7965714931488037,
                                    0.48358890414237978,
                                    -0.5677173137664795
                                ]
                            },
                            {
                                "list": [
                                    -0.9413480758666992,
                                    -0.8643022775650024,
                                    0.5996983051300049,
                                    -0.30949580669403078,
                                    -0.6674580574035645,
                                    0.6322081089019775,
                                    -0.5506308078765869,
                                    0.8601863384246826,
                                    -0.5909088850021362
                                ]
                            },
                            {
                                "list": [
                                    -0.9124109745025635,
                                    0.4574155807495117,
                                    -0.6742979288101196,
                                    -0.7519315481185913,
                                    0.7001259326934815,
                                    -0.44684088230133059,
                                    0.8740049600601196,
                                    -0.10035884380340576,
                                    0.15815219283103944
                                ]
                            }
                        ]
                    },
                    {
                        "list": [
                            {
                                "list": [
                                    -0.31501781940460207,
                                    -0.9291427135467529
                                ]
                            },
                            {
                                "list": [
                                    -0.3594471216201782,
                                    0.7014577388763428
                                ]
                            },
                            {
                                "list": [
                                    -0.25282156467437746,
                                    -0.891812801361084
                                ]
                            },
                            {
                                "list": [
                                    0.394968718290329,
                                    -0.6234636306762695
                                ]
                            },
                            {
                                "list": [
                                    0.8331997394561768,
                                    0.8842000961303711
                                ]
                            },
                            {
                                "list": [
                                    -0.8217854499816895,
                                    0.17649400234222413
                                ]
                            },
                            {
                                "list": [
                                    -0.7381048202514648,
                                    0.6837093830108643
                                ]
                            },
                            {
                                "list": [
                                    0.5687007904052734,
                                    0.3868071734905243
                                ]
                            },
                            {
                                "list": [
                                    -0.5204906463623047,
                                    0.33845755457878115
                                ]
                            }
                        ]
                    }
                ]
            },
            "Biases": {
                "list": [
                    0.592676043510437,
                    -0.9734411239624023,
                    0.1376713514328003
                ]
            },
            "Fitness": 3290.70263671875
        },
        {
            "InputLayer": {
                "list": [
                    0.18952308595180512,
                    -1.0,
                    0.1119721382856369
                ]
            },
            "HiddenLayers": {
                "list": [
                    {
                        "list": [
                            -0.7545485496520996,
                            -0.6244363784790039,
                            -0.934724748134613,
                            -0.7187656760215759,
                            -0.8476292490959168,
                            -0.9312648773193359,
                            -0.5870618224143982,
                            -0.704279899597168,
                            0.026992199942469598
                        ]
                    },
                    {
                        "list": [
                            -0.4885405898094177,
                            -0.6486830711364746,
                            -0.6133229732513428,
                            -0.6210643649101257,
                            -0.5142408013343811,
                            -0.541981041431427,
                            -0.9206200242042542,
                            -0.9008980989456177,
                            0.8137804865837097
                        ]
                    }
                ]
            },
            "OutputLayer": {
                "list": [
                    0.8576328754425049,
                    -0.6221809983253479
                ]
            },
            "Weights": {
                "list": [
                    {
                        "list": [
                            {
                                "list": [
                                    0.23219335079193116,
                                    -0.9181947708129883,
                                    0.1403590440750122,
                                    0.9461374282836914,
                                    -0.5623956918716431,
                                    -0.8043297529220581,
                                    0.5666418075561523,
                                    0.6121230125427246,
                                    -0.21026790142059327
                                ]
                            },
                            {
                                "list": [
                                    -0.041564345359802249,
                                    -0.38366639614105227,
                                    0.7483639717102051,
                                    0.0981752872467041,
                                    0.070320725440979,
                                    0.5279498100280762,
                                    -0.1486600637435913,
                                    0.10551583766937256,
                                    -0.9686679840087891
                                ]
                            },
                            {
                                "list": [
                                    -0.8079618215560913,
                                    0.3272554576396942,
                                    0.051296353340148929,
                                    -0.06868970394134522,
                                    -0.8236715793609619,
                                    -0.07958590984344483,
                                    0.4403969943523407,
                                    0.8242862224578857,
                                    0.6851370334625244
                                ]
                            }
                        ]
                    },
                    {
                        "list": [
                            {
                                "list": [
                                    -0.1901944875717163,
                                    -0.7322642803192139,
                                    -0.8795812129974365,
                                    0.9930553436279297,
                                    0.6509873867034912,
                                    0.643101692199707,
                                    -0.4348973035812378,
                                    0.4854676425457001,
                                    -0.8807170391082764
                                ]
                            },
                            {
                                "list": [
                                    0.32308241724967959,
                                    0.4811408221721649,
                                    0.394072026014328,
                                    -0.4736684560775757,
                                    -0.6689231395721436,
                                    -0.24261438846588136,
                                    0.5158371925354004,
                                    0.3944949805736542,
                                    -0.9459729194641113
                                ]
                            },
                            {
                                "list": [
                                    -0.00975191593170166,
                                    0.028654932975769044,
                                    0.06960403919219971,
                                    0.3571626842021942,
                                    0.8248779773712158,
                                    0.8072328567504883,
                                    0.797072172164917,
                                    -0.22134578227996827,
                                    0.33307263255119326
                                ]
                            },
                            {
                                "list": [
                                    0.9351999759674072,
                                    0.561851978302002,
                                    0.3732013404369354,
                                    0.10229027271270752,
                                    0.12378919124603272,
                                    -0.6742911338806152,
                                    0.03537428379058838,
                                    -0.849515438079834,
                                    0.48006102442741396
                                ]
                            },
                            {
                                "list": [
                                    0.9200935363769531,
                                    0.8577592372894287,
                                    -0.3036106824874878,
                                    -0.2695678472518921,
                                    -0.9179494380950928,
                                    -0.33895742893218996,
                                    0.7862327098846436,
                                    0.39229270815849306,
                                    -0.11162769794464112
                                ]
                            },
                            {
                                "list": [
                                    -0.7899808883666992,
                                    -0.496066689491272,
                                    0.34158989787101748,
                                    -0.3239091634750366,
                                    0.8919689655303955,
                                    -0.10256826877593994,
                                    -0.2302030324935913,
                                    0.5173294544219971,
                                    -0.22706472873687745
                                ]
                            },
                            {
                                "list": [
                                    -0.7897248268127441,
                                    -0.5089116096496582,
                                    0.7690005302429199,
                                    -0.17266881465911866,
                                    0.05565941333770752,
                                    0.7727396488189697,
                                    0.42082497477531435,
                                    0.9666433334350586,
                                    -0.2882918119430542
                                ]
                            },
                            {
                                "list": [
                                    0.02554476261138916,
                                    0.6279613971710205,
                                    0.09736263751983643,
                                    0.38872238993644717,
                                    -0.9431850910186768,
                                    -0.370447039604187,
                                    -0.11803019046783447,
                                    0.15291082859039308,
                                    -0.38679373264312746
                                ]
                            },
                            {
                                "list": [
                                    -0.11135756969451904,
                                    0.938934326171875,
                                    -0.2415074110031128,
                                    -0.4568122625350952,
                                    -0.10156667232513428,
                                    0.6608617305755615,
                                    -0.05325806140899658,
                                    0.6994054317474365,
                                    0.10246026515960694
                                ]
                            }
                        ]
                    },
                    {
                        "list": [
                            {
                                "list": [
                                    -0.724926233291626,
                                    0.9809300899505615
                                ]
                            },
                            {
                                "list": [
                                    -0.7728970050811768,
                                    -0.8824963569641113
                                ]
                            },
                            {
                                "list": [
                                    -0.4414585828781128,
                                    -0.7455220222473145
                                ]
                            },
                            {
                                "list": [
                                    -0.2599676847457886,
                                    -0.9293878078460693
                                ]
                            },
                            {
                                "list": [
                                    -0.5975062847137451,
                                    0.6598107814788818
                                ]
                            },
                            {
                                "list": [
                                    -0.9031486511230469,
                                    0.38817283511161806
                                ]
                            },
                            {
                                "list": [
                                    -0.9588429927825928,
                                    0.44720718264579775
                                ]
                            },
                            {
                                "list": [
                                    0.6991093158721924,
                                    -0.49163925647735598
                                ]
                            },
                            {
                                "list": [
                                    -0.5986015796661377,
                                    -0.9484591484069824
                                ]
                            }
                        ]
                    }
                ]
            },
            "Biases": {
                "list": [
                    -0.9785349369049072,
                    -0.21123802661895753,
                    -0.5659348964691162
                ]
            },
            "Fitness": 3224.90234375
        },
        {
            "InputLayer": {
                "list": [
                    0.14750902354717256,
                    -1.0,
                    0.1551411896944046
                ]
            },
            "HiddenLayers": {
                "list": [
                    {
                        "list": [
                            0.6596342921257019,
                            0.9359946250915527,
                            0.2994115948677063,
                            0.0035773958079516889,
                            0.021139750257134439,
                            0.9404175877571106,
                            0.6672536134719849,
                            0.9212325215339661,
                            0.7067500352859497
                        ]
                    },
                    {
                        "list": [
                            0.41607287526130679,
                            -0.36539188027381899,
                            -0.28759241104125979,
                            -0.8526593446731567,
                            -0.9980668425559998,
                            -0.9661632776260376,
                            -0.8584628105163574,
                            0.12997019290924073,
                            -0.9124138951301575
                        ]
                    }
                ]
            },
            "OutputLayer": {
                "list": [
                    0.2288765162229538,
                    0.49811312556266787
                ]
            },
            "Weights": {
                "list": [
                    {
                        "list": [
                            {
                                "list": [
                                    0.013578534126281739,
                                    -0.9142463207244873,
                                    -0.8437485694885254,
                                    -0.9212300777435303,
                                    -0.8099517822265625,
                                    0.47307202219963076,
                                    -0.6570079326629639,
                                    0.4643411338329315,
                                    0.8413255214691162
                                ]
                            },
                            {
                                "list": [
                                    0.32077762484550478,
                                    -0.8697898387908936,
                                    0.5783443450927734,
                                    0.8324744701385498,
                                    0.8949668407440186,
                                    -0.8078742027282715,
                                    0.09473049640655518,
                                    -0.514188289642334,
                                    0.20395934581756593
                                ]
                            },
                            {
                                "list": [
                                    0.7946445941925049,
                                    -0.11527693271636963,
                                    0.1548234224319458,
                                    -0.10130679607391358,
                                    0.30892178416252139,
                                    -0.7971210479736328,
                                    0.06292879581451416,
                                    0.17254960536956788,
                                    -0.1749492883682251
                                ]
                            }
                        ]
                    },
                    {
                        "list": [
                            {
                                "list": [
                                    -0.9116547107696533,
                                    -0.6190135478973389,
                                    -0.9208910465240479,
                                    -0.34180915355682375,
                                    -0.820075511932373,
                                    -0.698258638381958,
                                    0.5575432777404785,
                                    0.18794667720794679,
                                    -0.24136388301849366
                                ]
                            },
                            {
                                "list": [
                                    0.506108283996582,
                                    -0.10151875019073487,
                                    -0.9067704677581787,
                                    -0.6129043102264404,
                                    -0.38346707820892336,
                                    0.6241252422332764,
                                    -0.7969305515289307,
                                    0.4920508563518524,
                                    -0.332039475440979
                                ]
                            },
                            {
                                "list": [
                                    0.005967259407043457,
                                    -0.10402786731719971,
                                    0.5487987995147705,
                                    -0.8433940410614014,
                                    -0.2643951177597046,
                                    -0.9122810363769531,
                                    -0.8020334243774414,
                                    0.18299543857574464,
                                    0.5783994197845459
                                ]
                            },
                            {
                                "list": [
                                    0.28864118456840517,
                                    -0.9705805778503418,
                                    -0.4339824914932251,
                                    0.6332647800445557,
                                    -0.6136581897735596,
                                    0.9342288970947266,
                                    -0.7326052188873291,
                                    -0.27989447116851809,
                                    0.9991583824157715
                                ]
                            },
                            {
                                "list": [
                                    -0.10670650005340576,
                                    0.8158845901489258,
                                    0.07124364376068115,
                                    -0.7866551876068115,
                                    -0.645472526550293,
                                    0.8324618339538574,
                                    0.21069777011871339,
                                    -0.6890101432800293,
                                    0.22527015209197999
                                ]
                            },
                            {
                                "list": [
                                    0.9940223693847656,
                                    0.6527466773986816,
                                    0.618539571762085,
                                    0.9369499683380127,
                                    -0.9440009593963623,
                                    -0.4871565103530884,
                                    0.455672949552536,
                                    0.4676191508769989,
                                    -0.7939596176147461
                                ]
                            },
                            {
                                "list": [
                                    -0.45711004734039309,
                                    0.663872241973877,
                                    0.2338634729385376,
                                    0.2740010917186737,
                                    -0.8315761089324951,
                                    -0.6698861122131348,
                                    0.059153199195861819,
                                    0.6333580017089844,
                                    -0.05711376667022705
                                ]
                            },
                            {
                                "list": [
                                    -0.40849077701568606,
                                    -0.1819092035293579,
                                    0.6487178802490234,
                                    -0.41752564907073977,
                                    -0.26245224475860598,
                                    -0.4083167314529419,
                                    -0.6451961994171143,
                                    -0.4858180284500122,
                                    -0.5134754180908203
                                ]
                            },
                            {
                                "list": [
                                    0.7754082679748535,
                                    -0.7359681129455566,
                                    -0.1526697874069214,
                                    -0.9163355827331543,
                                    -0.7918424606323242,
                                    -0.551501989364624,
                                    -0.4430943727493286,
                                    -0.957036018371582,
                                    0.33393046259880068
                                ]
                            }
                        ]
                    },
                    {
                        "list": [
                            {
                                "list": [
                                    -0.9954001903533936,
                                    0.21571767330169679
                                ]
                            },
                            {
                                "list": [
                                    -0.8995561599731445,
                                    0.6777386665344238
                                ]
                            },
                            {
                                "list": [
                                    -0.22516119480133058,
                                    -0.26752007007598879
                                ]
                            },
                            {
                                "list": [
                                    -0.7794609069824219,
                                    -0.9054644107818604
                                ]
                            },
                            {
                                "list": [
                                    -0.18395912647247315,
                                    0.7872986793518066
                                ]
                            },
                            {
                                "list": [
                                    -0.16212904453277589,
                                    0.33658406138420107
                                ]
                            },
                            {
                                "list": [
                                    -0.6739704608917236,
                                    -0.8978471755981445
                                ]
                            },
                            {
                                "list": [
                                    -0.3410450220108032,
                                    0.24278795719146729
                                ]
                            },
                            {
                                "list": [
                                    0.9608972072601318,
                                    -0.6280033588409424
                                ]
                            }
                        ]
                    }
                ]
            },
            "Biases": {
                "list": [
                    0.9876585006713867,
                    -0.2314787209033966,
                    -0.40866076946258547
                ]
            },
            "Fitness": 2680.10009765625
        },
        {
            "InputLayer": {
                "list": [
                    0.18301771581172944,
                    -1.0,
                    0.10747817903757096
                ]
            },
            "HiddenLayers": {
                "list": [
                    {
                        "list": [
                            0.33677539229393008,
                            0.5449890494346619,
                            0.13366307318210603,
                            0.710408091545105,
                            0.9214179515838623,
                            0.7912328243255615,
                            0.27435728907585146,
                            0.7991971373558044,
                            0.9380187392234802
                        ]
                    },
                    {
                        "list": [
                            0.5966454744338989,
                            -0.0901142954826355,
                            -0.13327285647392274,
                            0.994429886341095,
                            -0.4042317569255829,
                            -0.033322688192129138,
                            0.6508978009223938,
                            0.19980083405971528,
                            0.9375393390655518
                        ]
                    }
                ]
            },
            "OutputLayer": {
                "list": [
                    0.8849610090255737,
                    -0.9148985147476196
                ]
            },
            "Weights": {
                "list": [
                    {
                        "list": [
                            {
                                "list": [
                                    0.6304090023040772,
                                    -0.6122727394104004,
                                    -0.4181860685348511,
                                    -0.5128095149993897,
                                    0.32346054911613467,
                                    0.45084211230278017,
                                    0.4008619487285614,
                                    0.04591071605682373,
                                    0.06364166736602783
                                ]
                            },
                            {
                                "list": [
